FANN_FLO_2.1
num_layers=4
learning_rate=0.150000
connection_rate=1.000000
network_type=0
learning_momentum=0.650000
training_algorithm=2
train_error_function=1
train_stop_function=0
cascade_output_change_fraction=0.010000
quickprop_decay=-0.000100
quickprop_mu=1.750000
rprop_increase_factor=1.200000
rprop_decrease_factor=0.500000
rprop_delta_min=0.000000
rprop_delta_max=50.000000
rprop_delta_zero=0.100000
cascade_output_stagnation_epochs=12
cascade_candidate_change_fraction=0.010000
cascade_candidate_stagnation_epochs=12
cascade_max_out_epochs=150
cascade_max_cand_epochs=150
cascade_num_candidate_groups=2
bit_fail_limit=1.00000000000000002082e-02
cascade_candidate_limit=1.00000000000000000000e+03
cascade_weight_multiplier=4.00000000000000022204e-01
cascade_activation_functions_count=10
cascade_activation_functions=3 5 7 8 10 11 14 15 16 17 
cascade_activation_steepnesses_count=4
cascade_activation_steepnesses=2.50000000000000000000e-01 5.00000000000000000000e-01 7.50000000000000000000e-01 1.00000000000000000000e+00 
layer_sizes=63 60 54 57 
scale_included=0
neurons (num_inputs, activation_function, activation_steepness)=(0, 0, 0.00000000000000000000e+00) (0, 0, 0.00000000000000000000e+00) (0, 0, 0.00000000000000000000e+00) (0, 0, 0.00000000000000000000e+00) (0, 0, 0.00000000000000000000e+00) (0, 0, 0.00000000000000000000e+00) (0, 0, 0.00000000000000000000e+00) (0, 0, 0.00000000000000000000e+00) (0, 0, 0.00000000000000000000e+00) (0, 0, 0.00000000000000000000e+00) (0, 0, 0.00000000000000000000e+00) (0, 0, 0.00000000000000000000e+00) (0, 0, 0.00000000000000000000e+00) (0, 0, 0.00000000000000000000e+00) (0, 0, 0.00000000000000000000e+00) (0, 0, 0.00000000000000000000e+00) (0, 0, 0.00000000000000000000e+00) (0, 0, 0.00000000000000000000e+00) (0, 0, 0.00000000000000000000e+00) (0, 0, 0.00000000000000000000e+00) (0, 0, 0.00000000000000000000e+00) (0, 0, 0.00000000000000000000e+00) (0, 0, 0.00000000000000000000e+00) (0, 0, 0.00000000000000000000e+00) (0, 0, 0.00000000000000000000e+00) (0, 0, 0.00000000000000000000e+00) (0, 0, 0.00000000000000000000e+00) (0, 0, 0.00000000000000000000e+00) (0, 0, 0.00000000000000000000e+00) (0, 0, 0.00000000000000000000e+00) (0, 0, 0.00000000000000000000e+00) (0, 0, 0.00000000000000000000e+00) (0, 0, 0.00000000000000000000e+00) (0, 0, 0.00000000000000000000e+00) (0, 0, 0.00000000000000000000e+00) (0, 0, 0.00000000000000000000e+00) (0, 0, 0.00000000000000000000e+00) (0, 0, 0.00000000000000000000e+00) (0, 0, 0.00000000000000000000e+00) (0, 0, 0.00000000000000000000e+00) (0, 0, 0.00000000000000000000e+00) (0, 0, 0.00000000000000000000e+00) (0, 0, 0.00000000000000000000e+00) (0, 0, 0.00000000000000000000e+00) (0, 0, 0.00000000000000000000e+00) (0, 0, 0.00000000000000000000e+00) (0, 0, 0.00000000000000000000e+00) (0, 0, 0.00000000000000000000e+00) (0, 0, 0.00000000000000000000e+00) (0, 0, 0.00000000000000000000e+00) (0, 0, 0.00000000000000000000e+00) (0, 0, 0.00000000000000000000e+00) (0, 0, 0.00000000000000000000e+00) (0, 0, 0.00000000000000000000e+00) (0, 0, 0.00000000000000000000e+00) (0, 0, 0.00000000000000000000e+00) (0, 0, 0.00000000000000000000e+00) (0, 0, 0.00000000000000000000e+00) (0, 0, 0.00000000000000000000e+00) (0, 0, 0.00000000000000000000e+00) (0, 0, 0.00000000000000000000e+00) (0, 0, 0.00000000000000000000e+00) (0, 0, 0.00000000000000000000e+00) (63, 5, 5.00000000000000000000e-01) (63, 5, 5.00000000000000000000e-01) (63, 5, 5.00000000000000000000e-01) (63, 5, 5.00000000000000000000e-01) (63, 5, 5.00000000000000000000e-01) (63, 5, 5.00000000000000000000e-01) (63, 5, 5.00000000000000000000e-01) (63, 5, 5.00000000000000000000e-01) (63, 5, 5.00000000000000000000e-01) (63, 5, 5.00000000000000000000e-01) (63, 5, 5.00000000000000000000e-01) (63, 5, 5.00000000000000000000e-01) (63, 5, 5.00000000000000000000e-01) (63, 5, 5.00000000000000000000e-01) (63, 5, 5.00000000000000000000e-01) (63, 5, 5.00000000000000000000e-01) (63, 5, 5.00000000000000000000e-01) (63, 5, 5.00000000000000000000e-01) (63, 5, 5.00000000000000000000e-01) (63, 5, 5.00000000000000000000e-01) (63, 5, 5.00000000000000000000e-01) (63, 5, 5.00000000000000000000e-01) (63, 5, 5.00000000000000000000e-01) (63, 5, 5.00000000000000000000e-01) (63, 5, 5.00000000000000000000e-01) (63, 5, 5.00000000000000000000e-01) (63, 5, 5.00000000000000000000e-01) (63, 5, 5.00000000000000000000e-01) (63, 5, 5.00000000000000000000e-01) (63, 5, 5.00000000000000000000e-01) (63, 5, 5.00000000000000000000e-01) (63, 5, 5.00000000000000000000e-01) (63, 5, 5.00000000000000000000e-01) (63, 5, 5.00000000000000000000e-01) (63, 5, 5.00000000000000000000e-01) (63, 5, 5.00000000000000000000e-01) (63, 5, 5.00000000000000000000e-01) (63, 5, 5.00000000000000000000e-01) (63, 5, 5.00000000000000000000e-01) (63, 5, 5.00000000000000000000e-01) (63, 5, 5.00000000000000000000e-01) (63, 5, 5.00000000000000000000e-01) (63, 5, 5.00000000000000000000e-01) (63, 5, 5.00000000000000000000e-01) (63, 5, 5.00000000000000000000e-01) (63, 5, 5.00000000000000000000e-01) (63, 5, 5.00000000000000000000e-01) (63, 5, 5.00000000000000000000e-01) (63, 5, 5.00000000000000000000e-01) (63, 5, 5.00000000000000000000e-01) (63, 5, 5.00000000000000000000e-01) (63, 5, 5.00000000000000000000e-01) (63, 5, 5.00000000000000000000e-01) (63, 5, 5.00000000000000000000e-01) (63, 5, 5.00000000000000000000e-01) (63, 5, 5.00000000000000000000e-01) (63, 5, 5.00000000000000000000e-01) (63, 5, 5.00000000000000000000e-01) (63, 5, 5.00000000000000000000e-01) (0, 5, 0.00000000000000000000e+00) (60, 5, 5.00000000000000000000e-01) (60, 5, 5.00000000000000000000e-01) (60, 5, 5.00000000000000000000e-01) (60, 5, 5.00000000000000000000e-01) (60, 5, 5.00000000000000000000e-01) (60, 5, 5.00000000000000000000e-01) (60, 5, 5.00000000000000000000e-01) (60, 5, 5.00000000000000000000e-01) (60, 5, 5.00000000000000000000e-01) (60, 5, 5.00000000000000000000e-01) (60, 5, 5.00000000000000000000e-01) (60, 5, 5.00000000000000000000e-01) (60, 5, 5.00000000000000000000e-01) (60, 5, 5.00000000000000000000e-01) (60, 5, 5.00000000000000000000e-01) (60, 5, 5.00000000000000000000e-01) (60, 5, 5.00000000000000000000e-01) (60, 5, 5.00000000000000000000e-01) (60, 5, 5.00000000000000000000e-01) (60, 5, 5.00000000000000000000e-01) (60, 5, 5.00000000000000000000e-01) (60, 5, 5.00000000000000000000e-01) (60, 5, 5.00000000000000000000e-01) (60, 5, 5.00000000000000000000e-01) (60, 5, 5.00000000000000000000e-01) (60, 5, 5.00000000000000000000e-01) (60, 5, 5.00000000000000000000e-01) (60, 5, 5.00000000000000000000e-01) (60, 5, 5.00000000000000000000e-01) (60, 5, 5.00000000000000000000e-01) (60, 5, 5.00000000000000000000e-01) (60, 5, 5.00000000000000000000e-01) (60, 5, 5.00000000000000000000e-01) (60, 5, 5.00000000000000000000e-01) (60, 5, 5.00000000000000000000e-01) (60, 5, 5.00000000000000000000e-01) (60, 5, 5.00000000000000000000e-01) (60, 5, 5.00000000000000000000e-01) (60, 5, 5.00000000000000000000e-01) (60, 5, 5.00000000000000000000e-01) (60, 5, 5.00000000000000000000e-01) (60, 5, 5.00000000000000000000e-01) (60, 5, 5.00000000000000000000e-01) (60, 5, 5.00000000000000000000e-01) (60, 5, 5.00000000000000000000e-01) (60, 5, 5.00000000000000000000e-01) (60, 5, 5.00000000000000000000e-01) (60, 5, 5.00000000000000000000e-01) (60, 5, 5.00000000000000000000e-01) (60, 5, 5.00000000000000000000e-01) (60, 5, 5.00000000000000000000e-01) (60, 5, 5.00000000000000000000e-01) (60, 5, 5.00000000000000000000e-01) (0, 5, 0.00000000000000000000e+00) (54, 3, 5.00000000000000000000e-01) (54, 3, 5.00000000000000000000e-01) (54, 3, 5.00000000000000000000e-01) (54, 3, 5.00000000000000000000e-01) (54, 3, 5.00000000000000000000e-01) (54, 3, 5.00000000000000000000e-01) (54, 3, 5.00000000000000000000e-01) (54, 3, 5.00000000000000000000e-01) (54, 3, 5.00000000000000000000e-01) (54, 3, 5.00000000000000000000e-01) (54, 3, 5.00000000000000000000e-01) (54, 3, 5.00000000000000000000e-01) (54, 3, 5.00000000000000000000e-01) (54, 3, 5.00000000000000000000e-01) (54, 3, 5.00000000000000000000e-01) (54, 3, 5.00000000000000000000e-01) (54, 3, 5.00000000000000000000e-01) (54, 3, 5.00000000000000000000e-01) (54, 3, 5.00000000000000000000e-01) (54, 3, 5.00000000000000000000e-01) (54, 3, 5.00000000000000000000e-01) (54, 3, 5.00000000000000000000e-01) (54, 3, 5.00000000000000000000e-01) (54, 3, 5.00000000000000000000e-01) (54, 3, 5.00000000000000000000e-01) (54, 3, 5.00000000000000000000e-01) (54, 3, 5.00000000000000000000e-01) (54, 3, 5.00000000000000000000e-01) (54, 3, 5.00000000000000000000e-01) (54, 3, 5.00000000000000000000e-01) (54, 3, 5.00000000000000000000e-01) (54, 3, 5.00000000000000000000e-01) (54, 3, 5.00000000000000000000e-01) (54, 3, 5.00000000000000000000e-01) (54, 3, 5.00000000000000000000e-01) (54, 3, 5.00000000000000000000e-01) (54, 3, 5.00000000000000000000e-01) (54, 3, 5.00000000000000000000e-01) (54, 3, 5.00000000000000000000e-01) (54, 3, 5.00000000000000000000e-01) (54, 3, 5.00000000000000000000e-01) (54, 3, 5.00000000000000000000e-01) (54, 3, 5.00000000000000000000e-01) (54, 3, 5.00000000000000000000e-01) (54, 3, 5.00000000000000000000e-01) (54, 3, 5.00000000000000000000e-01) (54, 3, 5.00000000000000000000e-01) (54, 3, 5.00000000000000000000e-01) (54, 3, 5.00000000000000000000e-01) (54, 3, 5.00000000000000000000e-01) (54, 3, 5.00000000000000000000e-01) (54, 3, 5.00000000000000000000e-01) (54, 3, 5.00000000000000000000e-01) (54, 3, 5.00000000000000000000e-01) (54, 3, 5.00000000000000000000e-01) (54, 3, 5.00000000000000000000e-01) (0, 3, 0.00000000000000000000e+00) 
connections (connected_to_neuron, weight)=(0, 8.88601954779450586841e-01) (1, 6.56222704106220966480e-01) (2, 4.09759269811919679682e-01) (3, -2.57527912494549298117e+01) (4, -1.22663119007764595536e-01) (5, 3.61173860679686486996e-01) (6, -1.25928261244465489188e-01) (7, -3.00739131957465710698e-01) (8, 4.47717780154430577966e+00) (9, -5.20607835464130275227e+00) (10, 1.12706238894007562679e-01) (11, 2.19513023154912972901e-01) (12, 1.50000000000000000000e+03) (13, 9.05890915978649013951e-01) (14, -5.61015949584539180828e-02) (15, 1.15473972965700895088e+01) (16, 3.19493988650679350272e-01) (17, 4.74234453167519276473e-01) (18, 1.91867087911358535912e-01) (19, 6.78723851531612076826e+00) (20, 1.50000000000000000000e+03) (21, -9.58517271607349785612e-02) (22, 3.58524175427366642577e-01) (23, 5.61273661270240697974e+00) (24, 8.80080030848749750305e-01) (25, 2.29480466264119831177e-01) (26, -2.32194151652633573590e+00) (27, 5.05853650843712365770e-01) (28, -2.95881488065135700438e+00) (29, -1.93519422702380483603e-01) (30, 1.24148028077922560897e+01) (31, 6.21522239384626057346e-02) (32, -1.29391764987857715852e+00) (33, 5.96400022846026778289e-01) (34, 3.18459748784810647848e-01) (35, 1.59171640951222298499e-01) (36, -2.51922363320883002658e+00) (37, -7.63787719644129614593e-01) (38, -4.28060859159389850426e-01) (39, 2.85783550318732704199e-01) (40, 2.05932914270048561534e-01) (41, 7.90810376475626242154e+00) (42, 6.03008710807412667831e-02) (43, 4.55367114660405858384e-01) (44, 2.70827403418891721198e-01) (45, 4.32304042402444688165e-01) (46, 1.98412878215153243300e-01) (47, 4.18944269465459040447e-01) (48, 8.74655693209923423836e-01) (49, -3.31184580361160897155e+02) (50, 1.10132368186260667930e-01) (51, -1.26921846372300297645e+01) (52, 5.74892407897433899144e-01) (53, -1.15614350094503265609e+02) (54, 5.63369904109408681236e-01) (55, 1.81011501981721445453e-01) (56, -2.19972622172531462326e+00) (57, 3.68072455190274261394e-01) (58, 1.19095953815747460092e-02) (59, -5.06952654643964661929e-01) (60, 2.77627096825322672302e+00) (61, 2.94737657975307376645e-01) (62, 3.11899843800926224180e-01) (0, 4.83345675952141007325e-01) (1, -2.62318817456270680921e+00) (2, 4.27361796808646943191e-01) (3, 5.67681279761042656418e+00) (4, -7.28073947709319407862e-02) (5, 1.63077497300375240386e-01) (6, 7.62439916717417009995e-02) (7, 7.85368595649394707348e-02) (8, 1.57373654149052044637e+00) (9, 1.58792213334015777093e+01) (10, 2.92585606188928537552e-01) (11, 1.55294954735961082681e-01) (12, 1.50000000000000000000e+03) (13, 7.27158731045154493877e-01) (14, -2.49040231720749793976e-01) (15, -6.11613188105764322700e+01) (16, 3.03252722293590015745e-01) (17, 6.09258579027583180299e-01) (18, -3.27661286222655556699e-01) (19, 7.20928167766475258560e+00) (20, 1.50000000000000000000e+03) (21, -1.18179327936638281504e-01) (22, 1.07576239556630159910e+00) (23, 1.19392611595915951739e+01) (24, 6.77436556524586785955e-01) (25, 2.00410960162247731020e+00) (26, -1.38024951500427900397e-01) (27, 5.65396437230054171863e-01) (28, 1.16865634048478583829e+00) (29, 5.97691962335471713152e-02) (30, 7.92380263966388165287e-01) (31, 1.26951942573002324322e-01) (32, 1.29917038006139184958e-01) (33, 5.09404519483061313245e-01) (34, 7.05410699692936682403e-01) (35, 1.18065907559882402045e-01) (36, 8.95628063734476342894e-01) (37, 7.88167825610703864925e-02) (38, 2.40830431264824479376e-01) (39, 2.71335561305748929062e-01) (40, 3.29914983231780256645e-01) (41, -8.24470873198599130127e-01) (42, -7.44602226055592453235e-01) (43, 3.34818544188904609893e-01) (44, 9.78393497882795282194e-01) (45, 3.40020738891959051209e-01) (46, 3.46843723103411882835e-01) (47, 1.07141828437678804375e-01) (48, 7.31047629714944580126e-02) (49, -7.43526976157872468320e+02) (50, -2.70790617052190185632e+00) (51, 3.12352773474294531653e+00) (52, 4.89341557688622919020e-01) (53, -2.36170982867258487659e+02) (54, 4.22219164967672810906e-01) (55, 1.85700758499075857522e-01) (56, 4.79741272556779785319e-01) (57, -3.74921764068593746377e-02) (58, 6.56274084353768716316e-02) (59, 2.28433938450348650306e-01) (60, 7.31357020464441842655e-01) (61, 2.66468807440645549800e-01) (62, 2.47168312309442778085e-01) (0, -1.18258507303583681319e-02) (1, -1.02248438760854050145e+01) (2, -1.19838035295967304528e+00) (3, -1.96943633868199574621e-02) (4, -1.37430589511625456112e-01) (5, -3.23575099061792492705e-01) (6, -4.11354546435599566223e+00) (7, 9.91010734864106734854e-02) (8, -1.45186593615965442439e+01) (9, -1.07754489615470546937e+02) (10, 9.42977461684394030472e-02) (11, -7.47220736074725999654e-02) (12, 1.50000000000000000000e+03) (13, 1.49588144471616879549e+00) (14, -1.07533871183951842965e-01) (15, 3.19563561205209056837e+00) (16, -5.17973058157625398934e-01) (17, 3.96215706677884249576e-01) (18, -4.17276579662530788806e-01) (19, 1.04877794820878911253e+00) (20, 1.50000000000000000000e+03) (21, 1.22610012154409336871e-01) (22, -8.53472982893069165300e+00) (23, 6.51981592890455807776e+00) (24, -1.22162654160268662196e+01) (25, -1.35888522912053542058e+01) (26, -2.84283997537472632455e-01) (27, -2.15573466731031082588e+00) (28, -1.20952501099587959033e+01) (29, -2.85634069345764629588e-01) (30, 8.55317647056533347794e-01) (31, -7.06382442665098975176e-01) (32, -2.45830348948386755159e-02) (33, -3.19301074226758851982e-01) (34, 6.90046750701279187901e-01) (35, -3.43975777310224384298e-01) (36, -1.42920524416908234500e+00) (37, 4.67221061479957816553e-02) (38, 2.41400097302726879267e-01) (39, -1.68016190247592733797e+00) (40, -5.07100417301632067080e+00) (41, -2.32732460365879800790e-01) (42, -9.05180258778365498529e+00) (43, -3.80059287549207702739e-01) (44, -7.52655809721786361877e+00) (45, -2.53569485503217562083e-01) (46, -4.13631516371667107279e+00) (47, -3.00152098329424965595e-01) (48, -2.28300332793305678081e+01) (49, 2.58775996654301749800e+01) (50, -9.83170870317951028916e-01) (51, -4.77096448015674912124e-01) (52, -9.44883604950384281551e+00) (53, 3.81213378444240413856e-01) (54, 4.60837268853999046381e-02) (55, -1.94216561466600851071e-01) (56, -1.47696332605617403066e-01) (57, 3.92837357588275634668e-02) (58, 3.06297391504712565591e-02) (59, -6.64410658291171185574e-01) (60, -1.37087498187201173305e-01) (61, -8.70450078512570862843e-02) (62, -2.66330401807420180660e-01) (0, 7.61802353038763813142e-02) (1, -1.31040147903025925302e+01) (2, 1.16946687756293327132e-01) (3, 2.02248961179788473430e+01) (4, -5.06592513239111363887e-01) (5, -1.22536581228403870791e-01) (6, -3.06039158301285862951e-01) (7, -2.99563948204664920461e-01) (8, 4.22076041823165382105e-01) (9, 2.30049877056681815191e+01) (10, -9.93317987472707997210e-02) (11, -1.81130730641200304865e-01) (12, 1.50000000000000000000e+03) (13, 3.18990051175898514657e-01) (14, -2.10356724980975406947e-01) (15, 6.97471249473743704073e+00) (16, -2.38061119399945203545e-01) (17, 2.05150297421577892942e-01) (18, -2.97372408555221290349e-01) (19, 1.09486025278523668725e+00) (20, 1.50000000000000000000e+03) (21, -5.01540934702936147538e-01) (22, 5.04628086546799914380e-01) (23, 3.03047579715255421817e+00) (24, 6.37452406119345504898e-01) (25, 3.77348820281618368977e-01) (26, -2.91586566233415667160e-01) (27, 2.82819505158210915408e-01) (28, 2.64447424030203448453e+00) (29, -4.34559006861203245276e-01) (30, 1.06245426213072002852e+00) (31, -4.33293077231995837906e-01) (32, -1.28752242150258461306e-01) (33, 1.41875166163961119459e-01) (34, 2.12138813504569312407e-01) (35, -4.22336117588836934544e-01) (36, 1.44589635596438753629e-01) (37, -1.08423143104890939981e+00) (38, -1.25119332150175177620e-01) (39, -8.68865270127243405351e-02) (40, -1.87454881384376409459e-01) (41, -2.36412106520137310639e+00) (42, -5.13933674936952034074e+00) (43, -2.62760549461148851247e-01) (44, 9.56106959159621294653e-01) (45, -1.16475503632106833218e-01) (46, -1.51055615294167416840e-01) (47, -1.88406797881310872356e-01) (48, 1.52323968722030467227e+00) (49, -2.85201472626213625716e+00) (50, -5.71259892037174199508e-01) (51, 2.71518116287232880168e+00) (52, 1.66821900939182310442e-01) (53, 4.26892162549928855242e+00) (54, 2.48312625267430614473e-01) (55, -7.34189299751037832698e-02) (56, -1.36812681432445709673e-01) (57, -1.83191474103865520329e-01) (58, -2.46026664266218580979e-01) (59, -1.14343734270004909748e-01) (60, 3.69519809334118787617e-03) (61, -1.56569152228783092795e-01) (62, -1.42468004421764465883e-01) (0, 9.49803061127937331420e-01) (1, 1.34487980180148820608e+01) (2, 6.56647484438354411829e-01) (3, -1.90741797331262645798e+01) (4, 3.40550398621861027948e+00) (5, 4.87781032421541305144e-01) (6, 8.99424477769980690312e-01) (7, 3.08215110153025884099e-01) (8, 9.54991765140294290859e+00) (9, 2.49244721881833486421e+00) (10, 8.63624720872340323474e-01) (11, 6.61292770804364327120e-01) (12, 1.50000000000000000000e+03) (13, 3.16819079507128220641e+00) (14, 8.09446003882899667303e-01) (15, -1.82499378109720247210e+01) (16, 7.49670059191634874374e-01) (17, 1.55711905956099521120e+01) (18, 6.70356966924108066408e-01) (19, 6.21153729277378729989e+00) (20, 1.50000000000000000000e+03) (21, 1.38025991818897075802e+00) (22, 2.04842032645543703495e+00) (23, -1.01581674506829013893e+01) (24, 1.65187538404747336074e+01) (25, 4.27184837055808319661e+00) (26, 3.48911713940889178787e+00) (27, 4.18851439543149739464e-01) (28, 2.60296533299628674030e+00) (29, 1.23134936675082573565e+00) (30, 3.44582265480303462368e+00) (31, 5.68836076910405941121e-01) (32, 3.89877880392641318341e-01) (33, 4.27533648007296818161e-01) (34, 1.08588955433365241809e+00) (35, 9.08078134356044786024e-01) (36, 5.00567708433082181330e-01) (37, 3.03563096638396423543e+00) (38, 9.66703546319502615702e-01) (39, 2.06411136597717304042e+00) (40, 8.35208552654413294292e-01) (41, 7.56038026635130488984e+00) (42, 6.06467890664506348308e-01) (43, 5.14851999642520397060e+00) (44, 1.54164794917520753259e+00) (45, 6.22094614916378851888e-01) (46, 8.49232903843065489724e-01) (47, 4.47387099240083296880e-01) (48, 1.87738958185590565364e+00) (49, -1.94093272143176307054e+02) (50, 5.50173067953605876568e-01) (51, 4.61654529788705136895e-01) (52, 6.17052210477692653079e-01) (53, -2.44841166579282756288e+01) (54, 4.45269923451365623457e-01) (55, 6.15344632414634551409e-01) (56, 4.97889504214931832848e-01) (57, 7.98774069237100814433e-01) (58, 6.71840713866081018502e-01) (59, -3.65857812482958455469e-01) (60, 6.09179449102859038589e-01) (61, 7.10018169132944243493e-01) (62, 5.35427693930457859750e-01) (0, -1.51588627949600596168e-01) (1, 7.60917501520752015409e+00) (2, -1.84997289263419739669e-01) (3, -1.15839901928218651506e+01) (4, -3.75999159632371404705e-01) (5, -8.08833419042931656140e-02) (6, 2.66796639496217702359e+00) (7, -3.44926234639637840917e-03) (8, -1.97195780682774319814e+01) (9, -1.15438977884963748011e+02) (10, 2.10980723922798901748e-01) (11, -2.15072642557483734160e-01) (12, 1.50000000000000000000e+03) (13, 2.23208092006954883502e+00) (14, 6.20884159560043755871e-03) (15, -1.83729708890395357912e+02) (16, -3.70254017121374512378e-01) (17, -1.48500044484352611285e+00) (18, -3.07301459745519867095e-01) (19, 4.57398936346804341202e-01) (20, 1.50000000000000000000e+03) (21, 4.45893180581081682856e-01) (22, 1.73094218555572693097e-01) (23, 3.22298986938987708228e+00) (24, 1.45175768543664790444e-01) (25, -1.86124999684997582960e+01) (26, -3.34380193189040886281e+00) (27, -3.47906803301420874952e-01) (28, 5.53347433704193178983e+01) (29, -1.27767642415421434077e-01) (30, 5.88769442130474884856e-01) (31, 3.60953176843636425186e-01) (32, 9.43994566676860324961e-01) (33, -1.48425285997478861866e+00) (34, 6.90689817386791915510e-01) (35, -3.72564746764765475362e-01) (36, -8.07591953573987164638e-01) (37, 1.95224409747367821932e-01) (38, -9.76534487336020856629e-02) (39, -5.74213894685302594922e-01) (40, -6.40603123680394959116e-01) (41, 9.58773263356500038412e-01) (42, 2.64276472433181974786e-01) (43, -3.47984266502690431366e-01) (44, -2.03635063430125633488e+01) (45, -2.94876276662349945390e-01) (46, -7.80617536987371907209e-01) (47, -2.24459343892981222357e-02) (48, -4.60750584485051017936e+00) (49, 2.59913469212690806387e+01) (50, -1.09360027509946045043e+00) (51, 2.62105459166909016133e+00) (52, -6.62549644271222959446e+00) (53, 8.23591370653860188611e+00) (54, -9.66821704109143836847e-02) (55, -6.96475173582039724929e-02) (56, 2.44382294285682172275e-01) (57, 1.50117639259030651727e-02) (58, -4.94540514291747362874e-02) (59, -1.36632358859783448191e-01) (60, -4.97179295128087950228e-01) (61, -2.29128156478645733651e-01) (62, -2.60991370890535201443e-01) (0, 6.55871187343011752269e-01) (1, 8.59575108246910986054e+01) (2, 7.52324889346676073387e-01) (3, 1.22111358795051401671e+02) (4, 7.99733860468208379579e-01) (5, 4.81553022069853731146e-01) (6, 8.60484261340271783247e-01) (7, -1.14214917973372820370e+00) (8, 5.61417747884580808915e+00) (9, 1.13807096174050599302e+01) (10, 6.86018276669260740341e-01) (11, 5.56477735729704936496e-01) (12, 1.50000000000000000000e+03) (13, 5.39761709801647526774e+00) (14, 5.00276832967683549036e-01) (15, -2.67644040565256613462e+00) (16, 6.44553192168788480210e-01) (17, 3.92729954109981704846e+00) (18, 5.75935114257444258357e-01) (19, 5.83945933553367790836e+00) (20, 1.50000000000000000000e+03) (21, 9.80216825215811105032e-01) (22, 1.05440266090356193907e+00) (23, -1.00829616740547542975e+01) (24, -3.98479594659408409285e-01) (25, 2.69132001973796108896e-01) (26, 9.33495325646816276333e+00) (27, 3.54778497590201358225e-01) (28, 1.14053718850289387277e+00) (29, 9.94829965782849878764e-01) (30, 3.00595357099199667061e+00) (31, 6.47583013015377240151e-01) (32, -1.86492785198538890690e+00) (33, 3.79194596075003276248e-01) (34, 1.12362515645253679963e+00) (35, 6.82495299783945408301e-01) (36, 7.85590327318493597542e-02) (37, 1.55262789511524568198e+00) (38, 7.30000355607796302948e-01) (39, 8.33699745219073640179e-01) (40, 9.77272124909436712414e-01) (41, 3.63949046658642361152e+00) (42, 3.73122523681500828374e+00) (43, 5.04545164496552711597e+00) (44, 8.25772164583000733984e-01) (45, 7.12133974967362970432e-01) (46, 7.42205988057060062069e-01) (47, 2.27030767194712962409e-01) (48, 2.51952920544816216797e-01) (49, -1.25413778085398143958e+03) (50, 4.52328475361756909834e-01) (51, -3.72808197395722226708e-02) (52, 6.70569274907473200642e-01) (53, -2.54432206276459673688e+01) (54, 1.37474328877937268523e+00) (55, 4.05860865220099564787e-01) (56, 6.11568938907255055248e-01) (57, 6.78880343351314308187e-01) (58, 1.84849357457214286127e-01) (59, 1.34830345249362770765e-01) (60, 6.36106980584942860446e-01) (61, 7.15270568934427530827e-01) (62, 5.61486688364600250445e-01) (0, 7.79644619185489995417e-01) (1, 4.59264390307389178125e-02) (2, 4.73358481737805925071e-01) (3, 2.25784878840136542522e+01) (4, 2.21279140771437510260e-01) (5, 2.60732429883413163729e-01) (6, 2.71203598190978556470e-01) (7, 3.20054468539354097789e-01) (8, 1.11839356859740739480e+01) (9, 1.55023570058351811696e+01) (10, 4.02228843688475168339e-01) (11, 3.15570789804222873176e-01) (12, 1.50000000000000000000e+03) (13, 6.03403148520506915631e-01) (14, 2.90322707602776786118e-01) (15, 3.95138316931216648786e-01) (16, 4.69633912649208673518e-01) (17, 6.28833480301032921034e-01) (18, 2.94935525983337110123e-01) (19, 1.12043839459517236001e+00) (20, 1.50000000000000000000e+03) (21, 9.66737743842624452917e-02) (22, 1.18023874653499394327e+00) (23, 1.13559614637082173516e+01) (24, 1.15504107811272493933e+00) (25, 1.07187564161355219916e+00) (26, 2.66165499251316106655e-01) (27, 8.52466504411364067728e-01) (28, 4.01345930780586446218e+00) (29, 2.01530254142522381733e-02) (30, 1.41351477129038860525e+00) (31, 1.53502514464738726296e-01) (32, 5.07028678815904854105e-01) (33, 6.14242720326677371645e-01) (34, 8.56192166952751576581e-01) (35, 2.13782060752314151397e-01) (36, 1.00495970566522974110e+00) (37, -7.20822330412732692473e-01) (38, 4.36882957086737966357e-01) (39, 5.07240569189988610432e-01) (40, 2.32064936803529325848e-01) (41, -1.65535876623145816744e+00) (42, -3.48197466400276622878e+00) (43, 4.25315811596301440733e-01) (44, 1.23385887097996427286e+00) (45, 3.01487346682811796494e-01) (46, 3.52477341538975141866e-01) (47, 5.85378580280706439787e-01) (48, 1.91593218698713441128e+00) (49, -4.55797652980840162229e+00) (50, -3.30931825588980321751e-01) (51, 5.22066572506913217921e+00) (52, 6.23737835907868465313e-01) (53, 2.75768886985347716490e+00) (54, 5.36590049446742267669e-01) (55, 6.09097317143890482072e-01) (56, 5.73989864517995052040e-01) (57, 4.86241677402229788285e-01) (58, 2.92629183507137069498e-01) (59, 5.89824437445606086783e-01) (60, 5.48312368216700041224e-01) (61, 4.82171640249672683876e-01) (62, 4.45224466972866383951e-01) (0, 1.19674851031763207487e+00) (1, 1.92433222363445793235e+02) (2, 3.07603077488620346713e+00) (3, -4.05810340512715370664e+01) (4, 2.80824521836136398178e+00) (5, 6.65502998677496515612e-01) (6, 1.46731066724547805080e+01) (7, -1.64535083566531858956e+00) (8, 1.48733658754084459019e+01) (9, 3.40943385016107527008e+02) (10, -8.85480285628311825086e-01) (11, 2.08319016793009320621e-01) (12, 1.50000000000000000000e+03) (13, -3.14944042061780237418e+02) (14, 9.71136098866881125602e-01) (15, 1.17792855535164619596e+02) (16, 3.51612215495240021390e-01) (17, 1.36923531470553623279e+01) (18, -3.02457773541440477771e+00) (19, -6.92807009980241694791e-01) (20, 1.50000000000000000000e+03) (21, 5.19266475474387978473e-01) (22, 7.33689944925269621478e-01) (23, 1.74332280503437075936e+01) (24, 2.26673765135214239308e+02) (25, -9.51088843472429346093e+01) (26, 1.68780778197230452164e+00) (27, 5.47525662961235615178e-01) (28, -5.99051866658157123879e+01) (29, 1.70128965386388508740e+00) (30, -7.70310697741751937428e+01) (31, 6.37552540667473355285e-01) (32, -1.85942001301580694950e+00) (33, 1.38852596168954622868e-01) (34, 9.72160006235902818261e-01) (35, 4.35247690008525367489e-01) (36, 1.04021669587814291624e+00) (37, 2.08739509285195161681e+01) (38, 2.45322342370680779311e+00) (39, 2.33792531819206717003e+00) (40, 8.29021216500276736383e+00) (41, -1.22513288475360981877e+00) (42, -1.31430082173008486279e+02) (43, 1.03317233649649491412e+01) (44, 1.24482574728305039891e+00) (45, 4.99694411916603353774e-01) (46, 6.06385489891815399055e-01) (47, 7.64262673920541257822e-01) (48, 6.49977922526402380754e+01) (49, 2.04838636898968985633e+02) (50, 6.05551181690346829178e-01) (51, -7.55217902042735715895e+01) (52, 3.08752412239512263881e+00) (53, -1.62329784990318529481e+02) (54, 6.11522459047730038151e+01) (55, 6.82043997127927126289e-02) (56, -1.88101744351763278118e+00) (57, -2.17768915974923649159e+00) (58, -6.08824265742114234534e-01) (59, -7.87928785658549180049e-01) (60, -1.20165138388450776219e+00) (61, -4.93665690650221422597e-01) (62, 4.00199522132749008207e-01) (0, 2.89919443665348852690e+00) (1, 6.53484553331718984737e+01) (2, 1.65529915843305808210e+00) (3, -1.11878552494395208328e+02) (4, -1.00580506590189910909e+00) (5, 6.10589503843640413194e-01) (6, -3.82350829140248693605e+00) (7, 1.04652685236290787785e+00) (8, 5.80814797414749861559e+01) (9, 1.15449842534640339409e+02) (10, -2.93083946752902235744e+00) (11, 9.78909289375659019683e-02) (12, 1.50000000000000000000e+03) (13, 6.99421228449987086861e+00) (14, -1.95955355104957179568e-01) (15, -1.80117117294086483525e+02) (16, 4.26930841905074631715e-02) (17, -1.91907710288458943637e+01) (18, 1.48448346438010791992e+00) (19, 4.49778686406613346094e+01) (20, 1.50000000000000000000e+03) (21, 7.20498739285950651201e-01) (22, 3.41876203890388530304e-01) (23, -6.01875430596128992988e+01) (24, 4.01641306025525395285e+01) (25, 2.68714490934590237714e+01) (26, -4.47665463971353358441e-02) (27, -8.53496181822122057525e-01) (28, -7.87521644424391951134e+01) (29, 6.58091413551199599929e-01) (30, -3.26886725485135514191e+01) (31, 7.62914442034898221401e-01) (32, 1.95560436655030256414e-01) (33, -3.07294513175518568815e+00) (34, 2.01690408953163835548e+00) (35, -1.07948827618937880785e-02) (36, 1.36758380317991923292e+00) (37, 3.05021820545869593033e+00) (38, 1.08367471761326594759e+00) (39, 1.16592810345717179388e+00) (40, -1.95445808971699408474e+00) (41, 1.50766523498086741029e+02) (42, 3.45727942675732364819e+01) (43, 9.08104842574242177022e+00) (44, 1.74310470009153348769e+01) (45, 4.33362484084124865991e-01) (46, -1.36923679834443645653e+00) (47, -1.29920436506231889995e-01) (48, -1.06247365469869350818e+02) (49, 2.15702133568889792059e+02) (50, 5.68959469832891517882e+00) (51, -3.85132339175163949108e+01) (52, -2.12415074794963203431e+01) (53, -1.37451564272941425315e+02) (54, -4.40891438640945576566e+00) (55, -1.77922236120148874461e-01) (56, -1.01008497487293880113e+00) (57, -2.03138265526503536407e+00) (58, 5.73719314804938318453e-01) (59, -1.89869103487445811673e+00) (60, -3.04150010782731683445e-01) (61, -1.68117540676164067825e+00) (62, 1.73947515358863880053e-01) (0, 6.57535958092263617125e-01) (1, 1.27343837933086057035e+01) (2, 7.88105730158679462782e-01) (3, 2.18388169002431340004e+02) (4, 9.49944061786091697996e-01) (5, 5.74090760000266375762e-01) (6, 6.27850996340250766536e-01) (7, 3.93584434926355308804e-01) (8, 1.16294377622698803521e+01) (9, 5.53789911136150259097e+00) (10, 6.12040277639077645588e-01) (11, 5.03927942613121682136e-01) (12, 1.50000000000000000000e+03) (13, 9.18823185283441645765e+00) (14, 7.53768656161073691280e-01) (15, -7.56044028558199787682e+00) (16, 5.21863423085087929643e-01) (17, 8.36602099782720820542e+00) (18, 5.64440385624744078719e-01) (19, 1.49183533128837382264e+01) (20, 1.50000000000000000000e+03) (21, 9.35837910095138059141e-01) (22, 1.77575959817423401077e+00) (23, 1.36863597690743326041e+01) (24, 7.28897000072616374489e-01) (25, 7.17384458840970573590e-02) (26, 2.10120479323721864873e+00) (27, 2.93370772180516437011e-01) (28, 4.59024424843746370328e+00) (29, 1.73347225612632294123e+00) (30, -1.15394968113624880601e+01) (31, 5.78496230399490385388e-01) (32, 5.17841103375923261787e-01) (33, 3.72786933118621821581e-01) (34, 1.38788148189048166081e+00) (35, 4.85734834888604971592e-01) (36, 1.93353083108364381948e-01) (37, 1.16474161524108943411e+00) (38, 7.75020651433385387996e-01) (39, 1.08532737754780939099e+00) (40, 5.42523849190574503076e-01) (41, 3.03526869492718587296e+00) (42, 4.37506578405299695333e+00) (43, 7.09254311441305063113e+00) (44, 2.26627765368915046196e+00) (45, 6.34291301459969925070e-01) (46, 7.74346342462016945518e-01) (47, 2.24768783159102980562e-01) (48, 1.58810639621182553283e-01) (49, -2.19075567654443119636e+02) (50, 6.23492763478626921270e-01) (51, -3.08936789746535100942e-01) (52, 8.51685672322638032128e-01) (53, -7.80861114151544821738e+00) (54, 4.98175504514127731603e-01) (55, 3.07536472157548201878e-01) (56, 4.77505255659830651904e-01) (57, 9.24616732924481432576e-01) (58, 4.45521964684742033391e-01) (59, -7.06806409544606661921e-02) (60, 7.31650467275761440256e-01) (61, 7.90636329966822204440e-01) (62, 5.41176264480387692046e-01) (0, -3.21050406318330372457e-01) (1, 2.79125305346501058068e+01) (2, -1.24949168605534755017e+00) (3, 6.90588291617896885555e+01) (4, -2.24959552787017541542e-01) (5, -3.03495117203438191655e-01) (6, -3.14215038259344758842e+00) (7, 2.38547565680038431424e-02) (8, 1.51569701550238221444e+02) (9, -1.28260512009970057079e+02) (10, 4.13986714286380813599e-02) (11, -1.53853299499840667774e-01) (12, 1.50000000000000000000e+03) (13, 3.31882734199079454385e+00) (14, 4.56284024003908925127e-02) (15, 1.21996262974809312141e+02) (16, -6.78364503253942818795e-01) (17, -1.79386428601430969465e+00) (18, -4.45456809274268172860e-01) (19, 6.28921783390359312449e-01) (20, 1.50000000000000000000e+03) (21, 1.86837526092544647938e+00) (22, -6.56395310812720467197e+00) (23, 3.88770362342497355357e+00) (24, -5.38931138741865600750e-01) (25, -1.58349319132915482555e+01) (26, -1.35600723919420040886e+00) (27, -9.17055304331312548527e-01) (28, -5.73765234651281161860e+01) (29, -1.26596391113844800730e-02) (30, -1.42616068568822895735e+00) (31, 1.19355904556779093828e-01) (32, 1.97885766266999718610e-02) (33, -4.36573945190762868762e-01) (34, 8.30426154786431336419e-01) (35, -3.75831649059831240933e-01) (36, -3.96386788307402593290e+00) (37, -2.33578374253931887738e-02) (38, 1.74756109793670444397e+00) (39, -8.06466087831765654492e-01) (40, -3.39233301664640540807e+00) (41, -1.42635691702017664007e+00) (42, -7.16793605385995480361e+00) (43, -3.10487843526853768417e-01) (44, -2.60784600285307170964e+01) (45, -3.54147682402389196721e-01) (46, -3.63123660600891362549e+00) (47, -2.78231406789873125796e-01) (48, -7.33288287655005088794e+00) (49, 2.48385358707538671297e+02) (50, -3.04216260715857034214e+00) (51, -1.06580613441110716444e+00) (52, -2.90117972457158614930e+01) (53, 2.59497568228306327853e+01) (54, 2.55034799212926523160e-02) (55, -2.63253380314734275469e-01) (56, -2.85449401456926321607e-01) (57, -1.98675748500438564825e-01) (58, 1.04425958593247596162e-02) (59, -9.45082275439724228683e-01) (60, 7.22060860337659926600e-02) (61, -4.45396248817809745080e-02) (62, -2.49977955851169442170e-01) (0, 6.37145827979628820437e-01) (1, -1.15150419876005727815e+02) (2, -3.73364221013441976993e+00) (3, 1.03491543662630824940e+00) (4, -3.31277859368025381914e-02) (5, -3.20098769736371246974e-01) (6, -4.71494862210320331286e+00) (7, -1.74652849056498887803e-01) (8, 3.98337892872865539928e+00) (9, -1.08324543587911207965e+02) (10, -4.51455816483873895173e-02) (11, -1.83615822301989750631e-01) (12, 1.50000000000000000000e+03) (13, 1.74233937200357469344e+00) (14, 2.22425264116696774774e-01) (15, -2.89103058746814447488e+01) (16, -6.44477183087782123927e-01) (17, 7.77353233698500178939e-01) (18, -4.38735256957544628165e+00) (19, 2.59669301906569005567e-01) (20, 1.50000000000000000000e+03) (21, 1.46375164674061686299e+00) (22, -6.66751607502940935035e+00) (23, -3.57128958690530851072e+01) (24, -4.44262242333850032594e+00) (25, -5.17405131050138411553e+00) (26, -8.02955268362814944538e-01) (27, -7.26296025311444437556e-01) (28, 1.50684727392091595277e+01) (29, -5.34849470718758712717e-02) (30, -1.83168890322846422691e+01) (31, -2.48850616357947806989e-01) (32, 6.20412697882344654765e-01) (33, -2.18048556187966563469e-01) (34, 1.88906736721984080951e+00) (35, -3.21873264993444929694e-01) (36, 7.92380242236825904634e-01) (37, 3.70624077432698817436e-02) (38, -3.74484122035462940747e-01) (39, -4.12188291622731668440e+01) (40, -2.92916583718094836186e+00) (41, -1.82065845854649211333e+02) (42, -1.33929829556038870741e+00) (43, -3.69821066337878423536e-01) (44, -1.04091162471988400995e+01) (45, -2.46026332661513330580e-01) (46, -2.37411437630487132111e+00) (47, -9.87766007457843153716e-02) (48, -1.94501986434484441801e+00) (49, 9.17258923136887602823e+01) (50, -9.69440150374734965766e-01) (51, -5.86426793715810035224e+00) (52, -1.97250113590548581399e+00) (53, -6.89016604101756069412e+00) (54, -3.38435592834916931793e+00) (55, -2.37873288725760412277e-01) (56, -1.54970946334778703068e-01) (57, 1.99950826292980277099e-01) (58, 2.22127651145493897056e-02) (59, -9.32854070301502164009e-02) (60, 1.34746637459526252822e-01) (61, 7.21654712919882201927e-02) (62, -3.05505789312843056837e-01) (0, 1.14291812307343421118e+00) (1, 2.49889132784252829822e+01) (2, 1.18364543843179936822e+00) (3, 1.11723313389504437509e+03) (4, 1.48318057429000504932e+00) (5, 1.00535158972678728695e+00) (6, 1.33165336211698881463e+00) (7, 1.21771241979908206865e+00) (8, 4.80666018470297373710e+01) (9, 3.85394039578190872319e+00) (10, 1.06021099491639025914e+00) (11, 1.03230157159241775489e+00) (12, 1.50000000000000000000e+03) (13, 7.53903342715741864311e+00) (14, 1.19402605006764939155e+00) (15, 4.56132124150618551539e+02) (16, 9.97360161767799180410e-01) (17, 9.30164782228007425147e+00) (18, 9.97933067649550253897e-01) (19, 1.11925639420663980417e+01) (20, 1.50000000000000000000e+03) (21, 1.60160415040524184427e+00) (22, 1.16931715733033847471e+00) (23, -5.31609046057985756839e-01) (24, 1.54615319207803136869e+00) (25, 1.32866883681911529536e+00) (26, 6.78069424784987795363e+00) (27, 8.25320179832905620465e-01) (28, 1.69391442613927623029e+01) (29, 1.83047486804943626559e+00) (30, 1.51466733263413591004e+01) (31, 1.26024369332165075974e+00) (32, 1.21952108705774309172e+00) (33, 9.16625706661190919888e-01) (34, 1.53539853397870262874e+00) (35, 1.23730918391959132663e+00) (36, 5.93230967310376389179e-01) (37, 2.42084451919540422082e+00) (38, 1.68150091339071749985e+00) (39, 1.13741011329329766433e+00) (40, 2.62903348412413873092e+00) (41, 1.70697650862586129961e+01) (42, 2.65918677946717663119e+00) (43, 3.86577338368950895742e+00) (44, 1.34317730061744722292e+00) (45, 1.17576585231042551882e+00) (46, 1.25276960935054004764e+00) (47, 8.07138520497742040227e-01) (48, 3.77579287804973462439e-01) (49, -6.12707288456773024876e+00) (50, 1.04523935877011142637e+00) (51, -1.18679889523890316760e-01) (52, 1.13694153850752788237e+00) (53, 4.27929966777664247957e+01) (54, 1.22013000267690707723e+00) (55, 7.88275485573399103956e-01) (56, 6.62883722210365733396e-01) (57, 1.43171303571218966333e+00) (58, 8.45649557000715312860e-01) (59, 1.56733281529623424966e+00) (60, 9.13250709163590856932e-01) (61, 1.30594441065956323733e+00) (62, 9.89559079365492699765e-01) (0, -1.16026115988070346874e-01) (1, -1.27665488548316243822e+01) (2, 3.30484050925201125470e-02) (3, 6.57312436890199425221e+00) (4, -4.48648734012849992325e-01) (5, -1.79741008206898950084e-01) (6, -4.22470416642866553047e-01) (7, -3.55657225428795908950e-01) (8, -3.41159470405508591373e-01) (9, 8.48300659994143479992e+00) (10, -1.32055043645973035904e-01) (11, -2.38178406154524124894e-01) (12, 1.50000000000000000000e+03) (13, -6.45038413375664254623e-02) (14, -2.53351815931214974231e-01) (15, 1.93518429632769017879e+00) (16, -1.50513157029387611985e-01) (17, 5.60704428100216589748e-02) (18, -2.57102793014136021821e-01) (19, 1.43412724166255611813e+00) (20, 1.50000000000000000000e+03) (21, -5.94279927552392339685e-01) (22, 7.37844646418177818603e-01) (23, 2.27803211926158200029e+00) (24, 6.15334914826134227184e-01) (25, 8.28340790190806641746e-01) (26, -3.77824158353709249614e-01) (27, 3.58101138372654614894e-01) (28, 2.84504286544567897010e+00) (29, -4.19547444494396293280e-01) (30, 1.80963905194068330751e+00) (31, -3.06646799672072700726e-01) (32, -7.22319759933035265842e-02) (33, 1.21002006689534064021e-01) (34, 2.10657232602247751485e-01) (35, -4.18031066360405878513e-01) (36, 6.80712685886171453564e-02) (37, -2.10020667564111951364e+00) (38, -1.76167370030194725405e-01) (39, -1.37006949185931453661e-01) (40, -8.27825420475055695491e-02) (41, -4.49026980409939824312e+00) (42, -5.22408436488921079643e+00) (43, -2.56710544687046182677e-01) (44, 6.60614486326883687539e-01) (45, -2.56403043780132622320e-01) (46, -2.00331793275835029489e-01) (47, -5.56455556659861058644e-02) (48, 1.44243754473290830553e+00) (49, -1.78409604629922724506e+00) (50, -7.19550815539689692102e-01) (51, 2.88526093069060252105e+00) (52, 7.58168226532943828611e-02) (53, 1.28477576774844770569e+00) (54, 8.80764680107522790475e-02) (55, -5.30539267133170368979e-03) (56, -8.90565728183791566197e-02) (57, -3.11423868854535601525e-01) (58, -2.53350763801792500107e-01) (59, -9.38934674437509261824e-03) (60, -1.50674051231196714368e-02) (61, -1.94599945977987881518e-01) (62, -1.19851521566387550499e-01) (0, 6.77989671449873765319e-01) (1, -1.05658087303408052549e+01) (2, 3.88092400742770182731e-01) (3, -1.13713779756237656215e+01) (4, 2.13494479008686927068e-02) (5, 3.58433547102616767432e-01) (6, 2.39475148613165184086e-01) (7, -7.94847520869932655518e-02) (8, 4.62844444936219789888e-01) (9, 1.40807991749326468778e+01) (10, 3.61398462997598091118e-01) (11, 4.12182577482750667208e-01) (12, 1.50000000000000000000e+03) (13, 6.57809544405225099517e-01) (14, 3.82072057483620608487e-01) (15, 4.35269905908357923607e+00) (16, 4.53702157333580435861e-01) (17, 6.70277444343342465594e-01) (18, 2.86439108149052046315e-01) (19, 1.17918842985105842835e+00) (20, 1.50000000000000000000e+03) (21, 9.95264877951190229943e-02) (22, 1.84810206915706531916e+00) (23, 3.64007414094468950694e+00) (24, 1.72506977294741425943e+00) (25, 1.07484976230205186987e+00) (26, 2.91553347275661900451e-01) (27, 7.22484756231717706321e-01) (28, 4.38762271725803199018e+00) (29, -6.20004244011218078048e-02) (30, 2.20573836663434752481e+00) (31, 2.19320220008417610114e-01) (32, 2.31450585312806239591e-01) (33, 5.99615521806724727227e-01) (34, 7.16376618528406283737e-01) (35, 3.36098827511509157251e-01) (36, 5.72051545134967254214e-01) (37, -1.64525939260384146401e+00) (38, 4.46615089483825777883e-01) (39, 4.29099471027508505561e-01) (40, 8.10871152640253028965e-02) (41, -2.27132727244519161403e+00) (42, 5.51064480438384698968e-02) (43, 4.76950129937787015155e-01) (44, 4.34395779918007196585e+00) (45, 3.33454008677380009384e-01) (46, 1.51849316157295799457e-01) (47, 4.08319512840714715640e-01) (48, 2.18413987494796835165e+00) (49, 9.38786593727655827024e-01) (50, 1.36153134585318746907e-01) (51, 4.60573133181869476260e+00) (52, 6.15794735883203769866e-01) (53, 1.20410157235701364975e+00) (54, 7.40097728214880290487e-01) (55, 4.55914167509744505669e-01) (56, 3.04385431038421305772e-01) (57, 4.86415735779235913760e-01) (58, 4.34463024573176148646e-01) (59, 5.04329924419048669648e-01) (60, 1.09660132522068951011e-01) (61, 2.64371672885966635391e-01) (62, 3.76745009762281923837e-01) (0, 1.05032125583587809814e+00) (1, 4.56273969195654327535e+00) (2, 9.14077416323920144414e-01) (3, 6.94132860291225028959e+00) (4, 4.14111319528819610269e+00) (5, 4.42376050456591507487e-01) (6, 5.82964673075003547709e-01) (7, 3.34471260093473388153e-01) (8, 1.35593123684628942272e+01) (9, 4.28041021766066549503e+01) (10, 7.85711981428350525469e-01) (11, 6.10283700672021867106e-01) (12, 1.50000000000000000000e+03) (13, 1.07509936985899301476e+01) (14, 9.36022510660700302054e-01) (15, -2.90355357586065885300e+01) (16, 5.41492550085357571277e-01) (17, 2.57381572805333433962e+01) (18, 4.47091969247613518768e-01) (19, 1.27016056344901429043e+01) (20, 1.50000000000000000000e+03) (21, 1.69382949050764985977e+00) (22, 5.28389166210394236600e+01) (23, 2.33835298252799361762e+00) (24, 8.92963838109007745913e+00) (25, 1.93365940865561247719e+00) (26, 7.49866401055485720661e+00) (27, 2.86941541077309791863e-01) (28, 2.79949306516099731823e+01) (29, 1.65332519070771799541e+00) (30, 7.09410884952429032779e+00) (31, 6.67259241791011037392e-01) (32, 2.91220410861042666717e-01) (33, 1.35363738225129526249e+00) (34, 1.01214124488188383921e+00) (35, 6.36406947629304498015e-01) (36, 3.05673902231809235808e-01) (37, 3.02663431381080005877e+00) (38, 1.55440523792797002933e+00) (39, 2.25631515107719682334e+00) (40, 1.08994258785656827904e+00) (41, 2.61582547990317237918e+01) (42, 1.62220383364227016543e+00) (43, 4.90828483502478007949e+00) (44, 1.91773608547980689565e+00) (45, 5.65968494642222208491e-01) (46, 1.09351233241253176232e+00) (47, 2.11501084862248306395e-01) (48, 2.01289733386992253372e+00) (49, 6.07583669980041030101e+00) (50, 8.22062068119279842904e-01) (51, 7.14497161598450780673e-01) (52, 8.91839139244646639249e-01) (53, 1.19796467901875525186e+00) (54, 5.72072443001310326771e-01) (55, 2.83297308167007544366e-01) (56, 6.47408723747233461054e-01) (57, 6.62205735144224760802e-01) (58, 5.08823094829396027627e-01) (59, -1.95796070985361114758e-01) (60, 5.10497014612706023762e-01) (61, 1.29237094917520134452e+00) (62, 5.58942701883460846268e-01) (0, 6.59323241634803935973e-01) (1, -1.06170752025488486225e+01) (2, 5.74199166180886289013e-01) (3, 1.19688395116100938509e+01) (4, 1.60098104438742755429e-01) (5, 4.24728680397906510624e-01) (6, 2.71012912644749692781e-01) (7, 2.48337035995544019862e-01) (8, -3.17508539532662115157e-01) (9, 1.56192495699094422434e+01) (10, 3.50164541108352656007e-01) (11, 3.73862012264329079958e-01) (12, 1.50000000000000000000e+03) (13, 9.41059800120912171018e-01) (14, 2.04468602496587381623e-01) (15, 7.42152020443189730514e+00) (16, 4.01540047343713235595e-01) (17, 7.94039505511870635779e-01) (18, 2.63454915016598512079e-01) (19, 1.17762094364069858088e+00) (20, 1.50000000000000000000e+03) (21, 8.35691788236780641608e-02) (22, 9.15187143230393629345e-01) (23, -1.60131798336906463476e+01) (24, 1.28348816345497240832e+00) (25, 8.11233872248285581286e-01) (26, 2.37074005954519412276e-01) (27, 7.39863453669922122025e-01) (28, 3.11803741453813332285e+00) (29, 9.79097760819388207576e-02) (30, 1.55340451559167425089e+00) (31, 3.02844553677936501046e-01) (32, 3.60608907172133452690e-01) (33, 6.00232210648368291750e-01) (34, 8.05129427250269591454e-01) (35, 8.97712623912622909028e-02) (36, 6.90409639490903059844e-01) (37, -1.09491087509724915883e+00) (38, 1.07302914604781185481e+00) (39, 3.62058591071535817996e-01) (40, 1.83091257885144270690e-01) (41, -3.91596748824886908835e+00) (42, -4.32328504654011602781e+00) (43, 4.94299622110217551363e-01) (44, 1.32693444840264684892e+00) (45, 5.11532836315617633893e-01) (46, 2.18508958739876357757e-01) (47, 5.78593681658378544697e-01) (48, 2.04192556152999804553e+00) (49, -2.07067802246637683083e+02) (50, 1.99431463245862333755e-01) (51, 3.32486832128839138178e+00) (52, 6.04108691189319313430e-01) (53, 7.75404157591179199471e+00) (54, 7.29223485000567106518e-01) (55, 5.50329575682239058310e-01) (56, 3.68420103411242927383e-01) (57, 3.50574506136652253030e-01) (58, 1.23509169421492898122e-01) (59, 5.99661087139283122127e-01) (60, 4.28856605870671148129e-01) (61, 4.39228207448721763573e-01) (62, 4.08907741551275460967e-01) (0, -5.78866616477710671518e+00) (1, -2.19981866703304092425e+02) (2, 3.79518845561119588794e-01) (3, 5.90398361940668223724e+02) (4, 3.07872795490840456267e-01) (5, -3.95295830381266477538e-01) (6, -7.79995298697724681602e+00) (7, 8.48181448407380633725e-01) (8, -1.67760056079883781877e+02) (9, -1.37156187695804919713e+03) (10, 8.74061640060295408361e-01) (11, -1.51301318676772128535e-01) (12, 1.50000000000000000000e+03) (13, 1.26819211082008953539e+00) (14, -2.21638768785998596655e+00) (15, 4.91710645000623969736e+02) (16, 1.40398131461178826696e-01) (17, 3.89025596151071084705e+01) (18, 1.06062629537751416109e+01) (19, 7.33774335955924215114e+01) (20, 1.50000000000000000000e+03) (21, 7.89639408616709809197e-02) (22, -1.49901440954681408613e+01) (23, 1.36025235265493904535e+02) (24, 3.66364742014757638344e+01) (25, -5.30125048425948319775e-01) (26, -2.74268583320698144945e-01) (27, -1.06861294833180031638e+00) (28, 2.68535377246976111110e+02) (29, -2.84967075903464017728e+00) (30, -5.64035582700071813633e+01) (31, 1.40469315216340456809e-01) (32, 1.91062316402277936334e+01) (33, -5.15860017110308888277e+00) (34, -1.78030494808679122798e+01) (35, -3.69255590489859564229e-01) (36, 4.56257496220743782867e-02) (37, -2.12328993468559623636e+01) (38, -5.15219075003500281973e-01) (39, -7.53997146412569918539e+00) (40, -3.04053967825025068805e+01) (41, -4.60015089010441116102e+01) (42, -3.57569174105197078006e+02) (43, -1.47086865410782277053e+01) (44, -2.07518602236102260861e+01) (45, 2.17351245456128355782e-01) (46, -3.18205231771234053895e-01) (47, -3.92623720200383008461e+00) (48, 5.30201637222136881178e+01) (49, 4.96764851570146959148e+02) (50, 4.43895896590779714952e-01) (51, -1.23108173843997391828e+02) (52, 1.03923912131482492072e+01) (53, -5.60744479165547204502e+02) (54, -6.60164718142022337588e+01) (55, 2.92359009341631892465e-01) (56, 8.12526230898209256281e+00) (57, 2.29039868205033947390e+00) (58, 1.65855377736046349924e+00) (59, 1.29317187909253252798e+01) (60, 5.77683745327117215140e+00) (61, -1.18092876518375433648e+00) (62, 2.27380394278538427999e-01) (0, 5.94684451197611374518e-01) (1, -4.14494564683602284560e+00) (2, 4.08763516198980381144e-01) (3, 6.47032886546247283377e+01) (4, 8.16417356223343715360e-02) (5, 1.87483824790539044258e-01) (6, 1.92687668739183665112e-01) (7, 5.99591154080684682337e-02) (8, 4.39103873178147363632e+00) (9, 3.83474219130266504862e+01) (10, 2.83804124974060045794e-01) (11, 2.97919463655973382199e-01) (12, 1.50000000000000000000e+03) (13, 1.24260255390949403420e+00) (14, 2.18027155442140740949e-01) (15, 6.68887711196361767207e+00) (16, 3.74713600858200879262e-01) (17, 6.07143737812399053588e-01) (18, 1.66477030562041772299e-01) (19, 1.26607637919017812500e+00) (20, 1.50000000000000000000e+03) (21, 9.92396686276082046207e-02) (22, 1.27987565312883044832e+00) (23, 5.72132188045517420250e+00) (24, 1.30242361657283090004e+00) (25, 7.77180642054061121549e-01) (26, 3.12000971473034516279e-01) (27, 8.34168980228550793754e-01) (28, 5.59256762319996614252e+00) (29, 1.05563572319621198914e-01) (30, 1.55668602904198283277e+00) (31, 2.80217334222861103044e-01) (32, 5.71519596713972788393e-01) (33, 6.39731801856400439377e-01) (34, 7.32299745591520112598e-01) (35, -8.47848147216442998841e-02) (36, 5.90108040237969255770e-01) (37, -1.77217353512369113488e+00) (38, 3.45110445899807494197e-01) (39, 5.45463173764153208545e-01) (40, 3.58837066024314033097e-01) (41, -7.03343728079669161524e-01) (42, -3.19659707854128249949e+00) (43, 3.27370077922570890117e-01) (44, 1.58727741075162565032e+00) (45, 4.83010798121234485869e-01) (46, 3.09636981642703479345e-01) (47, 3.64224416779961979174e-01) (48, 2.39176447833124683484e+00) (49, -2.37070698177985406119e+01) (50, 1.62968303144097409474e-01) (51, 3.18286158856129031136e+00) (52, 6.89854926868294970888e-01) (53, 7.57262661201658371368e+00) (54, 7.75101125053150097344e-01) (55, 4.56208813110085653619e-01) (56, 6.17944570192975328737e-01) (57, 4.36635152958045336113e-01) (58, 2.80827578680290512736e-01) (59, 4.00517618458357260725e-01) (60, 3.91773716423385376384e-01) (61, 4.59648110309356872083e-01) (62, 4.51556384487418471796e-01) (0, 5.69998247092848742135e-01) (1, 6.74667375868358676350e-01) (2, 3.68734281707594424571e-01) (3, 1.84904000813385529511e+01) (4, -2.92690518493263940325e-01) (5, 2.00184225549659922105e-01) (6, -1.02815121136762513410e-01) (7, -8.58534201901288152037e-02) (8, 4.49147008896281985102e+00) (9, 5.16159172939681987202e+00) (10, 2.15291232193340620338e-01) (11, 2.03430241965686736672e-01) (12, 1.50000000000000000000e+03) (13, 1.44298658318175276882e+00) (14, 2.72817741272780023287e-01) (15, 2.34806909070820202245e+00) (16, 8.82190241241329053956e-02) (17, 6.39146627809715872637e-01) (18, -5.45872576485936678026e-01) (19, 8.45807373739554502201e-01) (20, 1.50000000000000000000e+03) (21, 1.45501036596107091725e+00) (22, 2.19556554583097973676e+00) (23, 3.63975395748655969896e+01) (24, 3.21358779493023360985e+00) (25, 1.47685635726327890715e+00) (26, -5.03448484965578549333e-02) (27, 6.75795070037319089984e-01) (28, 1.77925930400684364940e+02) (29, 4.32849468119427469026e-02) (30, 1.63644331367690543111e+00) (31, 5.91793499193363076172e-02) (32, 2.33975917942597533283e-01) (33, 4.19450738826446734020e-01) (34, 1.68050627817610398473e+00) (35, 1.36107336413403307018e-01) (36, 9.01509497305201801254e-01) (37, -1.90684228295118440855e-01) (38, 5.09090648999080519488e-01) (39, 3.87358811818574289010e-01) (40, -9.23836226048752595652e-02) (41, -2.75295701815738980134e-01) (42, 1.02786644658023273990e+00) (43, 3.04686688819480022694e-01) (44, 1.78187050300327154417e+00) (45, 3.09206582340225522021e-01) (46, -1.94840526745950967658e-02) (47, 4.43263838096813300726e-01) (48, 4.13864583803144370222e+00) (49, -2.18207079861649589247e+02) (50, -2.38961584124312720334e+00) (51, 7.81143352904183707608e+00) (52, 5.79736536849525974091e-01) (53, -9.79017978186787196648e+00) (54, 5.76875349442707352488e-01) (55, 2.61737074229046684515e-01) (56, 3.11221577376194491471e-01) (57, 8.89850909883291019131e-02) (58, 2.77621651949028325213e-01) (59, 5.26153661368589875558e-01) (60, 8.51255684736724638206e-01) (61, 2.02107565919185105940e-01) (62, 3.04229903721397909599e-01) (0, 1.83671097212039025059e+00) (1, 2.32451347156402050587e+02) (2, 4.83297080841647408445e-01) (3, -3.94056911180723147936e+02) (4, 4.64770718423227879867e+00) (5, -9.68741598469722436926e-03) (6, 2.19374172928012800554e+00) (7, -1.04676009601332009602e+00) (8, 4.72360792694708919726e+01) (9, 8.16793549721850581591e+02) (10, 2.66913995384088984508e+01) (11, 3.58918047256259586941e-01) (12, 1.50000000000000000000e+03) (13, -1.00183881943735784148e+01) (14, 2.82268968508233908388e-01) (15, 2.04592542237689173135e+02) (16, 5.69719982826856416458e-02) (17, 1.68840943001420473735e+00) (18, 1.66566112051323393928e+01) (19, 3.35515619242972418235e+00) (20, 1.50000000000000000000e+03) (21, 5.44297433159743775377e+01) (22, 1.05205282426581447908e+00) (23, 3.77036667710404529430e+01) (24, -1.25799525757570229700e+01) (25, -5.08409415678151077600e+01) (26, 2.26828232453437683702e+00) (27, 7.23017914464290756271e-01) (28, -1.66107369308549522202e+02) (29, 8.56768647851262749038e-02) (30, -1.90000681985843264954e+01) (31, -4.11764699963366009872e-01) (32, -5.62133230197117050864e+00) (33, 6.21419384475140468282e+00) (34, 4.71298425919503327641e-01) (35, -3.29156705429695661813e-01) (36, 1.25838735089331308359e+02) (37, 4.50369212918498718068e+00) (38, -9.19479595352943213094e-01) (39, 2.45018757728525642392e+01) (40, 6.96774826303481464862e+00) (41, -6.43243089293298311304e+01) (42, -1.80538909599439434395e+00) (43, -2.91523681009950941245e+00) (44, -1.21230264854822533671e+00) (45, 5.48110808255642956155e-02) (46, 9.01811753646144964591e-01) (47, 1.25012369585175853182e+00) (48, -8.01632571332572818612e-01) (49, 1.41804842610796413283e+03) (50, -2.05657151546204417514e+01) (51, 7.60974003972778501037e+00) (52, -5.17349905988952363245e-01) (53, -3.87864190284094689787e+01) (54, 4.34075164537910751505e+01) (55, 2.81462805735718635258e-01) (56, 5.25832070650675564849e+00) (57, -3.60116261530736669894e-01) (58, 1.00960014674566345150e+00) (59, 4.66698095565110104843e+00) (60, 8.77188609222133042209e-01) (61, -8.17813998935798025514e+00) (62, 7.60914004831308912052e-03) (0, 3.24288780440001034311e-01) (1, -6.98745891258738272001e+00) (2, 4.70946057188763811396e-01) (3, 1.50000000000000000000e+03) (4, 1.37190468744270821499e-01) (5, 2.58982531010416294759e-01) (6, 1.26864021037020047178e-01) (7, 4.02299680641736212561e-01) (8, -3.82653570134607123876e+00) (9, 1.24189639564334761701e+01) (10, 4.73709620014546028965e-01) (11, 3.54304312198549131718e-01) (12, 1.50000000000000000000e+03) (13, 1.22186912843547190732e+00) (14, 1.53317693954175549020e-01) (15, 3.41893217392754309003e+02) (16, 4.02773727333556263996e-01) (17, 7.64212787572569496319e-01) (18, 4.70408474758910177815e-01) (19, 1.45854481805629876412e+00) (20, 1.50000000000000000000e+03) (21, -3.29101554822041897364e-01) (22, 1.08598517616271594832e+00) (23, 5.34860930269327372599e+00) (24, 8.92261519771037958648e-01) (25, 8.33473164031868773982e-01) (26, 6.07023706759453329784e-02) (27, 7.43032032989890067753e-01) (28, 2.07925160702805156276e+00) (29, -8.01261414371859360083e-04) (30, 1.83777917164956905438e+00) (31, 1.32169162437021370238e-01) (32, 7.29504472751325128144e-01) (33, 6.00614040800013793131e-01) (34, 6.59116311300014690033e-01) (35, 7.65131014748271914838e-02) (36, 3.32499553634890387954e+00) (37, -1.75404014024712684439e+00) (38, 6.89984423921880529740e-01) (39, 5.34695035780400340641e-01) (40, 2.47334248964779790381e-01) (41, -2.48000807322225425011e+00) (42, -3.43248752587999295116e+00) (43, -3.58289275419054406568e-03) (44, 1.43284604136355975257e+00) (45, 4.69217273620657182587e-01) (46, 2.94413792605352941933e-01) (47, 3.48472467989666079280e-01) (48, 1.83247457885778941566e+00) (49, -4.25415225925556512721e+01) (50, 1.98605548551035487881e-01) (51, 3.60668653942616979080e+00) (52, 6.81087232394577690719e-01) (53, 4.39286098283133526365e+02) (54, 7.48074348342359196629e-01) (55, 4.49265599640894464084e-01) (56, 7.83786021071438021579e-01) (57, 4.16767326801854742779e-01) (58, 2.89951905323534042669e-01) (59, 3.93849336332835364693e-01) (60, 3.05640691147786913717e-01) (61, 3.80714976599739851615e-01) (62, 4.38607937187231455844e-01) (0, 8.45070198103437530968e-01) (1, 8.97706555768506149207e+01) (2, -2.87664115300509548590e+00) (3, -1.00990071269542426080e+02) (4, 1.18701084486108299210e+00) (5, 1.84320578317666405876e-01) (6, 6.64388526314788063765e-01) (7, 8.72478942032674065210e-01) (8, 1.00155767592167606495e+02) (9, 1.74827796945596475098e+02) (10, 9.90889630119971442923e+00) (11, 7.26293282633795000969e-01) (12, 1.50000000000000000000e+03) (13, -1.87681305483310856275e+00) (14, 2.17837827703539055335e+00) (15, 2.42140808719770461721e+01) (16, 5.07511758919859223838e-01) (17, 2.38140507418622320301e+01) (18, 4.88381676857635316225e+00) (19, 7.39573841830608458281e+00) (20, 1.50000000000000000000e+03) (21, -7.48696601377798831578e+00) (22, 2.53186113346860288686e+01) (23, -8.95446203367655471084e+01) (24, 4.50702660599101356809e-01) (25, -3.58546795744967141673e+01) (26, 8.65344356411758108827e-01) (27, -3.07807372710514559611e-01) (28, -5.12173356275901099366e+01) (29, 7.97400922467942474547e-01) (30, 1.40532987851802673163e+01) (31, 1.40230594309739782233e+01) (32, -1.22895545972692907810e+01) (33, 3.80523570454009751884e-01) (34, 4.88642628602842492569e+01) (35, 1.37674234424532504484e+00) (36, 2.84090167601614762560e+00) (37, 1.96093267240724209444e+01) (38, 2.00504547664614962699e+00) (39, -1.52482100366821327064e+00) (40, 4.42190560386164079887e+01) (41, 6.99756049443980145952e+01) (42, 1.93136795776875857200e+02) (43, -4.78268598321283933128e-01) (44, -1.88856906035960783186e+01) (45, -1.30158183539341221202e-01) (46, 3.18888746654363153255e+00) (47, -2.34814702198421354495e+00) (48, -2.38283406160326691747e+01) (49, 1.01075116050281792468e+03) (50, 2.52306216039711861399e+00) (51, -9.69609627171252981270e+01) (52, 3.10328816704127241621e+00) (53, 7.22081244554607337705e+01) (54, -1.05104315517336672769e+01) (55, -1.30859655819437570301e+00) (56, -2.36675513095750106318e-01) (57, 1.90388419479434234383e+00) (58, -2.79608452621685277251e+00) (59, -5.43646523384107016597e+00) (60, -1.38947280812591578147e+00) (61, 1.96020746779898091816e+00) (62, 7.65091260565945729955e-02) (0, 2.12813424490261110522e-01) (1, -2.77813496970431899058e+01) (2, -5.29827977616198930733e-01) (3, 2.55124628307601142296e+00) (4, 8.37151110061740255652e-01) (5, 1.15324418576405171577e-01) (6, 8.38330216354967072689e-01) (7, -3.51828972810244300362e+00) (8, 1.47191765972553518793e+01) (9, -2.92282386420265993365e+02) (10, 2.23634408437672504988e+00) (11, 4.00148920614289582698e-01) (12, 1.50000000000000000000e+03) (13, 2.05036795574966532740e+01) (14, 9.95834888390375816414e-01) (15, 2.83335854550936971918e+02) (16, 4.89213613918297929306e-01) (17, -1.94412492463501536122e+01) (18, 1.30370834933482271367e+01) (19, 4.30828098408037547529e+01) (20, 1.50000000000000000000e+03) (21, -3.25420448454360022872e-01) (22, 7.67772322870185153221e+00) (23, 6.67002102552789466472e+01) (24, -4.43797003316771565551e+01) (25, 1.50360178412348602706e+02) (26, 1.87794930645586988227e+00) (27, 2.91724021786246734411e-01) (28, -1.39175508442940355280e+02) (29, 6.64026822199766830757e-01) (30, -4.06015615021451949929e+01) (31, 4.29047238376688566674e-01) (32, -7.49876568649373442810e+00) (33, 9.87205582290959005043e-01) (34, 4.20585924635799190963e-01) (35, 6.08098662973590928238e-02) (36, 2.35510313219103188942e+01) (37, 9.84696300685934722274e-01) (38, -4.38739912659879394141e+00) (39, 3.89375712312510224855e-01) (40, -2.95513248755886970276e-01) (41, -2.68682029231984472517e+02) (42, 1.97930479213010741546e+01) (43, 1.12343610482576643506e+01) (44, 2.74437473218430554311e+01) (45, 1.08209633519551873260e-01) (46, -9.16145280774276815627e-01) (47, 3.50568340581719595228e-01) (48, -5.25846227933285526035e+00) (49, 5.38067029021420012214e+02) (50, 1.45469268134731954945e+01) (51, -6.71847907242350004253e+01) (52, 1.41071129230019636225e+01) (53, 1.21300132612988349479e+02) (54, -1.81138121284981394865e+01) (55, 8.18932183724977114103e-01) (56, -5.20138551458091313862e+00) (57, 1.10566801593738794907e+00) (58, -2.05692476704941151766e+00) (59, 7.16092883838134586227e+00) (60, 2.60962648768176386227e+00) (61, 2.26329702961193346411e+00) (62, 1.64757873798112380870e-01) (0, 6.29357526445626813683e-01) (1, -1.08344869238884058404e+01) (2, 4.60644698142734565494e-01) (3, 1.10771962166082555967e+01) (4, -1.99448782649112822327e-03) (5, 2.98044532017146812652e-01) (6, 2.03354441011317971233e-01) (7, 9.87436374289545198968e-02) (8, 3.09131976549635423268e-01) (9, 1.00015600571187412982e+01) (10, 4.56125516157375954229e-01) (11, 3.71991117639752288948e-01) (12, 1.50000000000000000000e+03) (13, 5.92163152275350324061e-01) (14, 3.22440904950220930125e-01) (15, 5.40575184534299246764e+00) (16, 3.51761573634092439278e-01) (17, 5.84136626413214621323e-01) (18, 2.59591024104031509179e-01) (19, 1.65142404646030627191e+00) (20, 1.50000000000000000000e+03) (21, -3.81678482057016127404e-02) (22, 1.42927732496140791341e+00) (23, 3.69142067129990625318e+00) (24, 1.24356205091729354884e+00) (25, 1.00247255883304453583e+00) (26, -1.00403637160190919997e-01) (27, 7.37671314696151547707e-01) (28, 2.14817434354612268876e+00) (29, -8.33376940250507430852e-02) (30, 2.00255598926342637256e+00) (31, 1.35638708802880980642e-01) (32, 1.91077224336165807372e-01) (33, 7.14077499841738738695e-01) (34, 6.71054199274591312019e-01) (35, 1.89874024080419118166e-01) (36, 5.31828292681705727674e-01) (37, -4.52461228143220983711e-01) (38, 4.44083961452665154646e-01) (39, 5.33779759754905103186e-01) (40, 2.82998824560330486388e-01) (41, -2.61742871992780967716e+00) (42, -3.83103680919512656899e+00) (43, 3.04567366359223934413e-01) (44, 1.86325365456428015953e+00) (45, 4.54097015688963379088e-01) (46, 3.05140375477593817077e-01) (47, 4.08709396636460664531e-01) (48, 3.17670817659794524346e+00) (49, -3.02314692408719354333e+00) (50, 1.56394223983054164728e-01) (51, 2.98642955990084102424e+00) (52, 6.86609570867442453590e-01) (53, 8.40332055216141426968e+00) (54, 7.83018684725037883432e-01) (55, 4.05105700070002738844e-01) (56, 3.24714644917089845233e-01) (57, 4.51539181400971378899e-01) (58, 3.73686359103308940455e-01) (59, 4.17972792342672150312e-01) (60, 1.29463628767026328603e-01) (61, 4.71308008437885728181e-01) (62, 4.22147353438983297114e-01) (0, 1.21316234372671760688e+00) (1, -3.42925064312610743400e+01) (2, -1.44041964640923825236e+00) (3, 1.19062294919926131342e+02) (4, -1.28459922512292101793e-01) (5, -4.48849669274926199591e-01) (6, -3.45138895300271064670e+00) (7, 2.25864695851884650368e-01) (8, 1.33850093168335124716e+01) (9, -1.18557216860790816781e+02) (10, -7.00007786007836169118e-02) (11, -3.01917895218375698096e-01) (12, 1.50000000000000000000e+03) (13, 3.46061882413120391888e+00) (14, 1.28484598153284945710e-01) (15, -1.55901478377297820543e+02) (16, -7.40934659152464814014e-01) (17, -1.13124736157592598040e+00) (18, -1.08237240397362555200e+00) (19, 2.92327810240706031930e-01) (20, 1.50000000000000000000e+03) (21, 1.39566828947591958787e+00) (22, -6.60770734238195434074e+00) (23, 3.13720382021515087345e+00) (24, -4.66104526625404957940e+00) (25, -1.53234542663704136345e+01) (26, -3.25838293759158070806e-01) (27, -2.45046499593533484429e+00) (28, -3.69288537021952407713e+01) (29, 1.48833107400008796128e-01) (30, -1.14555458064751625180e+00) (31, -2.80437255901066717634e-01) (32, 3.36293010114399604227e-01) (33, -5.56178703410331376489e-01) (34, 1.34400381438806526546e+00) (35, -3.09294900486765333980e-01) (36, -7.74307286352491797032e+00) (37, -4.71331211714593051321e-02) (38, 3.75311202321941872473e-01) (39, -2.97952364248871823804e+01) (40, -4.10535803729011483654e+00) (41, -2.18148801649525623247e+01) (42, -3.77748377684578562352e+00) (43, -2.33527027804570685987e-01) (44, -1.01058301635435778820e+01) (45, -2.92566252824936645638e-01) (46, -3.65678397019749379382e+00) (47, -3.21410320919982783749e-01) (48, -3.18240455645194808554e+00) (49, 8.59797559818889681083e+02) (50, -8.11998082585371649955e-01) (51, -1.48356749015366440325e+00) (52, -1.88332083943640746782e+01) (53, 1.08262329536452792667e+01) (54, -3.65513396068597840038e-01) (55, -2.58120904870993150837e-01) (56, -4.19208615562391029297e-01) (57, 5.45441148772289122193e-02) (58, 7.47617680199248596518e-02) (59, -3.74311296371599822042e-01) (60, 1.78839850507951064751e-01) (61, 2.53556438656164229162e-01) (62, -3.47173504693722156933e-01) (0, -6.38316884119642657947e-02) (1, -1.36023333749038553009e+01) (2, -4.61837615235084431031e-01) (3, 8.12044924244141519409e+00) (4, -3.08322377309498740772e-01) (5, -4.80264813136696888662e-01) (6, -2.01800442894334386423e+00) (7, 7.75349469003768221320e-01) (8, -1.74326571505785854477e+00) (9, -1.08295262131772517478e+02) (10, 9.01894384829177303553e-02) (11, -2.83808239783854054927e-01) (12, 1.50000000000000000000e+03) (13, 1.16445444945555176552e+00) (14, -1.44090964717746766732e-01) (15, -4.06519632352529001196e+01) (16, -2.35479922965569132831e-01) (17, 1.02662672723622852566e-01) (18, -4.42220383316372922522e-01) (19, 7.66825112644798800865e-01) (20, 1.50000000000000000000e+03) (21, 8.84653816325684294597e-01) (22, -6.48256560893419209179e+00) (23, 5.26779835874980584265e+00) (24, -1.48582245420473295638e+01) (25, -4.12345980092022657004e+00) (26, -8.01714198358459695370e-01) (27, -6.59463423032937035018e-01) (28, 6.39967352446413855205e+01) (29, 2.34879922906669730276e-01) (30, 4.68413966069422038618e-01) (31, -3.14831355452294459063e-01) (32, 6.76290160667182504994e-01) (33, -2.74026314554007777158e-01) (34, 1.15185052570830870344e+00) (35, -4.12915950331817160901e-01) (36, -1.81266134744522633415e-01) (37, 9.08620123020853764917e-02) (38, 1.12403428051885287409e-01) (39, -2.65521986219925087980e+00) (40, -1.21557754676917539882e+00) (41, 1.24634565877214095742e-01) (42, -9.65795400242164703286e-01) (43, -2.94895327072431268078e-01) (44, -7.16416897755153758709e+00) (45, -2.37351266333385824137e-01) (46, -1.66545992231299977426e+00) (47, -3.10165157283544101752e-01) (48, -1.43568219460877632976e+00) (49, 7.77111127514322674870e+00) (50, -7.07513001563427001983e-01) (51, 2.65758789392105398974e+01) (52, -1.23555430388898423999e+00) (53, 2.83460138690637686310e+00) (54, -4.43245019695589215214e-02) (55, -1.72784574959120612592e-01) (56, -2.19455813520439829700e-01) (57, -5.09104385092223471476e-02) (58, 3.42750464304592328268e-01) (59, -2.00639511004680609618e-01) (60, -1.07020728218996261094e-01) (61, -1.18459378065052453599e-01) (62, -2.66941571927840071154e-01) (0, 6.00076814909003886100e-01) (1, -6.47090398760581830828e+00) (2, 3.83465435721774883238e-01) (3, 1.96715616190347972747e+01) (4, 9.50581892297899522237e-02) (5, 3.33967420803942316443e-01) (6, 3.49187525852712121743e-01) (7, 1.56058821032057454259e-01) (8, -4.47684162937941054761e-01) (9, 1.31365188757105233464e+01) (10, 3.66985528831802465533e-01) (11, 3.11901097045275854658e-01) (12, 1.50000000000000000000e+03) (13, 6.48788932876279922368e-01) (14, 3.56895840448139878287e-01) (15, 5.44715226974066002441e+00) (16, 4.44364617093265690251e-01) (17, 6.51780755905766118197e-01) (18, 2.27052930206985609241e-01) (19, 1.58144525836917737571e+00) (20, 1.50000000000000000000e+03) (21, 5.84985723150510325552e-02) (22, 1.22982529841795984460e+00) (23, 5.68543689928564788261e+00) (24, 1.27477032234962672774e+00) (25, 1.03463486054294495631e+00) (26, 2.03535238257931128114e-01) (27, 7.46054985833865313971e-01) (28, 3.33965460794748425499e+00) (29, -2.58650017620087116499e-02) (30, 1.21942326121602695466e+00) (31, 2.04714234279675139083e-01) (32, 5.25250104994181010731e-01) (33, 6.56632547741438421518e-01) (34, 6.40543705033298049756e-01) (35, 1.86452861336236563883e-01) (36, 5.58050811336847751853e-01) (37, -5.29054426401660005119e-01) (38, 5.64680883879269290837e-01) (39, 4.95141361631927734432e-01) (40, 2.99212635574164609320e-01) (41, -1.13169535561614886809e+00) (42, -4.26571626945531789943e+00) (43, 2.55481336676143644393e-01) (44, 1.57719128994108004349e+00) (45, 3.75597427124053417913e-01) (46, 2.88564637666843981645e-01) (47, 4.06300789226040404145e-01) (48, 1.97378575513739829006e+00) (49, -1.91777744921597603778e+00) (50, 1.08057711238802710979e-02) (51, 3.26498349682250310622e+00) (52, 6.07740693169734447210e-01) (53, 7.95914732453513273924e+00) (54, 6.58845153120176107997e-01) (55, 5.10999645394189738745e-01) (56, 3.79053284864187822745e-01) (57, 3.31520571892272186698e-01) (58, 4.08934476035204719224e-01) (59, 4.80796361735648325464e-01) (60, 2.70673958156173177780e-01) (61, 3.81179596027173051009e-01) (62, 3.47855840160160134644e-01) (0, 4.13525445391711876653e-01) (1, -1.05895438320000110366e+01) (2, 4.42228151772829369826e-01) (3, 9.00949459949090258881e-01) (4, 8.23780459856238989058e-02) (5, 3.17272860544089818635e-01) (6, 2.54095976053049565913e-01) (7, 1.35651446074045750612e-01) (8, -2.05371844496998923191e+00) (9, -4.63751230598103632019e+01) (10, 3.29305936075584171352e-01) (11, 5.22025848612157283846e-01) (12, 1.50000000000000000000e+03) (13, 5.69195426858211561694e-01) (14, 4.87323583932955883835e-01) (15, 4.39033349387509996831e+00) (16, 4.69836951879544828525e-01) (17, 6.27071999654018275017e-01) (18, 3.93224933887826477719e-01) (19, 7.80287646244886889946e-01) (20, 1.50000000000000000000e+03) (21, -1.06674999051876176481e-01) (22, 1.73312154380581695534e+00) (23, 4.05438030366891144496e+00) (24, 1.82763097731277079916e+00) (25, 9.80926718989581614139e-01) (26, 2.79376743997176379963e-01) (27, 7.72690075321931901797e-01) (28, 6.56488323093482240012e+00) (29, 8.05360557107931591958e-03) (30, 7.40667761600667828858e-01) (31, 1.81292566949144751121e-01) (32, 4.98930583919088010969e-01) (33, 6.62445514505676125161e-01) (34, 6.44056856460632376482e-01) (35, 5.49240795776531412486e-02) (36, 5.95011091088168297958e-01) (37, -5.07459751955545601554e-01) (38, 4.83319716657372444590e-01) (39, 5.49181546405174358938e-01) (40, 2.23696839195145352752e-01) (41, -4.81812250719989165759e+00) (42, -4.37236967354468486491e+00) (43, 3.46549737482124475818e-01) (44, 1.78542802218931506708e+00) (45, 3.54334368517231268481e-01) (46, 2.51008425736776397130e-01) (47, 4.41585059181881567358e-01) (48, 2.07416417818558951325e+00) (49, 1.21346008591786191921e+00) (50, 1.41902316887451807048e-01) (51, 3.32697175964263047732e+00) (52, 5.43055202247547552652e-01) (53, 6.41225770735815459034e+00) (54, 4.46801060874438771275e-01) (55, 5.90277884193689206249e-01) (56, 3.51992184474266500693e-01) (57, 3.18613830275574105855e-01) (58, 4.34594727358840804410e-01) (59, 4.40383285251532197169e-01) (60, 2.23900498866187930291e-01) (61, 3.35405366776467761536e-01) (62, 4.43979313934145691789e-01) (0, 1.12505559087726769718e+00) (1, -1.31701576026181271573e+02) (2, -2.86490964517490942498e+00) (3, 2.96349939226002163650e+01) (4, -1.44611778971330373622e-01) (5, -5.60239339351033649450e-01) (6, -1.47276583473890165799e-01) (7, 2.49350997084817838090e-01) (8, -8.60753729744714490835e+00) (9, -1.20989367998263361415e+02) (10, 1.24298960594952018210e-01) (11, -1.59018383462918716509e-01) (12, 1.50000000000000000000e+03) (13, 2.34559767218759134266e+01) (14, -3.00357674015870268480e-01) (15, -1.13155782674167184609e+01) (16, -1.06052212662909495222e+00) (17, 7.49154081808568794720e-01) (18, -2.44141578147618359962e-01) (19, 4.94925733332368500417e-01) (20, 1.50000000000000000000e+03) (21, 2.61508735789629964685e-01) (22, -6.15708777780223126541e+00) (23, 2.89884980315630746972e+00) (24, -6.89930028360344493876e+01) (25, -7.37826125248560149572e+00) (26, -4.05120479402071645425e-02) (27, -9.27789124359308914336e+00) (28, -4.49241220981504625342e+01) (29, 1.01376322977133684344e-02) (30, -1.37250456685208721552e+00) (31, 1.07087845660327821151e-01) (32, 8.51737276258053177536e-01) (33, -5.91599031425335764034e-01) (34, 7.52922829157935735722e-01) (35, -4.49551799883907199362e-01) (36, -7.31373461578415096085e+00) (37, 2.19565858564326726876e-01) (38, -8.29775871348273241779e-01) (39, -1.88680962220363435122e+00) (40, -6.34459174980657891751e+00) (41, 2.01411735096008265300e-01) (42, -2.17763672349176538034e+01) (43, -5.79789460859838068352e-01) (44, -2.67335540012875441107e+01) (45, -3.79725367480413356081e-01) (46, -3.74967053761710689130e+00) (47, -4.01065300125816981414e-01) (48, -1.79213686723547240831e+01) (49, 6.52083823965534520539e+02) (50, -7.43318787493054466964e-01) (51, -2.11237484747345369840e+01) (52, -2.92547468502279137681e+01) (53, -2.15576377202977198522e+01) (54, -6.61906755822548831247e+01) (55, -3.17089449413983093251e-01) (56, -6.40620096272897066036e-01) (57, -2.81775522889305518603e-01) (58, 6.76973075384932343468e-02) (59, -9.01981794646636303447e-01) (60, 2.38678694126549829913e-02) (61, 4.46285749618330479516e-02) (62, -2.92539856539438480887e-01) (0, 7.59567099249731869648e-01) (1, -1.21819810539409214556e+01) (2, 1.04827097121430035109e+00) (3, -2.67351581774814917480e+02) (4, 1.67916931849841000179e+00) (5, 1.01260041657414534555e+00) (6, 1.10088171917094124197e+00) (7, 4.54771151102512050102e+00) (8, 2.99988705207727193169e+01) (9, 4.48931987187780976001e+02) (10, 9.72167184555259633605e-01) (11, 1.02325137838966617743e+00) (12, 1.50000000000000000000e+03) (13, 6.17464645640983267327e+00) (14, 1.26700389809338020974e+00) (15, -7.39347378087137752090e+00) (16, 9.95909833289814527824e-01) (17, 1.57795560960339518175e+01) (18, 1.16187733317440988756e+00) (19, 1.26533377690457697895e+01) (20, 1.50000000000000000000e+03) (21, 1.25132269435739229557e+00) (22, 9.97648387838714123532e-01) (23, 8.87862603288486411657e+01) (24, 7.83969884229896063488e+00) (25, 1.48574555741202529724e+00) (26, 2.04994987603522016428e+00) (27, 1.00902579903194822286e+00) (28, 3.20047260229327008574e+01) (29, 2.34803394417249622350e+00) (30, -2.24377716349660794037e+01) (31, 8.04852727361498598846e-01) (32, 5.20627219219217263202e+00) (33, 8.18406840948596503438e-01) (34, 1.22458570390275522932e+00) (35, 1.09262292780533254444e+00) (36, 1.36303235553034096661e+00) (37, 1.63466509204155396873e+00) (38, -4.00004862349223877516e+00) (39, 1.14959166789896505279e+00) (40, 1.34709862538670233079e+00) (41, 2.18468781814257120288e+01) (42, 2.65841377431048719870e+00) (43, 2.90705085592664991267e+00) (44, 4.23982754489095281514e+00) (45, 1.06916581431556201309e+00) (46, 1.19121685568713009395e+00) (47, 5.18539498697715095510e-01) (48, 2.43173753017608906823e-01) (49, 1.20516526673685163473e+02) (50, 1.01813918676068748681e+00) (51, -1.09711195349042007763e+01) (52, 9.92029379200262240168e-01) (53, 4.07738513884310052049e+01) (54, 6.62964561437904720265e-01) (55, 1.03127619982647988905e+00) (56, 1.72011850405845856393e+00) (57, 1.42994745069490902800e+00) (58, 1.06869277505648430093e+00) (59, 3.48131648108636171379e-01) (60, 3.41288646194111144894e-01) (61, 4.61557456293244250389e+00) (62, 1.00949832930319849389e+00) (0, 3.04609141171821651284e+00) (1, 1.43698916384717922945e+00) (2, 5.95464181382427515388e-01) (3, 8.01567135506579404591e+01) (4, -3.91433969914959323244e-01) (5, 2.80187517055514756503e-01) (6, -9.72252627003581393339e-02) (7, -2.14057471491246570361e-01) (8, 4.40402785112484185248e+00) (9, 6.08758619440868109507e+00) (10, -1.22125906663997103180e-02) (11, 2.52496796769611994704e-02) (12, 1.50000000000000000000e+03) (13, 1.93517317434319346958e+00) (14, 2.12611354818679931800e-01) (15, 3.06931697530784530770e+00) (16, 6.28032215508430996520e-02) (17, 5.53123675259405866989e-01) (18, -2.18050627678126263120e+00) (19, 1.72828285321894803417e+00) (20, 1.50000000000000000000e+03) (21, 1.46048622933339391494e+01) (22, 6.10897186627059607389e+00) (23, 1.39717838859475644853e+01) (24, 3.60576989721221963237e+00) (25, 9.31251621668203299897e-01) (26, -3.35941579035364049077e-02) (27, 3.48172274686932292642e-01) (28, 6.73553174177558418023e+01) (29, 2.79433361471218104366e-02) (30, 3.77615938425707131643e+00) (31, 2.10618033454201214472e-01) (32, 2.17547914042038638416e-03) (33, 6.37396493168516542482e-01) (34, 1.45370186235281639853e+00) (35, 2.94210023484161475871e-01) (36, -1.83459774307589723596e-01) (37, -7.73173729842661749956e-01) (38, 8.16622155975318619880e-01) (39, 5.76915743015194326659e-01) (40, -4.31229600003280935661e-02) (41, -3.99291644390502797890e+00) (42, 3.29001409829011215447e-01) (43, 3.80153055757810054427e-01) (44, 1.54423225738056113521e+00) (45, 3.63196844243973304689e-01) (46, 2.68182713174703213355e-01) (47, 2.49507116184918414925e-01) (48, 4.06150585355196280801e+00) (49, 1.13466419813122328719e+02) (50, -6.32369048955719748051e+00) (51, -5.59902221792218401930e+00) (52, 4.75956122451861085576e-01) (53, -3.78322696896252219645e+00) (54, 1.12058902022447171021e+00) (55, 5.42805568732992113623e-02) (56, 9.61547847212632922353e-02) (57, -2.18420080035592345524e+00) (58, 2.49884161561184869882e-01) (59, 3.05095632720464748910e-01) (60, 2.48189501036486681596e-01) (61, 2.45182027881718084261e-01) (62, 2.66164366157348009079e-01) (0, 3.39047147114908398180e+00) (1, 1.82084435510786697421e+01) (2, 1.99952605007064215803e-01) (3, -3.99105191896507847105e+01) (4, 6.14894217185705360684e-01) (5, -2.12672047425900262452e-01) (6, 2.83527615146259259760e+00) (7, -4.96047514565229441530e-01) (8, 5.59001098816946928594e-01) (9, 4.31038117022440985693e+02) (10, 1.70134423691690663816e+01) (11, 3.68048621443498924499e-01) (12, 1.50000000000000000000e+03) (13, -5.04355164534151523270e-01) (14, 5.01774571668143209990e-01) (15, -1.11118868168360634741e+02) (16, 2.31591506979301781088e-01) (17, -2.93030436860631660068e+00) (18, 2.07715399122348500782e+01) (19, 7.49238579142713190251e-01) (20, 1.50000000000000000000e+03) (21, -6.26867848803640548283e-01) (22, 1.27440972023809404590e+01) (23, 4.38720675142385019285e+01) (24, 8.88383015158265343381e-01) (25, -3.11683308758111827785e+01) (26, 9.56542298511316069209e+00) (27, 1.43231792857184836443e+00) (28, 3.20798994821474181549e+01) (29, -2.61669135812560571530e-02) (30, -6.65272584752563234112e-01) (31, 1.06876221865370824027e+00) (32, 1.86676102770455459856e-01) (33, -2.84614270624024490175e+00) (34, 9.33096547703230472237e-02) (35, -6.94116966680181968208e-01) (36, 6.28761892103743846860e+00) (37, 8.17649298255817846837e+00) (38, -1.48020800433748211944e+00) (39, 8.56690048758803057716e-01) (40, -4.67501301158934357005e+00) (41, 1.24763135307715955946e+02) (42, -1.54533475104273545497e+01) (43, -1.42768061689035690165e+01) (44, 3.88193734221166719678e+00) (45, -2.90572515127907639310e-02) (46, 5.20068493905615047979e-01) (47, 4.05918360765464947271e-01) (48, 1.67938788592686694123e+00) (49, 1.53341767344705573350e+02) (50, -4.48771722172648956928e+00) (51, 3.09288770599114606341e+01) (52, -3.30701856417783546238e-02) (53, 5.94624671598000844597e+01) (54, 1.28826378291738222970e+02) (55, 8.96556724673675642379e-01) (56, 1.85175412645073067530e+00) (57, -2.80492844465387181074e+00) (58, 7.09596859523301537465e-01) (59, 7.29202203478896859856e-01) (60, 4.93218647974730028949e-01) (61, -7.17065566224462602740e-01) (62, 1.89587546504435933148e-01) (0, 1.38934119663827559954e+00) (1, -4.49947315330627817254e-01) (2, 6.80625029881982035462e-01) (3, 2.98520264412168430113e+01) (4, 2.35794979233134593954e+00) (5, 4.01180612672139724761e-01) (6, 6.87971650437222415064e-01) (7, 2.43078572369033185652e+00) (8, 1.46547677092867996151e+01) (9, 1.92521767910827492187e+02) (10, 7.41606960340362997286e-01) (11, 6.74563996159700862698e-01) (12, 1.50000000000000000000e+03) (13, 1.10960650983933408753e+01) (14, 6.90606878948441083033e-01) (15, 1.99878141216100750910e+01) (16, 4.81350578265018647084e-01) (17, 9.72192317281762186099e+00) (18, 5.23856243677314759033e-01) (19, 2.19197548666411208274e+01) (20, 1.50000000000000000000e+03) (21, 1.98170610261409918529e+00) (22, 1.56239365452704181969e+00) (23, -2.12441801693933385309e+00) (24, 1.41014579956804397831e+00) (25, -7.35161468556574826394e-01) (26, 1.33644329305564379951e+00) (27, 4.00878066522822817941e-01) (28, 1.88254153884736687985e+01) (29, 1.37400906631332420105e+00) (30, 2.46148243116913718609e+01) (31, 5.32690075333719481598e-01) (32, 2.61964392423586689418e+00) (33, 1.44623972245078280530e+00) (34, 1.45971976022786109617e+00) (35, 6.33424994865262047661e-01) (36, 4.48739903227582725975e-01) (37, 1.17709669845934894461e+00) (38, 9.33444402078088653063e-01) (39, 7.38877135456479372522e-01) (40, 9.13412296850517613223e-01) (41, -6.46190214477846058827e+00) (42, 1.86562872244843847014e+00) (43, 3.83429753596050204578e+00) (44, 2.10850621331867715824e+00) (45, 6.75056013901986329273e-01) (46, 1.01622093775145816430e+00) (47, 2.52986003868741815559e-01) (48, 1.19041840013999933312e+00) (49, -6.83431786240836231627e+02) (50, 7.12346606891748335144e-01) (51, -1.02056867014835711549e-01) (52, 7.59427321742992100795e-01) (53, -5.83917004000348516257e-01) (54, -8.65284766222103485234e-01) (55, 3.25001891039934875938e-01) (56, 4.93099612120023123030e-01) (57, 9.06247530754688002119e-01) (58, 2.17385729748325956523e-01) (59, 1.83763248441376980669e-01) (60, 4.15304294136028651074e-01) (61, 2.21251388877202526118e+00) (62, 5.18029893894031645551e-01) (0, 6.80571809873810162905e-01) (1, -3.80109748419022952515e-01) (2, 2.61242125364030408630e-01) (3, 2.51582794006311942780e+01) (4, -7.13864774155595765981e-02) (5, 2.20083313293864296645e-01) (6, 2.88231878584214451511e-01) (7, -4.49655210655027226530e-02) (8, 4.71815236627282352799e+00) (9, -1.33096529794394218271e+01) (10, 1.55168826043034252526e-01) (11, 1.65273163212108303854e-01) (12, 1.50000000000000000000e+03) (13, 3.24423369470536460124e-01) (14, 3.64646013264314783342e-01) (15, 6.97553671185649637465e+00) (16, 3.36274086986100229080e-01) (17, 4.09243815236017327575e-01) (18, 1.05008002304199599131e-01) (19, 9.07734890764541169084e-01) (20, 1.50000000000000000000e+03) (21, -3.39918636324479828126e-01) (22, 1.94473388919614698089e+00) (23, 2.31907186993231029248e+00) (24, 1.49310318239635497761e+00) (25, 5.87343418566783292967e-01) (26, -1.06143903783295523446e-01) (27, 7.28411159494673721149e-01) (28, 3.03514226168555101282e+00) (29, -4.93486845950270869299e-02) (30, 1.08694863655228584065e+01) (31, 6.08277090346057286441e-02) (32, -3.80301022484055284423e-02) (33, 5.35632581716607991673e-01) (34, 6.34580094222773949397e-01) (35, 1.99487810575149221437e-01) (36, 5.03384554141656725967e-01) (37, 1.91002058951508860152e-02) (38, 2.48510132219705498491e-01) (39, 4.03888823896755455589e-01) (40, 7.44753963238759392196e-02) (41, -8.99763819406455778172e-01) (42, 3.98411899334072949763e-01) (43, 1.08515574399228625913e-01) (44, 1.61873201570776226177e+00) (45, 1.47480927707909964530e-01) (46, 2.09119077566738559293e-01) (47, 3.89374987322053667249e-01) (48, 1.63438910210459442673e+00) (49, -8.51713138000708913644e-01) (50, -9.45554452154863805946e-02) (51, 3.20451320365712977178e+00) (52, 6.48957365057955537502e-01) (53, 4.03906692185228077818e+00) (54, 4.24839563208827430962e-01) (55, 4.74238528039084061838e-01) (56, 1.33613772292687671417e-01) (57, 2.78027704131585728931e-01) (58, 2.25840505928239010380e-01) (59, 2.98719982982549148165e-01) (60, -1.72199742213934636759e-01) (61, 1.75779500050284531731e-01) (62, 2.52122064573286175371e-01) (0, -2.70208402717393103565e-01) (1, -4.73779502636888736333e+01) (2, -4.89422351187611071044e-01) (3, 3.56927026029852925149e+01) (4, -2.01359526078840472829e-01) (5, -4.96177791578206406342e-01) (6, -1.81749897642816482524e+00) (7, 1.86049467015822755922e-01) (8, 3.59622266428606440769e+00) (9, -1.96746664621557954433e+02) (10, 2.45017218678049042424e-01) (11, -1.44915042695968887543e-01) (12, 1.50000000000000000000e+03) (13, 5.72445879481179087378e+00) (14, -2.36525170709463244956e-01) (15, -7.58678091645740323656e+02) (16, -4.77901138429179639378e-01) (17, -2.48334077835530547818e-01) (18, -7.07167579239893762111e-02) (19, 8.52409243807031424822e-01) (20, 1.50000000000000000000e+03) (21, 1.09689096865264013037e-01) (22, -2.61092435849039672391e+00) (23, 2.08253236376158445964e+00) (24, -1.42400973519416851332e+01) (25, 9.51672887413392132316e+00) (26, -6.78210589759612680893e-01) (27, -2.51536933361710968171e+00) (28, -1.25715657857123535024e+01) (29, -7.59170110898185201975e-01) (30, -9.71542743418305931868e-01) (31, -1.93100413590018088472e-01) (32, -3.04756187274496881390e-01) (33, -5.12506834577445613554e-01) (34, 7.68557999225805477117e-01) (35, -4.48693739361206711536e-01) (36, -1.14183849301596929138e+01) (37, 3.55852478901880320272e-01) (38, -3.87426683096488977398e-01) (39, -1.62476058927800093290e-01) (40, -9.74839408982138166948e+00) (41, 8.14676170761363005468e-01) (42, -2.16189793335192064205e+01) (43, -6.54030065269190497013e-01) (44, -2.87999292783525406847e+00) (45, -3.60272196723270321517e-01) (46, -8.69113688673604656287e+00) (47, -2.43064095910205918427e-01) (48, -2.87477289351792038019e+01) (49, 3.68656829292470604287e+02) (50, -4.61783441013908668715e-01) (51, -8.90698000622481167454e-01) (52, -1.18809301413566270611e+01) (53, -5.81386654424507298700e+00) (54, -1.60312094203723745522e+02) (55, -3.72872371493167958922e-02) (56, -2.46543740019351004245e-01) (57, -2.29210823989267592493e-01) (58, -2.57012985999186364949e-02) (59, -1.66626308090788988192e-01) (60, -8.45942266548956461891e-02) (61, -2.08135980567079950654e-02) (62, -2.73483640055749821496e-01) (0, -3.37512844669343378690e-02) (1, -6.89516505354103781400e+00) (2, 9.50434113109831051058e-03) (3, 7.44734853915098327093e+00) (4, -4.97324106296780477088e-01) (5, -1.96371748751435509783e-01) (6, -3.82356599584166345629e-01) (7, -4.11085969613334933914e-01) (8, -1.04880201476249781956e-01) (9, 8.43121387470796612718e+00) (10, -1.73372093827123957555e-01) (11, -3.16874901900509375885e-01) (12, 1.50000000000000000000e+03) (13, 3.48960151945758648151e-02) (14, -2.91598859028040224839e-01) (15, 6.19372760641240471813e+00) (16, -1.32794956483067910780e-01) (17, 2.51963634785067613908e-02) (18, -4.03792597223459726052e-01) (19, 2.36013402488351697883e+00) (20, 1.50000000000000000000e+03) (21, -5.97786654674803852316e-01) (22, 9.82614293942810301807e-01) (23, 2.03718639291610870146e+00) (24, 7.54289853653535624645e-01) (25, 7.15583950356973086393e-01) (26, -2.35727751734271046002e-01) (27, 3.66306503511740821910e-01) (28, 1.39921468199164977797e+00) (29, -4.82843198477416246650e-01) (30, 1.89685963149440306452e+00) (31, -2.95702381181765339146e-01) (32, -9.96695551037150434537e-02) (33, 1.73362172680367160327e-01) (34, 2.40705829369115942296e-01) (35, -3.91694288009359736780e-01) (36, -1.44905053504526037944e-01) (37, -1.17051477758093969150e+00) (38, -1.95191688677959412912e-01) (39, -8.59103145292513734055e-03) (40, -1.80423075926072318254e-01) (41, -4.69899853452224647299e+00) (42, -5.19694406106718620464e+00) (43, -2.25541523257296844251e-01) (44, 8.78802908268234483913e-01) (45, -2.66164689122046771441e-01) (46, -1.75821838512438627378e-01) (47, -3.57878232748588751000e-02) (48, 1.80766331838672056342e+00) (49, -2.05429224123903786392e+00) (50, -6.01279144319333713753e-01) (51, 2.61251521593271984756e+00) (52, 3.41918584795005489618e-02) (53, 1.95147943495226394717e+00) (54, 1.06168734646257950649e-01) (55, -7.32001968077391762524e-02) (56, -2.22567955145671014794e-01) (57, -2.55023414309444917958e-01) (58, -2.39170122189128836476e-01) (59, -1.97823313607815264026e-02) (60, -5.60912582105746529426e-02) (61, -7.77506972425150710837e-02) (62, -1.52029237627177876702e-01) (0, 2.54677539132794061860e-01) (1, -1.14874808603131679519e+01) (2, 3.19724520623798524888e-01) (3, -7.53859875211517493909e+00) (4, 2.29138176411950666989e-01) (5, 3.42442241891431409240e-01) (6, 3.05276280160716284584e-01) (7, 2.36499008571667806988e-01) (8, -3.60349310273882483813e+00) (9, -3.17574741016750046185e+01) (10, 5.41988978664207698976e-01) (11, 4.69892166758030527252e-01) (12, 1.50000000000000000000e+03) (13, -2.77279125175049445673e+00) (14, 2.32673881105090851751e-01) (15, 9.11469027296177891628e+00) (16, 4.36651424060466086807e-01) (17, 5.36510105356521882491e-01) (18, 3.94412080561865829864e-01) (19, 1.51443976105304489721e+00) (20, 1.50000000000000000000e+03) (21, -4.03603401453245802522e-01) (22, 1.23225009535509344438e+00) (23, 7.13367713096502864545e+00) (24, 9.04608107935771066366e-01) (25, 1.54959173008782968850e+00) (26, 1.27226816917571705634e-01) (27, 9.97003543817152615425e-01) (28, 2.51488971741024736062e+00) (29, -2.41426362166964787737e-03) (30, 8.13634667878727735335e-01) (31, 2.66433117485400161595e-01) (32, 5.04868356629218029141e-01) (33, 5.71669873645249904115e-01) (34, 4.33084569825548326705e-01) (35, 1.26474926854384991243e-02) (36, 8.35549710020017988299e-01) (37, -1.70824632702981249466e+00) (38, 5.48029443498300516957e-01) (39, 5.68825751453454930839e-01) (40, 2.80376988569945584384e-01) (41, -2.77970261243267469098e+00) (42, -4.02561388368993178233e+00) (43, 1.46621686785359167660e-01) (44, 1.74184113119674099934e+00) (45, 3.79614291764916678140e-01) (46, 3.15355689159332097660e-01) (47, 3.82864628477773194515e-01) (48, 1.71083794422093626864e+00) (49, -8.43585394334785476644e+00) (50, 2.11213402281808043659e-01) (51, 3.86928865590287518472e+00) (52, 5.67332034172525645488e-01) (53, 1.06731617605734019349e+01) (54, 1.54724816837727319196e-01) (55, 7.64850969494839549867e-01) (56, 3.91728747005755439936e-01) (57, 2.83307704623061762383e-01) (58, 3.94378714377493500010e-01) (59, 5.09245965563613345317e-01) (60, 2.34004621411758789717e-01) (61, 4.12362682234562794026e-01) (62, 4.22670565161070266313e-01) (0, 3.58762466988946371327e-01) (1, -7.86433548096135037753e+00) (2, 5.51900267592796978100e-01) (3, 2.93151665218678090241e+01) (4, 6.50868731508725956170e-02) (5, 3.00899921000172709817e-01) (6, 2.79393775781928033197e-01) (7, 3.32918388186141112062e-01) (8, -3.01844853320539063812e-01) (9, 8.06677269962535703485e+00) (10, 5.60041825961276273915e-01) (11, 3.06292336194437964103e-01) (12, 1.50000000000000000000e+03) (13, 1.79118298710612311453e+00) (14, 3.62794694667204375982e-01) (15, 5.18294360232604045535e+00) (16, 3.60809718115678024208e-01) (17, 4.83669364545048774406e-01) (18, 3.07518147354042370445e-01) (19, 1.78152312111365795921e+00) (20, 1.50000000000000000000e+03) (21, -4.84939858992803687898e-02) (22, 8.11728789664281302763e-01) (23, 2.16870379132847581616e+01) (24, 7.91669914889210790676e-01) (25, 1.04864268263371762657e+00) (26, 9.83124006259811743236e-03) (27, 8.37649046968298893745e-01) (28, 4.48643164273958117150e+00) (29, 4.81832499224622845535e-02) (30, 2.30879507363398728259e+00) (31, 2.19320445049347390043e-01) (32, 5.37122481846328603261e-01) (33, 6.77425193528235936036e-01) (34, 6.24985661455455976387e-01) (35, 1.70333038119523022536e-01) (36, -3.30117669585635389873e-02) (37, -4.01632249933008889098e-01) (38, 5.21172396861305675664e-01) (39, 5.13274619167728873848e-01) (40, 3.33761857563770192314e-01) (41, -1.10566428999282475587e+01) (42, -3.32122231949856550060e+00) (43, 1.97816465201246405314e-01) (44, 1.29031089356995298800e+00) (45, 3.62180264327317757989e-01) (46, 2.76029934010204480721e-01) (47, 3.28695083719681258039e-01) (48, 1.83119795234265159145e+00) (49, -4.74845848007731419216e+00) (50, 9.65330120486148635095e-02) (51, 3.32667435332540550874e+00) (52, 5.28524220171661007761e-01) (53, 8.68651813125681648842e+00) (54, 4.44327333225377374415e-01) (55, 5.60998239151786259882e-01) (56, 4.74004808249784803653e-01) (57, 2.89438192049008724549e-01) (58, 4.28895798622122792487e-01) (59, 3.06948212106960327539e-01) (60, 4.72937869427136947653e-01) (61, 4.37145157149819274522e-01) (62, 3.85003365107727812955e-01) (0, 4.88359898620467247632e-01) (1, -1.65637480166896551736e+02) (2, 7.80727542971421217821e-01) (3, -2.93104245395756720427e+02) (4, 1.41916972433113119934e+00) (5, 5.24498258770689895769e-01) (6, 7.99280038781842505635e-01) (7, 1.11501057371654468398e+01) (8, 4.91628525092700563448e+00) (9, 2.15626097644008174470e+00) (10, 9.30094147208320287668e-01) (11, 5.77900122848827635380e-01) (12, 1.50000000000000000000e+03) (13, 1.82384534254854324686e+00) (14, 7.49483586196935669399e-01) (15, -1.31442557834106010795e+00) (16, 7.61426933513045911539e-01) (17, 3.91859620830183086326e+00) (18, 6.30121803858207263360e-01) (19, 6.47454472362736499491e+00) (20, 1.50000000000000000000e+03) (21, 1.08264928251080427835e+00) (22, 1.12508333577837871253e+00) (23, 4.09589881253099079572e+01) (24, 7.92137550289282676985e-01) (25, 5.64556069107671998353e+00) (26, 1.93912353129584502653e+00) (27, 4.04261105491223182717e-01) (28, -3.55859790479325042156e+01) (29, 1.06412458731177150817e+00) (30, 9.63330280159618723701e+00) (31, 7.34687605799857923472e-01) (32, 1.11405172239151006863e+01) (33, 5.09753546062003737305e-01) (34, 8.70540483218148142264e-01) (35, 6.92588493205495092653e-01) (36, -2.24625269402396660068e-01) (37, 3.09852656788980684865e+00) (38, 2.99806268529978547921e-01) (39, 2.63874517907589156707e+00) (40, 9.23500435133221775352e-01) (41, 3.00074820720679058539e+00) (42, 3.58968223463262736672e+00) (43, 4.82666293057005990619e+00) (44, 1.42984569628569668787e+00) (45, 6.28126008564153126557e-01) (46, 9.18145117904525243091e-01) (47, 3.34932247890771195298e-01) (48, -2.29469705614281205275e-01) (49, -3.89263123998247664304e+01) (50, 9.34736727636401809605e-01) (51, 1.07206584413243199982e+00) (52, 6.58768064673359576844e-01) (53, -1.59581770379053267561e+02) (54, 7.78784478509125105417e-02) (55, 7.16524709982988006196e-01) (56, 9.57087151443328454370e-01) (57, 8.59330428336393614686e-01) (58, 4.24237983553057640407e-01) (59, -1.64677827436060897348e+00) (60, 9.52056883446492308032e-01) (61, 8.57309580634535661758e-01) (62, 5.46894776804392579450e-01) (0, 2.20942678310686146936e-01) (1, -1.55524574881503667712e+01) (2, -7.76380471504768271407e-02) (3, -3.29222466114766518785e+01) (4, -3.09671150003097805925e-01) (5, -1.70052510419797187069e-01) (6, 1.30900309352068000557e+00) (7, 2.13894649838969136413e-01) (8, -2.59037756617304149032e+00) (9, -1.10858243181260476717e+02) (10, -7.00049598251732407839e-02) (11, -3.05975443277443359680e-01) (12, 1.50000000000000000000e+03) (13, 1.91182365668181630802e+00) (14, -7.34833795705627235151e-02) (15, -8.96745303514788247412e+02) (16, -6.03375727395390692998e-01) (17, -8.42467634747289650932e+00) (18, -4.92797639577089774399e-01) (19, 5.57693276939748905363e-01) (20, 1.50000000000000000000e+03) (21, 8.03300817734825312044e-01) (22, 5.55897529798139444779e-01) (23, 5.68607955003854659282e+00) (24, -3.80115939128791824331e+00) (25, -2.63490828376121015708e+01) (26, 2.59858239182531557121e-02) (27, -6.52344159467119100171e-01) (28, -1.02323281466263527051e+01) (29, -1.13566567440662694044e-01) (30, 7.01010312988354589159e-01) (31, 5.45362301261679838227e-01) (32, 1.54723271347394142339e+00) (33, -2.00912315240457245435e-01) (34, 1.19571660430716186774e+00) (35, -3.23855255191788371505e-01) (36, -1.65357369264842457568e+00) (37, 5.21786282759237329820e-02) (38, -1.98959053363523714897e-02) (39, -1.07671186914555749858e+00) (40, -5.03956290191135747314e-01) (41, 4.72723258735110984929e+00) (42, 1.83094506928806743939e-02) (43, -2.01743609540913776401e-01) (44, -3.92839146547501698592e+01) (45, -2.20918168434789313759e-01) (46, -1.91762305399806631812e+00) (47, -8.70330625516845951539e-02) (48, -3.53085780059165754707e+00) (49, 1.26624187290622074897e+02) (50, -2.43124418792766805453e+00) (51, 7.38204687953566640601e-01) (52, -1.58049391193352906093e+00) (53, -2.19773914762880089313e+01) (54, 3.57001588627501309503e-01) (55, -3.72191304797736599586e-01) (56, -2.12236371749726260294e-01) (57, 1.57262581504266724108e-01) (58, -6.74409918569596616988e-02) (59, -1.28417983861035134296e+00) (60, -3.90283096637391913042e-01) (61, 7.63619884586451691533e-02) (62, -2.94963641731273040758e-01) (0, 6.76280247641224629973e-01) (1, 1.64239198362487428540e+01) (2, 6.61153410644862882251e-01) (3, 2.06338324269033321912e+01) (4, 1.95630001515410967272e+00) (5, 4.07722376993231327980e-01) (6, 5.79610043423339105217e-01) (7, 7.39743240825035730523e-01) (8, 1.09816772399257001069e+01) (9, 5.37897763076313779607e+01) (10, 5.61347690680733646396e-01) (11, 6.06947334308935215752e-01) (12, 1.50000000000000000000e+03) (13, 7.51595590751821873710e+00) (14, 1.00523795455209263849e+00) (15, 1.97599048556866563331e+01) (16, 6.60252686874135408246e-01) (17, 8.97317201701199174124e+00) (18, 5.11534390422616613847e-01) (19, 1.16614872454286455650e+01) (20, 1.50000000000000000000e+03) (21, 1.35785093087807662293e+00) (22, 9.15092322686001224952e+00) (23, 2.26823899691844399484e+00) (24, -2.88821864516623811880e+01) (25, -2.03245577895577733685e+00) (26, 1.18414226385787326734e+01) (27, 2.72787479752014228040e-01) (28, 1.36861971135550319900e+01) (29, 2.19740041816614573023e+00) (30, -1.91936157632212944790e+00) (31, 5.27206998020796957505e-01) (32, 1.92395042850710878968e-01) (33, 1.29812127603454596780e+00) (34, 1.01135560066014784653e+00) (35, 6.84566986585009473743e-01) (36, 3.16740310033847283222e-01) (37, 1.42674918145095253053e+00) (38, 2.41055198333058218196e+00) (39, 6.37802407046414887581e-01) (40, 8.51720680534330587541e-01) (41, 9.93434754027514443919e+00) (42, 1.15026221209117429645e+00) (43, 3.17851924943988306538e+00) (44, 1.32106017223928384752e+00) (45, 5.48181860423840094931e-01) (46, 8.83332304911244148293e-01) (47, 1.85632015378232623215e-01) (48, -1.41940506916250236413e-01) (49, -5.71565412679555073794e+00) (50, 9.85601384555592763270e-01) (51, 2.84662287544268099992e+00) (52, 6.53424130920097212538e-01) (53, 1.18984632555953240285e+01) (54, 7.15169166362862318564e-01) (55, 4.64388325495747933402e-01) (56, 5.16098479769601881095e-01) (57, 7.78290826809832858579e-01) (58, 7.69560655130851256622e-01) (59, 9.87910513815564855777e-02) (60, 2.18524019860848656149e-01) (61, 7.96840686493412331259e-01) (62, 5.69050735869169876935e-01) (0, 5.09269748198316274390e-01) (1, -2.38916004680617533040e+00) (2, 3.39072838350849281586e-01) (3, 5.30163183763071010901e+00) (4, 2.56780267519879545901e+00) (5, 3.07344020496217507077e-01) (6, 6.87315714816139067267e-01) (7, -1.41775677530824584238e+00) (8, 8.32418870423762058408e+00) (9, 8.09561152344809542569e+00) (10, 7.76030958141914806170e-01) (11, 5.81813647331563488230e-01) (12, 1.50000000000000000000e+03) (13, 2.16226501809205160498e+01) (14, 7.21701321836750397942e-01) (15, 6.57544117382431547725e+00) (16, 5.43253306896532617287e-01) (17, 1.28882328065120415062e+01) (18, 4.47233850704753188587e-01) (19, 