FANN_FLO_2.1
num_layers=4
learning_rate=0.100000
connection_rate=1.000000
network_type=0
learning_momentum=0.950000
training_algorithm=2
train_error_function=1
train_stop_function=0
cascade_output_change_fraction=0.010000
quickprop_decay=-0.000100
quickprop_mu=1.750000
rprop_increase_factor=1.200000
rprop_decrease_factor=0.500000
rprop_delta_min=0.000000
rprop_delta_max=50.000000
rprop_delta_zero=0.100000
cascade_output_stagnation_epochs=12
cascade_candidate_change_fraction=0.010000
cascade_candidate_stagnation_epochs=12
cascade_max_out_epochs=150
cascade_min_out_epochs=50
cascade_max_cand_epochs=150
cascade_min_cand_epochs=50
cascade_num_candidate_groups=2
bit_fail_limit=1.00000000000000002082e-02
cascade_candidate_limit=1.00000000000000000000e+03
cascade_weight_multiplier=4.00000000000000022204e-01
cascade_activation_functions_count=10
cascade_activation_functions=3 5 7 8 10 11 14 15 16 17 
cascade_activation_steepnesses_count=4
cascade_activation_steepnesses=2.50000000000000000000e-01 5.00000000000000000000e-01 7.50000000000000000000e-01 1.00000000000000000000e+00 
layer_sizes=63 60 54 57 
scale_included=0
neurons (num_inputs, activation_function, activation_steepness)=(0, 0, 0.00000000000000000000e+00) (0, 0, 0.00000000000000000000e+00) (0, 0, 0.00000000000000000000e+00) (0, 0, 0.00000000000000000000e+00) (0, 0, 0.00000000000000000000e+00) (0, 0, 0.00000000000000000000e+00) (0, 0, 0.00000000000000000000e+00) (0, 0, 0.00000000000000000000e+00) (0, 0, 0.00000000000000000000e+00) (0, 0, 0.00000000000000000000e+00) (0, 0, 0.00000000000000000000e+00) (0, 0, 0.00000000000000000000e+00) (0, 0, 0.00000000000000000000e+00) (0, 0, 0.00000000000000000000e+00) (0, 0, 0.00000000000000000000e+00) (0, 0, 0.00000000000000000000e+00) (0, 0, 0.00000000000000000000e+00) (0, 0, 0.00000000000000000000e+00) (0, 0, 0.00000000000000000000e+00) (0, 0, 0.00000000000000000000e+00) (0, 0, 0.00000000000000000000e+00) (0, 0, 0.00000000000000000000e+00) (0, 0, 0.00000000000000000000e+00) (0, 0, 0.00000000000000000000e+00) (0, 0, 0.00000000000000000000e+00) (0, 0, 0.00000000000000000000e+00) (0, 0, 0.00000000000000000000e+00) (0, 0, 0.00000000000000000000e+00) (0, 0, 0.00000000000000000000e+00) (0, 0, 0.00000000000000000000e+00) (0, 0, 0.00000000000000000000e+00) (0, 0, 0.00000000000000000000e+00) (0, 0, 0.00000000000000000000e+00) (0, 0, 0.00000000000000000000e+00) (0, 0, 0.00000000000000000000e+00) (0, 0, 0.00000000000000000000e+00) (0, 0, 0.00000000000000000000e+00) (0, 0, 0.00000000000000000000e+00) (0, 0, 0.00000000000000000000e+00) (0, 0, 0.00000000000000000000e+00) (0, 0, 0.00000000000000000000e+00) (0, 0, 0.00000000000000000000e+00) (0, 0, 0.00000000000000000000e+00) (0, 0, 0.00000000000000000000e+00) (0, 0, 0.00000000000000000000e+00) (0, 0, 0.00000000000000000000e+00) (0, 0, 0.00000000000000000000e+00) (0, 0, 0.00000000000000000000e+00) (0, 0, 0.00000000000000000000e+00) (0, 0, 0.00000000000000000000e+00) (0, 0, 0.00000000000000000000e+00) (0, 0, 0.00000000000000000000e+00) (0, 0, 0.00000000000000000000e+00) (0, 0, 0.00000000000000000000e+00) (0, 0, 0.00000000000000000000e+00) (0, 0, 0.00000000000000000000e+00) (0, 0, 0.00000000000000000000e+00) (0, 0, 0.00000000000000000000e+00) (0, 0, 0.00000000000000000000e+00) (0, 0, 0.00000000000000000000e+00) (0, 0, 0.00000000000000000000e+00) (0, 0, 0.00000000000000000000e+00) (0, 0, 0.00000000000000000000e+00) (63, 5, 5.00000000000000000000e-01) (63, 5, 5.00000000000000000000e-01) (63, 5, 5.00000000000000000000e-01) (63, 5, 5.00000000000000000000e-01) (63, 5, 5.00000000000000000000e-01) (63, 5, 5.00000000000000000000e-01) (63, 5, 5.00000000000000000000e-01) (63, 5, 5.00000000000000000000e-01) (63, 5, 5.00000000000000000000e-01) (63, 5, 5.00000000000000000000e-01) (63, 5, 5.00000000000000000000e-01) (63, 5, 5.00000000000000000000e-01) (63, 5, 5.00000000000000000000e-01) (63, 5, 5.00000000000000000000e-01) (63, 5, 5.00000000000000000000e-01) (63, 5, 5.00000000000000000000e-01) (63, 5, 5.00000000000000000000e-01) (63, 5, 5.00000000000000000000e-01) (63, 5, 5.00000000000000000000e-01) (63, 5, 5.00000000000000000000e-01) (63, 5, 5.00000000000000000000e-01) (63, 5, 5.00000000000000000000e-01) (63, 5, 5.00000000000000000000e-01) (63, 5, 5.00000000000000000000e-01) (63, 5, 5.00000000000000000000e-01) (63, 5, 5.00000000000000000000e-01) (63, 5, 5.00000000000000000000e-01) (63, 5, 5.00000000000000000000e-01) (63, 5, 5.00000000000000000000e-01) (63, 5, 5.00000000000000000000e-01) (63, 5, 5.00000000000000000000e-01) (63, 5, 5.00000000000000000000e-01) (63, 5, 5.00000000000000000000e-01) (63, 5, 5.00000000000000000000e-01) (63, 5, 5.00000000000000000000e-01) (63, 5, 5.00000000000000000000e-01) (63, 5, 5.00000000000000000000e-01) (63, 5, 5.00000000000000000000e-01) (63, 5, 5.00000000000000000000e-01) (63, 5, 5.00000000000000000000e-01) (63, 5, 5.00000000000000000000e-01) (63, 5, 5.00000000000000000000e-01) (63, 5, 5.00000000000000000000e-01) (63, 5, 5.00000000000000000000e-01) (63, 5, 5.00000000000000000000e-01) (63, 5, 5.00000000000000000000e-01) (63, 5, 5.00000000000000000000e-01) (63, 5, 5.00000000000000000000e-01) (63, 5, 5.00000000000000000000e-01) (63, 5, 5.00000000000000000000e-01) (63, 5, 5.00000000000000000000e-01) (63, 5, 5.00000000000000000000e-01) (63, 5, 5.00000000000000000000e-01) (63, 5, 5.00000000000000000000e-01) (63, 5, 5.00000000000000000000e-01) (63, 5, 5.00000000000000000000e-01) (63, 5, 5.00000000000000000000e-01) (63, 5, 5.00000000000000000000e-01) (63, 5, 5.00000000000000000000e-01) (0, 5, 0.00000000000000000000e+00) (60, 5, 5.00000000000000000000e-01) (60, 5, 5.00000000000000000000e-01) (60, 5, 5.00000000000000000000e-01) (60, 5, 5.00000000000000000000e-01) (60, 5, 5.00000000000000000000e-01) (60, 5, 5.00000000000000000000e-01) (60, 5, 5.00000000000000000000e-01) (60, 5, 5.00000000000000000000e-01) (60, 5, 5.00000000000000000000e-01) (60, 5, 5.00000000000000000000e-01) (60, 5, 5.00000000000000000000e-01) (60, 5, 5.00000000000000000000e-01) (60, 5, 5.00000000000000000000e-01) (60, 5, 5.00000000000000000000e-01) (60, 5, 5.00000000000000000000e-01) (60, 5, 5.00000000000000000000e-01) (60, 5, 5.00000000000000000000e-01) (60, 5, 5.00000000000000000000e-01) (60, 5, 5.00000000000000000000e-01) (60, 5, 5.00000000000000000000e-01) (60, 5, 5.00000000000000000000e-01) (60, 5, 5.00000000000000000000e-01) (60, 5, 5.00000000000000000000e-01) (60, 5, 5.00000000000000000000e-01) (60, 5, 5.00000000000000000000e-01) (60, 5, 5.00000000000000000000e-01) (60, 5, 5.00000000000000000000e-01) (60, 5, 5.00000000000000000000e-01) (60, 5, 5.00000000000000000000e-01) (60, 5, 5.00000000000000000000e-01) (60, 5, 5.00000000000000000000e-01) (60, 5, 5.00000000000000000000e-01) (60, 5, 5.00000000000000000000e-01) (60, 5, 5.00000000000000000000e-01) (60, 5, 5.00000000000000000000e-01) (60, 5, 5.00000000000000000000e-01) (60, 5, 5.00000000000000000000e-01) (60, 5, 5.00000000000000000000e-01) (60, 5, 5.00000000000000000000e-01) (60, 5, 5.00000000000000000000e-01) (60, 5, 5.00000000000000000000e-01) (60, 5, 5.00000000000000000000e-01) (60, 5, 5.00000000000000000000e-01) (60, 5, 5.00000000000000000000e-01) (60, 5, 5.00000000000000000000e-01) (60, 5, 5.00000000000000000000e-01) (60, 5, 5.00000000000000000000e-01) (60, 5, 5.00000000000000000000e-01) (60, 5, 5.00000000000000000000e-01) (60, 5, 5.00000000000000000000e-01) (60, 5, 5.00000000000000000000e-01) (60, 5, 5.00000000000000000000e-01) (60, 5, 5.00000000000000000000e-01) (0, 5, 0.00000000000000000000e+00) (54, 3, 5.00000000000000000000e-01) (54, 3, 5.00000000000000000000e-01) (54, 3, 5.00000000000000000000e-01) (54, 3, 5.00000000000000000000e-01) (54, 3, 5.00000000000000000000e-01) (54, 3, 5.00000000000000000000e-01) (54, 3, 5.00000000000000000000e-01) (54, 3, 5.00000000000000000000e-01) (54, 3, 5.00000000000000000000e-01) (54, 3, 5.00000000000000000000e-01) (54, 3, 5.00000000000000000000e-01) (54, 3, 5.00000000000000000000e-01) (54, 3, 5.00000000000000000000e-01) (54, 3, 5.00000000000000000000e-01) (54, 3, 5.00000000000000000000e-01) (54, 3, 5.00000000000000000000e-01) (54, 3, 5.00000000000000000000e-01) (54, 3, 5.00000000000000000000e-01) (54, 3, 5.00000000000000000000e-01) (54, 3, 5.00000000000000000000e-01) (54, 3, 5.00000000000000000000e-01) (54, 3, 5.00000000000000000000e-01) (54, 3, 5.00000000000000000000e-01) (54, 3, 5.00000000000000000000e-01) (54, 3, 5.00000000000000000000e-01) (54, 3, 5.00000000000000000000e-01) (54, 3, 5.00000000000000000000e-01) (54, 3, 5.00000000000000000000e-01) (54, 3, 5.00000000000000000000e-01) (54, 3, 5.00000000000000000000e-01) (54, 3, 5.00000000000000000000e-01) (54, 3, 5.00000000000000000000e-01) (54, 3, 5.00000000000000000000e-01) (54, 3, 5.00000000000000000000e-01) (54, 3, 5.00000000000000000000e-01) (54, 3, 5.00000000000000000000e-01) (54, 3, 5.00000000000000000000e-01) (54, 3, 5.00000000000000000000e-01) (54, 3, 5.00000000000000000000e-01) (54, 3, 5.00000000000000000000e-01) (54, 3, 5.00000000000000000000e-01) (54, 3, 5.00000000000000000000e-01) (54, 3, 5.00000000000000000000e-01) (54, 3, 5.00000000000000000000e-01) (54, 3, 5.00000000000000000000e-01) (54, 3, 5.00000000000000000000e-01) (54, 3, 5.00000000000000000000e-01) (54, 3, 5.00000000000000000000e-01) (54, 3, 5.00000000000000000000e-01) (54, 3, 5.00000000000000000000e-01) (54, 3, 5.00000000000000000000e-01) (54, 3, 5.00000000000000000000e-01) (54, 3, 5.00000000000000000000e-01) (54, 3, 5.00000000000000000000e-01) (54, 3, 5.00000000000000000000e-01) (54, 3, 5.00000000000000000000e-01) (0, 3, 0.00000000000000000000e+00) 
connections (connected_to_neuron, weight)=(0, 6.37355892378337340887e-01) (1, 4.87066860804923618122e-01) (2, 5.48871580112452073230e-01) (3, 7.80990271052587203826e+00) (4, 6.71044915593357993444e-01) (5, 5.29231325089078885604e-01) (6, -1.27810975542007404515e-01) (7, 8.39446439174208336453e+00) (8, 3.95981654534786120525e-01) (9, 1.27859671704380684076e+00) (10, 4.94554614074173615190e-01) (11, 5.33814628405691604662e-01) (12, 1.50000000000000000000e+03) (13, -3.21566551137393252802e+00) (14, 6.01666894509748306774e-01) (15, 3.03160403283429191745e-01) (16, 5.02344527547425756531e-01) (17, 1.59826552345573547065e+00) (18, 7.13308996717670118493e-01) (19, 7.43333853642172304177e-01) (20, 1.50000000000000000000e+03) (21, 6.45950204280216877528e-01) (22, -1.11924620713546696393e+00) (23, 7.72204244089121916161e-01) (24, 5.97140342359252729310e-01) (25, 6.61982473007075800098e-01) (26, 1.01548676272158022726e+00) (27, 4.95704002392603815252e-01) (28, 7.16387064326188305330e+00) (29, 6.14855997086324768119e-01) (30, 1.50000000000000000000e+03) (31, 5.28311522186242554788e-01) (32, 1.50000000000000000000e+03) (33, 5.87688218466518530470e-01) (34, 1.00275677010444175252e+00) (35, 4.50466174361931148695e-01) (36, 4.55993212266591618764e-02) (37, 1.31627928651206782540e+00) (38, 2.66288865781165995372e+00) (39, 9.30210723061500543984e-01) (40, -9.38639740680322520738e-01) (41, 7.82219459193520094686e-01) (42, 5.73796071755943493109e-01) (43, 6.62939935764403576179e-01) (44, 5.69088216981228356417e-01) (45, 4.95937545631290388481e-01) (46, 5.17576066774367404832e-01) (47, 6.46081349080360523018e-01) (48, 6.09503779598708606002e-01) (49, -8.42119282026183810785e+01) (50, -1.12979998796601566191e+00) (51, 1.29447269710585413094e+01) (52, 9.11180834906293868336e-01) (53, 5.56496552317440773550e+00) (54, 6.56498614881945385946e-01) (55, 5.37363479603250260297e-01) (56, 6.12160237436452758786e-01) (57, -1.23521644968527036235e-02) (58, 5.66374210938362598888e-01) (59, 6.03067179040147727243e-01) (60, 6.85274281963209719315e-01) (61, 5.54144330234508264432e-01) (62, 6.29655758150822419950e-01) (0, 6.29424702878196740130e-01) (1, 4.18067346479921830849e-01) (2, 5.47984790497822005229e-01) (3, 2.00561177807149615404e+00) (4, 5.21643994536405419815e-01) (5, 4.31579566270002046302e-01) (6, 1.63338902395446489146e-01) (7, 3.17081794220041546239e+00) (8, -3.36202864521724791302e+02) (9, 5.09177322976069435256e-01) (10, 3.50651898935139705316e-01) (11, 4.03969810244961147205e-01) (12, 1.50000000000000000000e+03) (13, -2.75976111518978539650e+00) (14, 3.84750332724323573785e-01) (15, -2.29662909534688139956e+01) (16, 3.82539901652878822080e-01) (17, 1.44794556901726085840e+01) (18, 6.69222684592000960357e-01) (19, 2.44538269205012009921e-01) (20, 1.50000000000000000000e+03) (21, 4.72323757927786858080e-01) (22, -2.04898603707655113659e-01) (23, 4.77698073390344146727e-01) (24, 3.93536144382373831441e-01) (25, 9.97985714455633998732e-01) (26, 5.85883004459885281534e-01) (27, 5.08185289102168757935e-01) (28, 6.09012100688790170011e+01) (29, 5.90391567905701242225e-01) (30, 1.50000000000000000000e+03) (31, 5.22850545464767835213e-01) (32, 1.50000000000000000000e+03) (33, 4.93748335487993683657e-01) (34, 7.97201732793568318414e-01) (35, 5.47623373192805296128e-01) (36, -3.53167491926780519051e+00) (37, 1.76867805772983111012e+00) (38, 1.89527318728510585366e+00) (39, 7.93679477175542436029e-01) (40, -1.20667654446417706993e+01) (41, 2.98286155500302907484e-01) (42, 6.20116168459878824848e-01) (43, 5.51802567553737577377e-01) (44, 3.92579329953725741920e-01) (45, 5.40592629658776635537e-01) (46, 4.70706439473835558385e-01) (47, 4.34587311921341479248e-01) (48, 3.59836405316346585881e-01) (49, -8.33564198533846223427e+00) (50, -2.73825719755550145429e-01) (51, 2.07878482257442520620e+01) (52, 8.04578251090167784199e-01) (53, 1.55336376898847863259e+01) (54, 5.36982763606191015882e-01) (55, 4.76200459242313689501e-01) (56, 3.72747369083420820868e-01) (57, 4.48794986696588515951e-01) (58, 7.15334814423067677502e-01) (59, 5.07814865486899913449e-01) (60, 4.53194011527350837376e-01) (61, 6.15519764464635521506e-01) (62, 5.54258992934200112046e-01) (0, -3.47687792112361462871e-02) (1, -2.88914372679129893839e-01) (2, -2.11682025252565436668e-01) (3, 3.55610847533791973873e+00) (4, -1.76533917568091891503e-01) (5, -3.38871724280084773984e-01) (6, -1.74204763787747829440e+00) (7, 7.79979571567289281520e-02) (8, -5.11122374285586911213e+00) (9, 6.36487730924274242028e-01) (10, -3.88878482758233334771e-01) (11, -1.17697621520504905335e-01) (12, 1.50000000000000000000e+03) (13, -8.49617479279053178232e+00) (14, -2.94821616588359092237e-01) (15, -1.51118903425668271723e+00) (16, -2.48399754681836809622e-01) (17, 1.05124713543905983215e+01) (18, -3.55074717037573706069e-02) (19, -5.24945664331103109546e-02) (20, 1.50000000000000000000e+03) (21, -3.32036264626994315208e-01) (22, -1.89535040389139397554e+00) (23, -8.05173687437860385874e-02) (24, -1.89180540488754500572e+00) (25, 2.77401640918278867554e-02) (26, 9.99552385292655998228e+00) (27, -1.35110207636314455515e-01) (28, 2.85473135269068700737e+00) (29, 7.84014393290204392173e-02) (30, 1.50000000000000000000e+03) (31, -2.60323547751539652317e-01) (32, 1.50000000000000000000e+03) (33, -5.90793426106775154683e-02) (34, 3.53543805316515302728e-01) (35, -2.87699470298082127240e-01) (36, -2.36314821946349340465e+00) (37, -2.71414056603477227281e-01) (38, 1.14628756908331332909e+01) (39, 3.37852532567650520878e-01) (40, -1.08198118630196948864e+00) (41, -9.05582774608600371558e-02) (42, -3.03961133256919979750e-01) (43, -3.44920067363295168583e-01) (44, -1.98168653780225190175e-01) (45, -1.30467344296602283382e-01) (46, -3.10314360115540532892e-01) (47, -2.11136966714264323608e-01) (48, -1.82113110384246157381e-01) (49, -3.38240615948535534585e+01) (50, -6.67768579228502634493e-01) (51, 1.27256796827858771337e+01) (52, 3.03330691917062189589e-01) (53, -1.95927102051003676486e+00) (54, -6.09849094133493169201e-02) (55, -3.11629582667222460035e-01) (56, -2.40909797035760181450e-01) (57, -3.52972729876961710538e-01) (58, -2.89646340698392845692e-01) (59, -2.63427483675218454540e-01) (60, -2.92178065296601618961e-01) (61, -2.30275203491147134605e-01) (62, -2.19472054351584483500e-01) (0, 9.68705563988978696210e-02) (1, -1.05275954639072466534e+00) (2, -1.24775496619406151000e-01) (3, -7.45492248142299285263e+00) (4, 3.90465822020667555070e-02) (5, -1.13283518341760591763e-01) (6, -1.71753150536929033443e+00) (7, 1.54679342775151056344e+01) (8, -3.63037345837614111588e+00) (9, 2.86654777566865348604e+00) (10, -2.09949539652446182103e+00) (11, -1.00693286132708337277e-01) (12, 1.50000000000000000000e+03) (13, -7.11735988042680034482e+00) (14, -1.77526238201960062657e-01) (15, 8.38368357443895639847e+00) (16, -2.25029021910089221947e-01) (17, 8.44428815491023110340e-01) (18, -9.05017074143575211975e-02) (19, 1.02501674930245068040e+00) (20, 1.50000000000000000000e+03) (21, -2.55534029268435838866e-02) (22, -5.93606798730447238199e+00) (23, -5.63452654220537689500e-03) (24, -8.43155217762628916844e-01) (25, 6.01157363254653433898e-03) (26, 2.38201323126310660072e+00) (27, -1.23453453243143884688e-01) (28, 8.37433041979145897926e+00) (29, -1.57010043830499643192e-02) (30, 1.50000000000000000000e+03) (31, 1.33144485410136431680e-01) (32, 1.50000000000000000000e+03) (33, 9.02915865931056271787e-02) (34, 3.26086529522753798549e-01) (35, -2.18584714193218093703e-01) (36, 1.35842156314739970213e+01) (37, 2.06658173477508450011e-02) (38, 2.14858957472009448608e+00) (39, -7.85728284193877718478e-02) (40, -4.15197697028755285942e+01) (41, 1.70331788052669286238e+00) (42, -3.19941343624777288501e-02) (43, -1.78923427129750900466e-01) (44, -3.92758740489743268798e-02) (45, -8.58463499567280463598e-02) (46, -1.23483807733503217485e-01) (47, -5.80817037711348557738e-02) (48, -1.05955081255276042929e-01) (49, -1.38576360929281250378e+01) (50, -6.91115554885982308342e-01) (51, 2.61256043911703912386e+01) (52, 8.91308091427832627218e-01) (53, -5.97711620181993019685e+00) (54, 5.45982525148282910044e-02) (55, -2.21203722567875737948e-01) (56, -5.59983003853582531062e-02) (57, -3.57967066429642766234e-01) (58, -2.38526878675116432715e-01) (59, -5.31579244989943515420e-03) (60, -1.82078797289582927643e-02) (61, -2.03448012475271916566e-01) (62, -2.07602232727765317888e-01) (0, 4.60882377391956699064e-01) (1, 3.69678647449528718916e-01) (2, 2.74088189392314163229e-01) (3, 1.47996470765370915501e+01) (4, 2.86004614798952450094e-01) (5, 2.01952730376690786640e-01) (6, -1.32058639059061388998e+00) (7, 4.28233033187952738530e+00) (8, 1.88436721615083735415e-01) (9, 2.08246108638984317452e+00) (10, 1.54876560597909246342e-01) (11, 2.14092128061029229880e-01) (12, 1.50000000000000000000e+03) (13, -4.22124059360443126820e+00) (14, 3.26757433333553171106e-01) (15, -4.78972732222241626143e-01) (16, 2.14910693171453753836e-01) (17, 1.53513412598197840353e+00) (18, 3.86370147694909515934e-01) (19, 4.03004963898661694444e-01) (20, 1.50000000000000000000e+03) (21, 2.39727212544737944278e-01) (22, -8.67669220796403095619e+00) (23, 2.75342414635749710428e-01) (24, 1.83023324912158807942e-01) (25, 5.37709182498065874078e-01) (26, 1.44427594214226640013e+00) (27, 2.91271961411188662350e-01) (28, 8.49924912404966370616e+00) (29, 5.46089257995761023778e-01) (30, 1.50000000000000000000e+03) (31, 3.02746685851465247019e-01) (32, 1.50000000000000000000e+03) (33, 2.65384150763393555916e-01) (34, 6.48147014548089539510e-01) (35, 3.48971794536789781116e-01) (36, 6.19063704552718530039e-01) (37, 1.87544394387321311513e+00) (38, 3.12805087410500703982e+00) (39, 5.20139296405943474255e-01) (40, -3.19844121953839977124e+00) (41, -1.13644963612138027997e+00) (42, 3.78097638256815860025e-01) (43, 2.09195684316675789560e-01) (44, 2.08843816838009621595e-01) (45, 3.07374050660164432891e-01) (46, 2.33623867710034266443e-01) (47, 2.81559892269658440522e-01) (48, 2.56119424109643112342e-01) (49, -8.47569189289565514400e+01) (50, -1.39440032670035307660e+00) (51, 1.01411147007574715673e+01) (52, 8.75563017655294206776e-01) (53, -5.78205591107828431596e-01) (54, 3.19443737375338487894e-01) (55, 2.98508239477344561319e-01) (56, 2.06118571725133342687e-01) (57, -3.50727176290549433335e-02) (58, -3.81096669629028654558e-03) (59, 2.61100121204627610982e-01) (60, 3.17560148977396150549e-01) (61, 1.10016165876185095795e-01) (62, 3.30399649536477324485e-01) (0, -2.88941735997460036334e-01) (1, -1.24185054305181918899e+00) (2, 8.54056901238610111093e-02) (3, 1.26581168724944781445e+01) (4, 5.36085025879908579766e-03) (5, 3.15371258562398171232e-01) (6, 2.24690954391638997301e-01) (7, 6.59276393379506515657e+01) (8, -1.11149335811041840572e+01) (9, 2.04769544240654799427e-01) (10, 2.28289304247981036933e-02) (11, 3.19575873927682774234e-01) (12, 1.50000000000000000000e+03) (13, 1.31032847635467373237e+01) (14, 3.42115369476864661369e-01) (15, -6.21532200685904534510e-01) (16, 3.20144623139622108710e-02) (17, -7.65988358843768923911e-01) (18, -1.42926209775531560808e+01) (19, 4.60048219703973332306e-02) (20, 1.50000000000000000000e+03) (21, -4.94136395889214341537e+00) (22, 1.91674367092900005405e-01) (23, 1.15923334863438784394e-04) (24, 3.21968299211450384445e-02) (25, 2.04016869826702018642e+00) (26, -4.18112216439957995462e-01) (27, 4.24893617523177336004e-01) (28, 7.78843001627862130398e-01) (29, -5.09302519664269870425e-01) (30, 1.50000000000000000000e+03) (31, -5.36032230068178572324e-02) (32, 1.50000000000000000000e+03) (33, 1.06703346958876357786e-01) (34, -7.80397990011112430153e+00) (35, 6.37489930143227689907e-02) (36, 4.97194834957528541963e+00) (37, -8.98498105628053989058e-01) (38, -1.99641664118395101291e+00) (39, -5.43226921278196939191e-01) (40, -3.23445069227922210597e-01) (41, -9.47902780945609180208e+00) (42, 3.93621652875053555931e+01) (43, -4.73042319366412211679e+00) (44, 2.05679115213018404162e-01) (45, 3.46650689645190343557e-02) (46, 1.46699642731228552250e+00) (47, -6.72145310138405061018e-01) (48, 1.57087663254199871865e+00) (49, 6.53006820545774644415e+01) (50, 1.16225025991050845420e+01) (51, -4.51286808463298783067e+01) (52, 1.49806329701696627765e+00) (53, -2.62092265606454155602e+01) (54, 9.15710331813303912707e-02) (55, 1.54258286158320934156e-01) (56, 7.00607471615623644823e-01) (57, 7.60059241085384140746e-01) (58, 8.51387801321208614880e-01) (59, -7.42120828744220230322e-03) (60, -4.95125289770726451088e-01) (61, 1.99195713319938988439e-01) (62, 1.00289639826338566886e-01) (0, 6.98912185584382061876e-01) (1, 5.96530057225640675256e-01) (2, 5.47221592048992455659e-01) (3, 9.07211059284034893047e-01) (4, 6.98475596019095812395e-01) (5, 5.01101793348361246316e-01) (6, -1.78713596277144892710e-01) (7, 9.32077396649799050365e-01) (8, -3.63736121312653384874e-02) (9, 7.84429234860350987901e-01) (10, 4.42768391181653619970e-01) (11, 6.15206343952776069095e-01) (12, 1.50000000000000000000e+03) (13, -3.22800323285138501817e+00) (14, 4.60536319841429009347e-01) (15, -4.17162298746820814355e-01) (16, 4.96090740451453238169e-01) (17, 1.35979106589632414703e+00) (18, 6.89031815372924016927e-01) (19, 5.99090881595756630240e-01) (20, 1.50000000000000000000e+03) (21, 6.30542347231503597094e-01) (22, -3.56905084044085407768e+00) (23, 6.55454969432555434317e-01) (24, 6.07225699748071168216e-01) (25, 8.11350789456783960674e-01) (26, 9.53803655299073849250e-01) (27, 5.85793311253756887602e-01) (28, 1.11241169258292789124e+01) (29, 5.72233323300451846016e-01) (30, 1.50000000000000000000e+03) (31, 5.40076459840424960568e-01) (32, 1.50000000000000000000e+03) (33, 6.32511657192965204288e-01) (34, 1.01031700754853415170e+00) (35, 6.12861239113380862342e-01) (36, -1.08177535996521667627e+00) (37, 1.26210244596461373945e+00) (38, 2.71844945161317053106e+00) (39, 7.43700550802144366713e-01) (40, -4.78628597155484225567e-01) (41, 5.74897385774230773592e-01) (42, 8.46753300367261152459e-01) (43, 6.73990561090518913723e-01) (44, 6.40760103434062533445e-01) (45, 6.04958982227665753584e-01) (46, 6.02903226927432367432e-01) (47, 5.00617608586506501744e-01) (48, 5.37308100578025360505e-01) (49, -3.48115141473146607609e+01) (50, -2.44099243763832379761e-01) (51, 1.14443445143287085841e+01) (52, 1.14081642466439592276e+00) (53, 2.08589511204848232495e+00) (54, 7.39695521986653004021e-01) (55, 6.05266357487362793854e-01) (56, 7.23407303430803505506e-01) (57, 6.80490550438745955830e-02) (58, 5.64731008117805299840e-01) (59, 6.30837438294508001668e-01) (60, 5.77693481085048365919e-01) (61, 5.55110710134391172055e-01) (62, 6.09446377980285891596e-01) (0, -3.05324089419082289609e-01) (1, -1.19245851247088097580e+02) (2, -4.36465476771622618024e-01) (3, -2.28934936880653140179e+02) (4, -1.69453484421889477574e+00) (5, -2.03087129614164751956e-01) (6, -7.94147412019472476175e+00) (7, -6.40533445218553310951e+02) (8, 3.92453663286308653824e+01) (9, 4.86453960647190797317e+02) (10, -2.10526566826305394642e+00) (11, -2.12196204620152401032e-02) (12, 1.50000000000000000000e+03) (13, -1.10793709192029350419e+01) (14, 1.14570833416596188498e-02) (15, 1.50000000000000000000e+03) (16, -3.82769724136456448993e-02) (17, 2.06272568609253609262e-01) (18, -2.05014188938920849381e+00) (19, -3.15567673467229035111e+01) (20, 1.50000000000000000000e+03) (21, -1.66811709558486391813e+01) (22, -7.46652804703704759959e+01) (23, 1.05945831262819353924e+02) (24, -1.90233453179380518350e+01) (25, -5.03587323356181962297e-02) (26, 1.14947710452769857881e+01) (27, 1.67679656572830820815e-01) (28, 4.52457151369423456799e+02) (29, 2.25842583118188429125e+01) (30, 1.50000000000000000000e+03) (31, -4.60575976123895003411e-01) (32, 1.50000000000000000000e+03) (33, 2.04012611498301188462e+00) (34, 6.33422637628632045903e-01) (35, -3.31641328137715185598e-01) (36, -2.80732918546658272163e+00) (37, 2.43890741834500462959e-01) (38, 3.78272450771658252933e+00) (39, 3.96856012243978550913e+00) (40, -7.50283737751591672804e+01) (41, -3.03755060155329601912e+02) (42, 2.60904356228535005968e+00) (43, -6.90259521508289264347e+00) (44, 4.02885292997363309020e-01) (45, 5.35367881146914595392e-02) (46, -7.83926123613037151294e-01) (47, -5.62570165291754326065e-02) (48, 4.79226267959065452828e+01) (49, -6.51631340080420500271e+01) (50, -9.86483902753044761269e-02) (51, 3.54439827441298575650e+02) (52, 1.15173056421571260444e+02) (53, -4.50807300091514036922e+02) (54, 2.40653085050673603007e+01) (55, -8.75737659911394183965e-02) (56, 2.82174992263522883551e-01) (57, -1.35282605090465679609e+00) (58, -2.10542027092308181579e+00) (59, 6.24777959224512735581e-01) (60, -7.20375021922892849746e-02) (61, -1.91282725837596229157e-01) (62, -1.10900367935682198084e-01) (0, 6.30182827067692907796e-01) (1, 4.65893175736699305389e-01) (2, 5.25961487827257156979e-01) (3, 1.50621614496575460862e+02) (4, 5.71887794767078072589e-01) (5, 3.87599525117748477943e-01) (6, 1.97555216308151260218e-01) (7, 8.08485829004420679667e+01) (8, -2.66250352191072581221e+00) (9, 5.66068467095301119940e-01) (10, 4.53832742164616942393e-01) (11, 4.14452267384032846387e-01) (12, 1.50000000000000000000e+03) (13, -3.05387982412352343431e+00) (14, 4.76609701759897530504e-01) (15, 2.90739501780083620108e-01) (16, 4.31556494153316427820e-01) (17, 3.43487267209754376651e+00) (18, 5.98629270160109916432e-01) (19, 4.27758616194158114432e-01) (20, 1.50000000000000000000e+03) (21, 5.79037113079860721321e-01) (22, -5.31779533225498202142e-01) (23, 6.79592541054390708588e-01) (24, 5.87483511446007855561e-01) (25, 8.59095802855926349295e-01) (26, 8.50787461670939437752e-01) (27, 4.91913177618943986413e-01) (28, 1.59070031831403952083e+02) (29, 4.83291407431778285986e-01) (30, 1.50000000000000000000e+03) (31, 5.42102022225597113270e-01) (32, 1.50000000000000000000e+03) (33, 5.15889060948336863888e-01) (34, 7.25379976179881369447e-01) (35, 3.91882826352402902081e-01) (36, 5.95970105683693053555e-03) (37, 2.24676769605886050840e+00) (38, 2.20449508003277960810e+00) (39, 1.12460423361705275092e+00) (40, -4.43521995236705116050e-02) (41, 1.26377335845930197783e-02) (42, 5.18429686525699540134e-01) (43, 4.44930669631115049967e-01) (44, 3.88629855655600320308e-01) (45, 4.24403351168823161910e-01) (46, 3.90890427540136697893e-01) (47, 4.71945565594324933922e-01) (48, 5.54430945650468576247e-01) (49, -1.70638255377823000458e+01) (50, -4.84327677298642289561e-01) (51, 9.26960789052560052426e+00) (52, 7.56465094996881082245e-01) (53, 1.03726660706163102077e+02) (54, 6.31768445727730054706e-01) (55, 4.07209106866393000246e-01) (56, 5.68899825153426186297e-01) (57, 4.88464971462364228039e-01) (58, 5.66993680841187064345e-01) (59, 3.84705388952758964294e-01) (60, 4.37595330505808455257e-01) (61, 5.80360767034789892804e-01) (62, 5.29775958165905613839e-01) (0, 1.11589751023580291411e-01) (1, -5.67521769627056249519e-01) (2, -8.26269401498336414358e-02) (3, -1.07973417172057910562e+01) (4, 1.21793150016603346497e-01) (5, -1.35447777210701947315e-01) (6, -1.66645862347090911726e+00) (7, 1.75856766199272023243e+01) (8, 1.37602372800601902014e+01) (9, 2.81546274166537280337e+00) (10, -2.05733772258264924204e+00) (11, -2.29029324227894376387e-01) (12, 1.50000000000000000000e+03) (13, -7.19235144934979686582e+00) (14, -1.68535762689646179124e-01) (15, 3.53859759855870592560e+00) (16, -2.23502425065892851297e-01) (17, 3.08836582064244202783e+00) (18, 2.41226782499430539297e-02) (19, 1.01219869678134122282e+00) (20, 1.50000000000000000000e+03) (21, -1.19377334624925390827e-01) (22, -5.91158659763562788214e+00) (23, -6.49544207258891725942e-01) (24, -8.16187659134305465436e-01) (25, 1.08486972912127721536e-01) (26, 2.37206138039525660233e+00) (27, -1.43578584957105792608e-01) (28, 8.54643629219399869612e+00) (29, -8.27829849564508668536e-02) (30, 1.50000000000000000000e+03) (31, 1.07611182466001195634e-01) (32, 1.50000000000000000000e+03) (33, 1.98381285426517811610e-01) (34, 3.81271629862412475553e-01) (35, -1.61161918193628184159e-01) (36, 1.36635946865563688846e+01) (37, -4.21925431471667986005e-02) (38, 3.33049006081714171756e+00) (39, -3.70554488328708742095e-02) (40, -4.14833486949930332344e+01) (41, 5.41596706454197107661e-01) (42, -3.98870649617306186063e-02) (43, -9.65072355891723049348e-02) (44, -1.85132308513801413508e-01) (45, -6.29781356856709828573e-02) (46, -5.75132307638810055805e-02) (47, -1.98050247563114456550e-01) (48, -3.58535351361906617917e-02) (49, -3.28234010562600033722e+01) (50, -3.46051738007404408037e+00) (51, 1.38062453893550589612e+01) (52, 7.70419341823537662250e-01) (53, -6.11008558723484718200e+00) (54, 4.93891427572505786747e-02) (55, -1.07067639923462298857e-01) (56, -1.38063218559436370197e-02) (57, -1.95928637767874586073e-01) (58, -4.58744168321036926983e-01) (59, 4.96560871173755552510e-02) (60, 1.12846952564031374061e-02) (61, -3.89001390816812286921e-01) (62, -1.81471871375270155102e-01) (0, 4.03523826709295485582e-01) (1, 5.34854945370841150520e+00) (2, -1.48364389506692151421e+00) (3, -1.58760147675968568137e+02) (4, 2.65691822931468368818e-01) (5, 2.40327207628419137198e-01) (6, 6.83074492900231255987e-01) (7, -3.48853288429302949680e+02) (8, 1.56842460502257208255e+00) (9, 7.09390335887159911854e-02) (10, 4.25147283454127999924e-01) (11, 3.73005438518286658311e-01) (12, 1.50000000000000000000e+03) (13, -2.21968245874311165267e+01) (14, 7.43005562461288127096e-01) (15, -7.52297539801431880413e-01) (16, 3.92692386764519008047e-01) (17, -4.52912922526930827871e-01) (18, 3.28420541670664201117e-01) (19, 2.20016424739620825024e-01) (20, 1.50000000000000000000e+03) (21, 1.62321060376600184716e-01) (22, 1.10273427092525833082e+00) (23, 6.62964984743475871376e-01) (24, -3.93485790103986626809e-02) (25, 3.27316313492697119614e+00) (26, 3.18515908439854611434e-01) (27, 2.80903067018490215645e-01) (28, 4.52166680188278569119e+00) (29, 4.27473217966075569318e-01) (30, 1.50000000000000000000e+03) (31, 2.86393751326918355460e-01) (32, 1.50000000000000000000e+03) (33, 2.29667534989313026905e-01) (34, 1.23091435382512423558e-01) (35, 5.67354536577976742429e-01) (36, 3.74550071312146792835e+00) (37, 1.27390501057948402064e+00) (38, -6.14873103469141479849e-01) (39, 4.07308547303708401444e+00) (40, -5.63949216754949578245e-01) (41, -1.85455811511994772545e+00) (42, 2.08161986203245099603e+01) (43, 8.94477783962801739626e-03) (44, 2.95699622207878154434e-01) (45, 3.54642662346481396529e-01) (46, 2.52658496454234438033e-01) (47, -7.79454154146468969344e+00) (48, 4.62170126970233186015e-01) (49, 1.12224712961919195209e+01) (50, 6.03586402096811913687e-01) (51, -3.17129564970441668592e+00) (52, 3.35118182779459206078e-01) (53, 6.78373721642806404297e-01) (54, 3.28281701373003220734e-01) (55, 3.14186244466095110361e-01) (56, 1.40225627410412045926e+00) (57, 8.26422137957991798096e-01) (58, 4.90192759399122823805e-01) (59, 1.21072690122190262940e+00) (60, 3.58063607331982169946e-01) (61, -5.70004958857820431817e-01) (62, 2.56294413558487255145e-01) (0, 6.41882091243931252045e-01) (1, 6.27564786678415531540e-01) (2, 5.89131641445682197045e-01) (3, 8.98073218589189425920e-01) (4, 7.45137848083553766543e-01) (5, 5.22963301648044831538e-01) (6, -2.08224432882883336848e-01) (7, 1.10681989381107275250e+01) (8, -3.63236972828171289507e+01) (9, 1.27183900064267252361e+00) (10, 2.65825287014927080786e-01) (11, 4.90476867439629038437e-01) (12, 1.50000000000000000000e+03) (13, -2.86860695134634902104e+00) (14, 4.37613465598912565468e-01) (15, -5.93594943906839866976e-01) (16, 6.29420240199665137482e-01) (17, 1.75204631677774926857e+01) (18, 6.28571099059765714401e-01) (19, -3.82092848242826743643e-01) (20, 1.50000000000000000000e+03) (21, 4.86215977034387847322e-01) (22, -5.34265863602375185026e-02) (23, 6.61530385899901984814e-01) (24, -3.12703009916931495837e+00) (25, 7.10360863094370298398e-01) (26, -6.84044464943784680244e-01) (27, 4.67667310495330390552e-01) (28, 1.92279861716102047353e+01) (29, 6.89332513251462497550e-01) (30, 1.50000000000000000000e+03) (31, 5.45901364955874379703e-01) (32, 1.50000000000000000000e+03) (33, 6.83213599698700879692e-01) (34, 1.28934738699607653878e+00) (35, 5.63350246649282238032e-01) (36, -4.71638960492741302066e-02) (37, 1.28313345410595047724e+00) (38, 2.31250223282031530658e+00) (39, 6.51025317250800483748e-01) (40, -4.81741811506541384169e-01) (41, -5.58078625507168690767e-01) (42, 6.06624651587154395393e-01) (43, 6.66623284699378260143e-01) (44, 5.38476845767605127868e-01) (45, 6.74325012695177528066e-01) (46, 6.38068148487210939912e-01) (47, 5.47041825118610769429e-01) (48, 5.19177630474185747289e-01) (49, -1.86730360798148140589e+01) (50, -9.83006745805233839164e-02) (51, 1.79271941030478991763e+01) (52, 8.55031044679593454916e-01) (53, 4.77838481794464353669e+00) (54, 8.21084335330991899049e-01) (55, 5.72779750017576083643e-01) (56, 5.18004753911167514779e-01) (57, 1.91663018897885928382e+00) (58, 5.90754251630772997395e-01) (59, 6.16050522927698351872e-01) (60, 6.13920826149532028460e-01) (61, 4.38299384012670989463e-01) (62, 6.48669228338462078298e-01) (0, 1.01579816085654875413e-01) (1, -4.19829396890267270148e-01) (2, -6.76165246728845370505e-02) (3, 5.13518559346508585151e+00) (4, 3.67913035000389576634e-01) (5, -8.40887739458080901711e-02) (6, -6.01967385052886938546e-01) (7, 1.40935791939423804564e+01) (8, 4.51234222352104552556e+01) (9, 6.85620577620830751187e+00) (10, -2.11879404007465854676e+00) (11, -7.76495486024787462398e-02) (12, 1.50000000000000000000e+03) (13, -2.92759398044882512835e+00) (14, -1.09408616884383563111e-02) (15, -7.13668353190376869577e+00) (16, -3.59001072428671297310e-02) (17, 4.45611743244285719356e+02) (18, 6.23982406180361959258e+00) (19, 2.16998788178664359094e+00) (20, 1.50000000000000000000e+03) (21, -1.01218928672235322641e-01) (22, -1.73241684093680099465e+01) (23, 1.28175141931406710860e+00) (24, 6.63850968745581804242e-01) (25, 1.47009794185029046831e-01) (26, 7.15440754055290906166e+00) (27, -1.05193631593156936010e-01) (28, 7.40493392811247197471e+00) (29, 1.37647695557335314476e+00) (30, 1.50000000000000000000e+03) (31, 7.92786061218752502455e-01) (32, 1.50000000000000000000e+03) (33, 2.84090900990330852416e-02) (34, 2.59050550977346061288e+00) (35, -1.54882874372540502161e-01) (36, 1.40045666202197907069e+01) (37, -1.91133379062731423303e-01) (38, 5.77299077280205685803e-01) (39, 3.73608083698201906553e-02) (40, -5.99228634454873230197e+01) (41, 8.23055194362369491046e+00) (42, 1.52127516711453598247e-02) (43, -1.20714151229037155999e-01) (44, -1.02513261340294759005e-01) (45, -1.94944060725507101184e-01) (46, -1.52451619023515366758e-01) (47, -5.15281968699576389814e-02) (48, 6.84819286266200033531e-03) (49, -1.24015440917282694500e+03) (50, -7.59321222551037844362e-01) (51, 5.60134029207016368446e+01) (52, 2.64986446750397419692e+00) (53, -5.11688302533341357048e+01) (54, 5.11654357817915905748e-01) (55, -1.10289816089402720189e-01) (56, -1.07110705935163030844e+00) (57, -2.77427126816752800398e-01) (58, -2.01217337889277370078e-01) (59, -2.67260377296975049077e+00) (60, 2.25850348052993821213e+00) (61, -8.96516753527310389371e-02) (62, -2.05042096240170751420e-01) (0, 2.33154045932127962359e-01) (1, -4.89624277615401337638e-01) (2, -5.60688394546329904600e-01) (3, -2.43875755071829969367e+00) (4, -8.66691309278991295351e-02) (5, -4.77920932966474809600e-01) (6, -1.39331125460493976398e+00) (7, 1.48598525502109413132e+00) (8, -7.31026158878698062438e+00) (9, 1.29414551818400291872e+00) (10, -6.77786012664591486221e-01) (11, -5.16720944256101821779e-01) (12, 1.50000000000000000000e+03) (13, -9.53232405584939357368e+00) (14, -5.26350422366221870618e-01) (15, -1.07696032002782593473e+00) (16, -4.09153578859314248639e-01) (17, 1.20217501229207979208e+01) (18, -2.01975477508015782702e-01) (19, 1.22071214808124639539e+00) (20, 1.50000000000000000000e+03) (21, -4.08284810693163358053e-01) (22, -4.32258628503823771894e+00) (23, -2.39663018132294125540e-01) (24, -2.15029322023781599427e+00) (25, 1.07786132655604341424e-01) (26, 7.27178173162520646855e+00) (27, -5.13891166678454802685e-01) (28, 4.67152089258678149264e+00) (29, 1.43570929662274471283e-01) (30, 1.50000000000000000000e+03) (31, -1.97082196551274735352e-01) (32, 1.50000000000000000000e+03) (33, 1.67545593837931355852e-01) (34, 3.24160699537728991260e+00) (35, -5.06974913386836756324e-01) (36, -4.66823494075320155616e+00) (37, -2.47843063735085356036e-01) (38, 1.12831371043246573294e+01) (39, 4.47174198637301678616e-01) (40, 3.71540415606374352375e-01) (41, -6.83638367126695456477e-02) (42, -4.54301168314933723202e-01) (43, -5.35493199754766280307e-01) (44, -5.30503616874516858992e-01) (45, -5.51815425763807931858e-01) (46, -4.62881256611599456452e-01) (47, -5.78536441781533405937e-01) (48, -1.94346959346614667208e-01) (49, -7.96652511043547235658e+01) (50, -1.38711901089486433492e+00) (51, 7.33417783362630473221e+01) (52, 2.22555260374652741362e+00) (53, -2.10060529216034552746e+00) (54, -2.47838794588884026027e-01) (55, -4.13078211480354118290e-01) (56, -3.10681790459596207654e-01) (57, -1.04183258873117434717e+00) (58, -7.51015306704444385311e-01) (59, -4.80484813449024605880e-01) (60, -5.25075879835707914900e-01) (61, -4.77545519463715983921e-01) (62, -5.09529490501594239937e-01) (0, 1.21183645036176512733e+00) (1, 8.64978451778595114341e-01) (2, 8.40625434622579770227e-01) (3, 2.56917554117578950112e+00) (4, 1.22715258570002005989e+00) (5, 8.07623389192726248709e-01) (6, -8.67738055188642221083e-01) (7, 1.59219003642313472469e+00) (8, -1.96052279648574390158e+00) (9, 5.36120113308422308052e+00) (10, 4.90042380282982914519e-01) (11, 8.43731139829190013302e-01) (12, 1.50000000000000000000e+03) (13, -9.81372651024202546921e+00) (14, 7.96113677156833565718e-01) (15, -5.54501550045695568159e-01) (16, 7.38987545834563164249e-01) (17, 3.61383275350272636928e+00) (18, 9.88177231560254720755e-01) (19, 1.29124939826316742497e+00) (20, 1.50000000000000000000e+03) (21, 8.61495601932015353519e-01) (22, -2.05510133994695323167e+01) (23, 8.24350962873120152175e-01) (24, 7.71466981338364110599e-01) (25, 1.32235077119502109078e+00) (26, 2.06805492823951997394e+00) (27, 8.11941031694035086907e-01) (28, 1.13668927413413207717e+01) (29, 1.01658854731564418650e+00) (30, 1.50000000000000000000e+03) (31, 8.96482458646794655444e-01) (32, 1.50000000000000000000e+03) (33, 9.24020068297631058662e-01) (34, 1.53225193305356910400e+00) (35, 7.40143543886892185668e-01) (36, 3.01006303032361000049e+00) (37, 2.42867925061448763913e+00) (38, 2.85484542142893227279e+00) (39, 1.43187173364027220401e+00) (40, -1.19802809332723714242e+00) (41, 6.15009039765299525548e-01) (42, 8.63271049039603388664e-01) (43, 7.12127468166252053372e-01) (44, 7.84948179571317461445e-01) (45, 9.05504227828417995738e-01) (46, 7.44980981654967178152e-01) (47, 8.13329574107349295709e-01) (48, 9.41423209491912604818e-01) (49, -2.03081950689683765177e+02) (50, -8.99718405570809176552e-01) (51, 3.67455098141553904156e+01) (52, 2.37868101317063285194e+00) (53, -1.08317489496971997021e+00) (54, 1.04327044844987537608e+00) (55, 7.82286928801089964658e-01) (56, 9.56195095865996491646e-01) (57, 4.08151301077761152758e-01) (58, 6.11987679558901431776e-01) (59, 1.08216055999915816699e+00) (60, 9.56339034431940127057e-01) (61, 6.44374556683579458038e-01) (62, 8.82693176936908185937e-01) (0, 9.42673968274427287461e-01) (1, 5.80320961318417483099e-01) (2, 5.93618040314102146660e-01) (3, 3.58455528169497625868e+01) (4, 7.43310772020143395444e-01) (5, 3.87564185283527262715e-01) (6, -9.27641499174785444382e-01) (7, 3.56642859719801030849e+00) (8, 4.79551958097350894406e+00) (9, 1.52719728845954372254e+00) (10, 3.97268332367768983726e-01) (11, 6.22488467801371347932e-01) (12, 1.50000000000000000000e+03) (13, -6.71501911449266675191e+00) (14, 4.34021841879183911672e-01) (15, -2.67943018265715426907e+00) (16, 6.99201160539257293713e-01) (17, 1.16960937858526143884e+01) (18, 7.21539925419527161665e-01) (19, 9.33408439789523258767e-01) (20, 1.50000000000000000000e+03) (21, 4.10934528492033268599e-01) (22, -2.28509014132144834264e+01) (23, 8.43924819098142875440e-01) (24, 4.97071459286954009382e-01) (25, 9.94105810881633078502e-01) (26, 3.53166990979773265380e+00) (27, 5.70175625088176429855e-01) (28, 4.35504291268214682731e+00) (29, 7.88764525982362463274e-01) (30, 1.50000000000000000000e+03) (31, 7.67087802533247598014e-01) (32, 1.50000000000000000000e+03) (33, 7.10576573921873344553e-01) (34, 1.99901745444775169602e+00) (35, 2.61233864881009525405e-01) (36, -5.95516020164932990966e-01) (37, 4.56030086969180636913e+00) (38, 1.26590251799239279507e+01) (39, 6.33594916272401054158e-01) (40, -7.24291375427265626818e-01) (41, 7.04123441172708336433e-02) (42, 3.48638892637616826242e-01) (43, 5.92129834650533704021e-01) (44, 5.33398493341718515914e-01) (45, 6.58940164487451740527e-01) (46, 3.06826206146158464438e-01) (47, 7.22254286267508427422e-01) (48, 6.26095078083674039249e-01) (49, -2.05274192113646904545e+02) (50, -3.96468255434720640018e-01) (51, 3.33047095783870119590e+01) (52, 8.07604629569085741281e-01) (53, 1.33382547454544386767e+01) (54, 9.12288142561200054992e-01) (55, 5.22441705148935620073e-01) (56, 6.91365089747690064748e-01) (57, 2.29156978422997398281e-01) (58, 2.47833225569032353230e-02) (59, 3.06651802495004288662e-01) (60, 6.16370433377844917366e-01) (61, 4.76050817186290775584e-01) (62, 6.65004116678535428520e-01) (0, 4.14283177803936997208e+00) (1, -3.78714768913029729447e+02) (2, -9.99515339595043184051e-02) (3, -1.38657991260273706757e+03) (4, 4.61827010793046832671e-01) (5, 5.65894363284216717069e-02) (6, 5.34066309333097777312e+01) (7, -2.16592831793180835120e+02) (8, -1.87024889618859226914e+01) (9, 5.61294544978566012361e+00) (10, 2.31261812258238023607e-03) (11, 1.60786449070876774625e-01) (12, 1.50000000000000000000e+03) (13, 4.66351405887362204794e+01) (14, -7.28855606228573232874e-02) (15, -3.79776480128740923092e+00) (16, 7.65595108068289481595e-02) (17, 1.23709364370656316190e+00) (18, -9.23122912875449785908e-01) (19, 1.68820841186096572528e+02) (20, 1.50000000000000000000e+03) (21, -1.44416138599138662357e+02) (22, 2.00631895418106748208e-01) (23, 1.98776559338882407246e+02) (24, -3.13566513520533440840e+01) (25, -1.41188719461861694526e+02) (26, -9.85598678124787426214e+01) (27, 3.16033888522015415923e-01) (28, -4.73719116384754386218e+01) (29, 2.39297385583381450047e+00) (30, 1.50000000000000000000e+03) (31, -4.56870095679395571420e-01) (32, 1.50000000000000000000e+03) (33, 1.13856750532366057804e+00) (34, 4.87401606181985513899e+00) (35, 1.10625503803895880450e-01) (36, -3.03313735470513368142e+00) (37, 3.07217554793137237468e+00) (38, -5.62945905541506519398e+01) (39, 1.30560007515667901856e+01) (40, 2.60925876698327705583e+01) (41, 2.03499585531708675035e+02) (42, 8.40057466384444637697e+02) (43, -1.14166990109086921024e+01) (44, 2.43780575770752072629e-01) (45, -5.26358584153375913539e-02) (46, -4.95547105834150819481e-02) (47, -4.08108745906565650863e-01) (48, 1.23874212235963021556e+00) (49, 1.49040558676328055299e+03) (50, -4.17470496718323091923e-01) (51, 9.19815539401546118370e+01) (52, 1.45410203746037822725e+01) (53, 4.60210609328918394567e+02) (54, 4.62767177497533585551e-02) (55, 2.01188945903126081838e-01) (56, 3.82074314046419394320e-01) (57, 4.20647914622995067191e+00) (58, -1.32449572266952725341e-01) (59, -3.73189541357207765770e+00) (60, 2.63045542022171119356e-01) (61, -9.58876625991266529070e+00) (62, 6.85993875064410257858e-02) (0, -1.57401238326040848747e+00) (1, 3.31488064968992968140e-01) (2, 4.22889648529509998287e-01) (3, 1.33289851930502067923e+00) (4, 7.10494502045849407601e-01) (5, 3.79250736602960825117e-01) (6, -1.50384548194306355562e+00) (7, 4.60055045535775963828e+00) (8, -5.60768700552560436789e-02) (9, -5.53343397685053560053e+02) (10, -3.18338537632853217474e+02) (11, 5.09607116507264978900e-01) (12, 1.50000000000000000000e+03) (13, -6.65695089734585963015e+01) (14, 2.47064908336238425735e-01) (15, 3.81712023966902393113e+02) (16, 4.70885948198301540479e-01) (17, 4.51982117456056613491e+01) (18, 5.86884175213496894763e-01) (19, -3.84272613231732918848e+02) (20, 1.50000000000000000000e+03) (21, 5.72192756964901461103e-01) (22, -6.04887098963590497114e-01) (23, 9.08108093574340746734e-01) (24, 3.18124053177119225921e-01) (25, -9.69653226856907224374e+01) (26, -1.27376691722360710912e+01) (27, 5.24893681652523591552e-01) (28, 7.33890746261056303723e+00) (29, 5.74787454629415717200e-01) (30, 1.50000000000000000000e+03) (31, 4.36681633635507326918e-01) (32, 1.50000000000000000000e+03) (33, 5.34944514342163945919e-01) (34, 6.36653351493003327732e+00) (35, 5.43845092038977795390e-01) (36, 1.70966705665944185277e+00) (37, 2.04103506320806760144e+00) (38, 4.40119680701840465531e+00) (39, 3.16057439826972819130e-01) (40, 3.78316995515115506166e+00) (41, 1.49181846441400800529e+00) (42, 1.82678618563048843271e+02) (43, 5.47549357593781982345e-01) (44, 4.75311079321093898908e-01) (45, 4.95745060191201347699e-01) (46, -9.53537477839003777547e-01) (47, 6.23053417126416708705e-01) (48, 3.45573366931583358941e-01) (49, -2.95058252926298735019e+02) (50, -4.86342543353171369303e-02) (51, 7.35335579460322463774e+01) (52, 8.87454963622317682947e-01) (53, 4.78983246465389029822e+01) (54, 1.57116799814612972952e+00) (55, 4.47320413274946648841e-01) (56, 2.79418833881479755643e-01) (57, -6.30816475652235642002e+00) (58, -1.95106906331580509661e-01) (59, 1.15686523153822468091e-01) (60, 1.03154312988294138975e+00) (61, 1.52126040571981824279e+00) (62, 5.76033224289641765381e-01) (0, 6.57174294804315883844e-01) (1, 3.39473210493844657076e-01) (2, 4.27707763576329225153e-01) (3, 6.91063998127922829440e+00) (4, 1.03297466059595377530e+00) (5, 5.07062427497898982054e-01) (6, 1.68442158111374029605e-01) (7, 1.37890159827122449343e+00) (8, -8.16648922867947817394e+01) (9, 7.46214627222176019039e-01) (10, -1.35074860581625166844e+00) (11, 4.51082989198858752555e-01) (12, 1.50000000000000000000e+03) (13, -1.36002761062687538285e+00) (14, 1.74011795389140438983e-01) (15, -3.09396873924257640454e+01) (16, 3.82297414669548252242e-01) (17, 1.28132957792958919185e+01) (18, 7.28698802004664414333e-01) (19, -2.78840197861514354827e+02) (20, 1.50000000000000000000e+03) (21, 5.81084398260527490443e-01) (22, -3.69340683270226355361e+00) (23, 1.22023907820614176956e+01) (24, 5.82869069169461684332e-01) (25, -8.06308063456244639156e+00) (26, -4.88978249038549517280e+00) (27, 4.54946572935111037683e-01) (28, 2.78765808299205453125e+00) (29, 4.70754248598507507584e-01) (30, 1.50000000000000000000e+03) (31, 5.01637538651521164290e-01) (32, 1.50000000000000000000e+03) (33, 5.24527447710062100228e-01) (34, 1.09499157006916414403e+00) (35, 5.47038650506815327113e-01) (36, -4.13466904085404785008e+00) (37, 1.09856219871706572988e+00) (38, 1.87218709283235940077e+00) (39, 1.03469498338820842243e+00) (40, -9.08813017249224697203e-01) (41, 7.94892192545869047393e+00) (42, 3.01854651981924559934e+00) (43, 4.93918902372386947608e-01) (44, 4.21222431096512861526e-01) (45, 5.62208447224896046279e-01) (46, -7.79501682957258634765e-01) (47, 1.14846954427995395775e+00) (48, 4.86201236503889910878e-01) (49, -1.48745533968548784287e+03) (50, -2.98456721310310548745e+01) (51, 7.38178610445564657994e+01) (52, 8.14290740139548052667e-01) (53, 1.65905537266178697564e+02) (54, 2.83258211034571196762e+01) (55, 4.35495407898005615355e-01) (56, 6.21398940419601308882e-01) (57, -7.58200919579211096710e-01) (58, 9.19832706636752539531e-01) (59, 6.13671981715975256577e-01) (60, 7.05645763045457896645e-01) (61, 6.24605697587640729118e-01) (62, 4.64409843037504266317e-01) (0, 1.20569501791670674606e+00) (1, -2.22215417773119071398e+02) (2, -4.46878842914930130004e-01) (3, -1.52637637916782669123e+01) (4, 5.25669182221864428328e-01) (5, 2.28340976782522228627e-02) (6, 1.39397721099487864604e-01) (7, -8.30958834145995297149e+02) (8, 4.54421687559922702349e+01) (9, 1.05989021264284222212e+01) (10, 5.98054531846136938622e-02) (11, 9.99864632612658121857e-02) (12, 1.50000000000000000000e+03) (13, 6.86303440876585657549e+00) (14, 2.36852530177275089063e-01) (15, 7.50150765284634069019e+00) (16, 9.24771550359683031095e-02) (17, 5.92754819445240777043e+00) (18, 1.18363818879940393969e-01) (19, 1.20261330074171908677e+02) (20, 1.50000000000000000000e+03) (21, -1.78354205682227622276e+01) (22, 9.70194004444794172448e-02) (23, 1.43480922455998314291e+01) (24, 9.22229855493718986281e+00) (25, -5.59401047184164057491e-01) (26, 4.48864224571721326384e+00) (27, 2.79967254546198140996e-01) (28, 6.04495296736560749906e+00) (29, 4.13867653080451614045e+00) (30, 1.50000000000000000000e+03) (31, 3.79914093867880720001e-01) (32, 1.50000000000000000000e+03) (33, 2.56742920927285844801e-01) (34, 2.37525056247911248164e+00) (35, 2.40979006757861269339e-02) (36, -8.56328620706109333582e+00) (37, 6.49584004545133764097e-01) (38, -6.58517134606104370675e+00) (39, 2.72793123041644314242e+00) (40, -3.14238664574715542699e+00) (41, 1.19604053463637227672e+00) (42, 6.87535147045669816634e+01) (43, -8.26224471630101398034e+00) (44, 2.73132137025334287284e-01) (45, 8.90200318994912032089e-02) (46, -2.42774647429902304396e-02) (47, -2.69377684527010607951e-01) (48, -1.63361980981766841126e+00) (49, 2.10173409851304057838e+02) (50, -8.63874183294571440506e-01) (51, 4.75831740129479044299e+02) (52, 4.65733640873251530934e+00) (53, 2.56015568416926271311e+02) (54, 2.29597065048175674740e-01) (55, 1.08933467987501926555e-02) (56, 2.30437017273740302192e-01) (57, -1.00933580670408229452e+00) (58, 1.66837735880745241523e-01) (59, 2.00017837231496575789e-01) (60, 1.15962044068131597818e+00) (61, 1.14571201689815521663e-01) (62, 7.22562620686919600266e-03) (0, 4.75846058052469655930e-01) (1, 2.92601639161095716801e-01) (2, 2.77486067113549561558e-01) (3, 3.95524686829845872893e+00) (4, 5.83570355675860574785e-01) (5, 3.74583100917532885177e-01) (6, -3.15064830324596700795e-01) (7, 6.24760676983721396915e-01) (8, 4.56674846656622002161e-01) (9, 2.20523070644057783696e+00) (10, 2.12075130615560658587e-01) (11, 4.10191001991792036918e-01) (12, 1.50000000000000000000e+03) (13, -4.14644289258097131778e+00) (14, 2.27578691650251241363e-01) (15, -2.34917375929442028004e-02) (16, 2.76963700731967576996e-01) (17, 7.20613365272265937733e-01) (18, 3.54342581570185222173e-01) (19, 6.28291803631577661093e-01) (20, 1.50000000000000000000e+03) (21, 3.07360293454667421464e-01) (22, -8.65188000248921440516e+00) (23, 4.53090600884851701924e-01) (24, 4.41895550294880923303e-01) (25, 4.16105976663053989117e-01) (26, 1.08978876885373665573e+00) (27, 3.93425468789672438952e-01) (28, 4.79207215309575396134e+00) (29, 3.35328041111314922862e-01) (30, 1.50000000000000000000e+03) (31, 4.08105519639495262219e-01) (32, 1.50000000000000000000e+03) (33, 3.39256818134593240988e-01) (34, 6.91923447789049794743e-01) (35, 4.13985835959076731161e-01) (36, 1.34907623255878861279e+00) (37, 1.13396179848957578962e+00) (38, 1.97284162982346789050e+00) (39, 5.71945097095191701264e-01) (40, -1.28295695152736133338e+00) (41, -4.28618641010548084846e-01) (42, 4.97195033627880422777e-01) (43, 3.37519059622239103735e-01) (44, 2.84989346444678881554e-01) (45, 3.89881047357632015693e-01) (46, 4.41899424282606867465e-01) (47, 3.28206251743365373663e-01) (48, 3.92312209848680704116e-01) (49, -8.44755785064977402499e+01) (50, -4.52824685240204805048e-01) (51, 1.74803754944333284982e+01) (52, 1.07040021578981470185e+00) (53, -4.36522060237218401113e-01) (54, 4.43459024361373244094e-01) (55, 3.87745248340707893142e-01) (56, 4.35607133967897575122e-01) (57, 2.53145463286968235017e-02) (58, 2.52569406759639625282e-01) (59, 3.54911467507701083868e-01) (60, 4.31061714571175258470e-01) (61, 2.18898054895949295551e-01) (62, 4.31751006043793850164e-01) (0, 7.86977307775895362774e-01) (1, 5.88823734837607415393e-01) (2, 5.06229367850993816624e-01) (3, 2.41557973683073834437e+00) (4, 6.44890750333697693186e-01) (5, 4.61729095259290900355e-01) (6, -1.16295695735731757781e-01) (7, 7.55311044101152462282e-01) (8, -1.97753311916542307003e+00) (9, 9.96132544000602027090e-01) (10, 4.06665499261829821442e-01) (11, 4.59594932997110239281e-01) (12, 1.50000000000000000000e+03) (13, -2.60077285382784761936e+00) (14, 4.12771657860766305603e-01) (15, 3.55296004971290213525e-01) (16, 6.01446522566024821543e-01) (17, 2.52264515554790991203e+00) (18, 6.79354575410716199357e-01) (19, 3.21155887503847936593e-01) (20, 1.50000000000000000000e+03) (21, 5.11208825570624303403e-01) (22, -3.67971284466612091890e+00) (23, 5.42463971604817629668e-01) (24, 3.29345968659233268028e-01) (25, 9.30668201579420539815e-01) (26, 6.82658465228823008175e-01) (27, 6.30825886180851225227e-01) (28, 5.48402725892178022349e+00) (29, 6.76746423385416573382e-01) (30, 1.50000000000000000000e+03) (31, 6.07738617936357861105e-01) (32, 1.50000000000000000000e+03) (33, 5.16596922760857668599e-01) (34, 8.82857209513772556164e-01) (35, 4.44624424303485921151e-01) (36, -9.06675370073218162004e-02) (37, 1.20080013372713900743e+00) (38, 2.64755354715263679921e+00) (39, 8.96216007092427990877e-01) (40, -1.12588204863543706047e+00) (41, 5.08539967062722531033e-01) (42, 6.28083601193265006479e-01) (43, 5.37739900182202967827e-01) (44, 5.92786403399190087171e-01) (45, 6.29758382343441613926e-01) (46, 5.85587531994460674944e-01) (47, 5.71961795001655337600e-01) (48, 5.02000650924610769543e-01) (49, -8.13713595296746490249e+01) (50, -3.82691986638275360999e-01) (51, 1.44794627378847007293e+01) (52, 9.10831835094673247788e-01) (53, 4.14726693318965944357e-01) (54, 7.10625654992029565094e-01) (55, 5.40436906077781276103e-01) (56, 5.45991709467921748633e-01) (57, 3.16778811350784172962e-01) (58, 5.19397112870538024687e-01) (59, 4.88585299860017918672e-01) (60, 6.93071822613610111219e-01) (61, 4.46674593716588796966e-01) (62, 5.86077204843165944226e-01) (0, 1.24730273296018334683e+00) (1, 4.64147512068792900131e-01) (2, 5.06531049613125561315e-01) (3, 1.56381556066211366840e+01) (4, 1.59887062571741656036e+00) (5, 4.75285325525930113510e-01) (6, -3.19327148645586733622e+00) (7, 4.53458595795291952157e+00) (8, 8.90367088848279669699e-02) (9, 1.38853736729271481920e+00) (10, -1.53825070602252533813e-01) (11, 2.63169104743167237004e-01) (12, 1.50000000000000000000e+03) (13, -9.90111967208808962937e+00) (14, 4.88707531037400222385e-01) (15, -1.83342614726981789630e+00) (16, 3.36156452657686843910e-01) (17, 7.17111556900355484601e+00) (18, 5.23572936111613373988e-01) (19, 2.49486348424182935446e+00) (20, 1.50000000000000000000e+03) (21, 3.48943147058095481938e-01) (22, -5.27743922272325463041e+01) (23, 5.11689965046981720675e-01) (24, 2.45490154954005251886e-01) (25, 9.82929179677245024038e-01) (26, 3.60151922335324048419e+00) (27, 6.68143308564036364494e-01) (28, 8.41819094408655388406e+00) (29, 8.38139059154258347917e-01) (30, 1.50000000000000000000e+03) (31, 8.09820989305673477610e-01) (32, 1.50000000000000000000e+03) (33, 7.33640653855625046731e-01) (34, 2.04009489020621481714e+00) (35, 1.67047808434342498485e-01) (36, 2.75282691553407499185e+00) (37, 4.60627340305402022125e+00) (38, 5.26675893968302943904e+00) (39, 1.70808258673783663895e+00) (40, -8.66062703126546828969e+00) (41, 1.82700700924068482056e-01) (42, 5.23511336386771497509e-01) (43, 3.71279172886022579281e-01) (44, 7.02844205488024398321e-01) (45, 6.01876307405155186459e-01) (46, 4.63439026156851618943e-01) (47, 5.14876271903568105692e-01) (48, 6.54331111039843205113e-01) (49, -4.25749695092480862968e+02) (50, -9.47785555679807778517e+00) (51, 8.88709664831157937215e+01) (52, 2.16342023725521848121e+00) (53, -1.18958493605390458470e+00) (54, 7.11368488515567110042e-01) (55, 5.42125579819168201823e-01) (56, 8.96899807387063985331e-01) (57, -6.88408327702645372881e-02) (58, 9.96058097407478276741e-02) (59, 9.25363853026702654070e-01) (60, 7.35825300681703486916e-01) (61, 3.61798257195144690179e-01) (62, 5.07438530542384302890e-01) (0, 2.88788824640930918974e+00) (1, -3.44621591549718218062e+01) (2, -5.42481673764241070779e-02) (3, -3.89548092986018275496e+02) (4, 5.98065158415058917285e-01) (5, 1.07793161887258334697e-01) (6, 4.43156321411301068469e-01) (7, 1.12127840044737240532e+02) (8, 1.59855873104723116285e+02) (9, 6.19853406799448780617e+00) (10, 5.68960079163573079208e-02) (11, 8.75334739305022313527e-02) (12, 1.50000000000000000000e+03) (13, 3.00879137773699367742e+00) (14, 2.59640882709917641957e-01) (15, -1.49925466003944779914e+03) (16, 4.13587678721277010596e-02) (17, 2.76539094683043851219e+00) (18, 1.85939824235170636513e+00) (19, 1.23080994458336370201e+01) (20, 1.50000000000000000000e+03) (21, -1.24622069783582336555e+01) (22, 2.10172353237263270787e-01) (23, 1.30896599431854436801e+01) (24, -6.05701040657408107393e+00) (25, 7.69234424785523174251e-02) (26, 1.95646707554748400248e+00) (27, 6.57297327501828593244e-02) (28, 4.01831418309856616133e+01) (29, 1.82043739006190063989e+00) (30, 1.50000000000000000000e+03) (31, -1.09950760949260573085e+00) (32, 1.50000000000000000000e+03) (33, 1.13706410492089821096e-01) (34, 3.16297114631782005922e-01) (35, 3.87458015952642925717e-02) (36, -7.53633283536063345309e+01) (37, 6.61343842688061234192e-01) (38, -4.86430697655204991037e+00) (39, 1.21593981865815781163e+00) (40, 1.27444880547277676897e+01) (41, 1.56026573898144942376e+01) (42, 5.82505752519558370750e+01) (43, -2.85637931679827561382e+00) (44, 1.45638490172753959362e-01) (45, -4.40170551307191779133e-02) (46, 2.04462394148093098978e-02) (47, -4.69544434376904895601e+00) (48, -1.87199834434428713514e+00) (49, -5.65679608093622832143e+01) (50, -2.22898286719291960356e-01) (51, 2.12382231467323151719e+02) (52, 2.59458932005954565625e+01) (53, 1.27679350157796534404e+03) (54, 4.86685764985848728914e-02) (55, 1.03947948231029749233e-01) (56, 1.67886612443143312667e+00) (57, -1.88300601102149345323e+00) (58, 7.08560503282996273500e-02) (59, 8.47282395623997963696e+00) (60, 3.61600148202653759455e+00) (61, 2.91344781862568735775e-01) (62, 4.69010223949481372396e-02) (0, 5.22012499543169916638e-02) (1, -2.56087479135349072035e-01) (2, -3.61698444984571432226e-01) (3, 5.16121900044021142406e-01) (4, -1.78923120407613739369e-01) (5, -2.80978142654867923955e-01) (6, -7.84900468252094141164e-01) (7, -1.62592151481178170958e-01) (8, 1.00082429946578121971e+00) (9, 1.63644174767242778223e+00) (10, -3.27314885732880866964e-01) (11, -4.04585179933379557315e-01) (12, 1.50000000000000000000e+03) (13, -3.96520992026339680336e+00) (14, -2.25593912293387016677e-01) (15, -3.19932685823791529423e-01) (16, -3.34815688924358700884e-01) (17, 1.11198728768878507545e+00) (18, -1.76367967300250227947e-01) (19, 1.41310327626791937261e-01) (20, 1.50000000000000000000e+03) (21, -2.14142527231343166028e-01) (22, -1.83762440686645311949e+00) (23, -1.12193151941216470724e-01) (24, -2.04042527318927602309e+00) (25, 6.01126338337451965321e-02) (26, 4.03609558258557932220e+00) (27, -2.25362427943161108823e-01) (28, 3.00664209301692153531e+00) (29, 7.41294101277952810491e-02) (30, 1.50000000000000000000e+03) (31, -1.49803487678910579595e-01) (32, 1.50000000000000000000e+03) (33, 3.64513252626344833041e-02) (34, 4.08205612210137513962e-01) (35, -3.16308831629449394018e-01) (36, -2.56973087421674373232e+00) (37, -1.40016957207543701891e-01) (38, 4.84828421458272629252e+00) (39, 8.99508216588765646682e-02) (40, 1.61391223555654550470e-01) (41, -9.10834955963614745222e-02) (42, -2.20150053513139931649e-01) (43, -2.74109400562155824943e-01) (44, -3.17078602177076784852e-01) (45, -2.74692003854915045569e-01) (46, -3.65136204837503253184e-01) (47, -2.47832500690051887871e-01) (48, -1.53360942406054689968e-01) (49, -3.38340869936575074917e+01) (50, -6.86506474827624280088e-01) (51, 2.37309342889344812022e+01) (52, 1.16618114841043252206e+00) (53, -9.35585811812225887074e-01) (54, -1.89748330821985472516e-01) (55, -3.22821591054105738738e-01) (56, -1.91652155415959396523e-01) (57, -4.66339617378087989419e-01) (58, -3.93783208654729599552e-01) (59, -2.98568449719822603949e-01) (60, -2.19881926429813301382e-01) (61, -3.21340086530134960707e-01) (62, -3.32536098029124982389e-01) (0, -8.00502820968313488770e-02) (1, -2.20028190488837482874e+00) (2, -1.05825868519072871510e-01) (3, -1.18586200338309470936e+01) (4, 3.47851557852594302916e-03) (5, -1.84242604754344257989e-01) (6, -1.51780913858297039631e+00) (7, 4.32655694805734114539e+01) (8, 2.09419220312643687976e+02) (9, 2.95322469346253413391e+00) (10, -2.30733708577949370166e+00) (11, -2.58842569886431395076e-01) (12, 1.50000000000000000000e+03) (13, -8.63960827197472092109e+00) (14, -1.40453451098629583660e-01) (15, 2.41857488503172675109e+02) (16, -1.47889955623932173312e-01) (17, 1.72483391936758501117e+00) (18, -3.50155086796549233630e-02) (19, 6.68311345969794801114e-01) (20, 1.50000000000000000000e+03) (21, -1.68690279205483101288e-01) (22, -1.41554689598824392505e+01) (23, -6.92816969309159813584e-01) (24, -2.06751045070060834874e+00) (25, -8.39372643615207553180e-02) (26, 2.29335018456096095818e+00) (27, -1.55964851279745353452e-01) (28, 1.70075022491412681802e+01) (29, -2.24482604539200325533e-01) (30, 1.50000000000000000000e+03) (31, 6.32375504337820554257e-02) (32, 1.50000000000000000000e+03) (33, 7.64724153443542692399e-02) (34, 3.88120452245721558882e-01) (35, -2.31694139318511210801e-01) (36, 1.32927338762909030834e+01) (37, -3.00671870997485102261e-01) (38, 2.11850490193676987971e+00) (39, -1.59622177956913219310e-01) (40, -4.05722351233339111332e+01) (41, 5.57895423583729233030e-01) (42, 8.89328928762140313857e-02) (43, -2.10488161616576296975e-01) (44, -1.65766027102464824639e-02) (45, -5.60968476280026689951e-02) (46, -5.29198305479744585123e-02) (47, -1.53998569024572318220e-01) (48, -6.53224676530343804221e-03) (49, -3.29307992751714095903e+01) (50, -1.65854624999553856846e+00) (51, 1.81649779260346555532e+01) (52, 1.70742932133163605180e+00) (53, -7.41886609816656061867e+00) (54, 3.46108921947908987349e-01) (55, -1.19778294087946754476e-01) (56, -1.35211560960700749590e-01) (57, -2.47437306986115879148e-01) (58, -3.41518619729989703071e-01) (59, 1.86032301402514303745e-02) (60, -1.44125491131405131240e-01) (61, -1.95614869267122237773e-01) (62, -2.25865686569379081616e-01) (0, 3.83011618114729390783e-01) (1, 3.62319570001054358510e-01) (2, 3.17080483872748730700e-01) (3, 2.86487917504149649517e+01) (4, 4.03129776982435572563e-01) (5, 2.81198356972187590852e-01) (6, -1.40321257012464650771e+00) (7, 6.13765122747228986100e+01) (8, -1.60468688675927673160e-01) (9, 2.97517740746007941510e+00) (10, -6.22687719761676108238e-03) (11, 2.85689917430506257201e-01) (12, 1.50000000000000000000e+03) (13, -2.78519561360885203882e+00) (14, 2.47722978021480022548e-01) (15, -3.13611961464503652408e-01) (16, 3.35058923832648403174e-01) (17, 8.35611537447555008384e+00) (18, 3.95495677748872287438e-01) (19, -1.19838808911420335868e+00) (20, 1.50000000000000000000e+03) (21, 3.42083452374807861496e-01) (22, -9.96965036059533993296e+00) (23, 2.52411235559269420126e-01) (24, -3.25233664405014311072e+00) (25, 1.14943104644347593446e-01) (26, 6.79378242015319822045e-01) (27, 3.37429797157648370121e-01) (28, 2.59959198141821712369e+00) (29, 4.23435728069215755465e-01) (30, 1.50000000000000000000e+03) (31, 2.16770184513119634762e-01) (32, 1.50000000000000000000e+03) (33, 3.50625821223055689213e-01) (34, 9.93492034715632965636e-01) (35, 3.31884121391747666241e-01) (36, 5.82370080358260544529e-01) (37, 1.91668510835189809249e+00) (38, 2.31948245330105118356e+00) (39, 5.99069905397052626661e-01) (40, -3.26508366030112817668e+00) (41, -3.20624235928661738271e+00) (42, 3.04404169745017438853e-01) (43, 1.20410497214516409858e-01) (44, 3.18303139081058894533e-01) (45, 2.00158121650768794364e-01) (46, 2.39461112327973846270e-01) (47, 3.16807699604329640053e-01) (48, 1.65797599674617851528e-01) (49, -3.88581639581566804509e+01) (50, -4.73620403769967890373e-01) (51, 3.91752966069652259762e+01) (52, 9.99793212239644679684e-01) (53, 4.65183259587112996059e+00) (54, 1.94114649447825837747e+00) (55, 3.12815379013930916496e-01) (56, 7.52083961999509276186e-02) (57, 8.09167014059123723690e-01) (58, 2.73484672434542025465e-02) (59, 3.28434125328357584550e-01) (60, 3.42300059453298832768e-01) (61, 1.47377469414577272344e-01) (62, 3.58906043065881474874e-01) (0, -1.99875607920488834734e-01) (1, -1.52515874788786458538e+01) (2, -6.96216981123977673995e-01) (3, -1.34899342117676610542e+02) (4, 1.95043184397962554577e+00) (5, -9.99938815769412792100e-02) (6, 3.36300161120884411048e+00) (7, -3.43685433868141165803e+00) (8, 1.62444841445940369340e+02) (9, 1.35339429031022753236e+01) (10, -2.20153973534214797425e+00) (11, -2.45921400942984452742e-01) (12, 1.50000000000000000000e+03) (13, -2.60889366138014100471e+00) (14, -1.12721414891145968462e-01) (15, -1.85270692757907866621e+01) (16, -8.31572676245748848567e-02) (17, 2.86216176756718398977e+00) (18, -1.61290252124863836558e-01) (19, 1.97863528947781226464e+01) (20, 1.50000000000000000000e+03) (21, -8.64483378853579953471e-02) (22, -2.96426647959344116146e+01) (23, 2.97996212972809404462e+00) (24, 1.38823938187267126310e+00) (25, 2.77800091384951652884e-01) (26, 1.91283370362159854672e+00) (27, 1.37128754602779713567e-02) (28, 3.30852751512430387493e+01) (29, -1.92481571391700745366e-01) (30, 1.50000000000000000000e+03) (31, 1.21276002903670784838e-01) (32, 1.50000000000000000000e+03) (33, 6.39316949260635203345e-01) (34, 1.73634102206692553239e+00) (35, -2.71336984830592486961e-01) (36, 1.66242069048608485105e+01) (37, -6.61831609030168577235e-01) (38, -2.77640079106293902189e-01) (39, -3.53775712065651296023e-02) (40, -4.54616261410144275601e+01) (41, 1.26023007973913774293e+01) (42, 5.10865921350397322875e-01) (43, -1.46649082083952803091e-01) (44, 1.91635049226461684491e-01) (45, -6.68547803296052484123e-02) (46, -1.43787583308638999835e-01) (47, -6.13870359634064791110e-02) (48, 1.63338640292943870769e+00) (49, -3.11268050208527959910e+01) (50, -1.07121483877246159722e+00) (51, 5.95750042971040159046e+01) (52, 4.04048613423317881654e+00) (53, -7.72913933320202062305e+01) (54, 1.56458360108814509282e+00) (55, -7.11511900513913664312e-02) (56, 7.38655141189414443659e-01) (57, 2.12549379742579119812e-02) (58, -3.10565258409298161624e+00) (59, 5.27552021161932005455e-01) (60, -9.80809179116243490260e-02) (61, 2.54270856390050904727e-02) (62, -1.94600652506588894797e-01) (0, -7.53700629688075143938e-05) (1, -1.48665297648571892442e-01) (2, -6.15568117076412679722e-02) (3, -1.86640337211290696651e+00) (4, 1.29034719860375207690e-01) (5, -6.22402014451296295428e-02) (6, -1.38340807835961587813e+00) (7, 1.54883630435878210108e+01) (8, -1.68294305086497217872e+01) (9, 2.72025971810792643879e+00) (10, -9.71668010977098095537e-01) (11, -1.80021409109679342286e-01) (12, 1.50000000000000000000e+03) (13, -7.03436722985831508481e+00) (14, -1.34937173901595902636e-01) (15, -8.39797460648759264146e-01) (16, -6.00296729392885003440e-02) (17, 8.18403133037913010916e-01) (18, -1.04867824331147677097e-01) (19, 9.11013443784657428459e-01) (20, 1.50000000000000000000e+03) (21, -7.34368142745869811883e-02) (22, -6.04176475601440188257e+00) (23, 2.58821193282049895334e-02) (24, -1.02718750236469991144e+00) (25, 3.74652930523386218375e-01) (26, 2.36815800560830780341e+00) (27, -1.13163839920218611823e-01) (28, 8.43512229981617878138e+00) (29, -1.88671409272854161132e-02) (30, 1.50000000000000000000e+03) (31, 6.72540079223045150769e-02) (32, 1.50000000000000000000e+03) (33, 1.39805392124744770621e-01) (34, 2.78560122751509542383e-01) (35, -2.16213031681598527589e-01) (36, 4.35477055447026195623e+00) (37, 1.92722381819636551237e-01) (38, 1.00495256611463079643e+00) (39, -1.54951474016749857210e-01) (40, -2.35794492232379830909e+01) (41, 1.35061469540188106020e-01) (42, -3.10469865547056749974e-03) (43, -1.01471578963889863534e-01) (44, -1.75215685862314007881e-01) (45, -1.96572276435029447139e-01) (46, -1.70791601544775822896e-01) (47, -2.23268497748365740696e-01) (48, 4.16578337509270792138e-03) (49, -1.37208642399469855633e+01) (50, -1.54034659761829417768e+00) (51, 1.39242602510859274645e+01) (52, 2.61603896156542503615e-01) (53, -6.60017665420367283247e+00) (54, 9.04546339109258967781e-02) (55, -4.59672660269883695539e-02) (56, 6.07518883129788862807e-03) (57, -3.30083259309284782201e-01) (58, -2.68267451101783516165e-01) (59, 1.66075463870750117401e-01) (60, -1.74881133254756654383e-01) (61, -3.73731172180265858174e-01) (62, -1.71693713547654280838e-01) (0, 9.56077757420571994196e-01) (1, 5.59911858946524287894e-01) (2, 6.20425599695752949536e-01) (3, 3.75321252489248934125e+02) (4, 9.86119838418729188767e-01) (5, 6.93762464910814835584e-01) (6, -3.45653366681365570301e+00) (7, 7.51723332342097876335e+01) (8, 7.75173018893211742547e-03) (9, 2.84056259072354100326e+00) (10, 4.45824230341364424746e-01) (11, 5.77145096601086704524e-01) (12, 1.50000000000000000000e+03) (13, -8.00138499362905442069e+00) (14, 6.54711049821281920735e-01) (15, -8.09421720085923723786e-01) (16, 6.23668938090346847147e-01) (17, 5.30800033196441134464e+00) (18, 5.48420618808781901166e-01) (19, 1.16824426240733125759e+00) (20, 1.50000000000000000000e+03) (21, 4.01461053413123825084e-01) (22, -2.08879470985530559801e+01) (23, 4.23589233299022871471e-01) (24, 4.31287179336045933820e-01) (25, 1.02145935212524641145e+00) (26, 1.83864962649594487765e+00) (27, 6.12158566662290515303e-01) (28, 2.22894123773369621233e+01) (29, 7.71819075306491964028e-01) (30, 1.50000000000000000000e+03) (31, 7.03502464329517018804e-01) (32, 1.50000000000000000000e+03) (33, 6.82483512993758090204e-01) (34, 1.28649300242592512511e+00) (35, 5.14782382276819161504e-01) (36, 2.57067300061047943061e+00) (37, 4.71709120616166099893e+00) (38, 7.19265926117474041490e+00) (39, 1.87411335258546851712e+00) (40, -7.51770227474698682357e+00) (41, -5.29762182954482252484e+00) (42, 6.39253258064619966916e-01) (43, 3.63626990952530537715e-01) (44, 6.92395150012329874123e-01) (45, 5.56960548753064887961e-01) (46, 5.83551124838410539830e-01) (47, 6.02081023019904626459e-01) (48, 6.12298979212350436008e-01) (49, -1.96023642148689987152e+02) (50, -1.69266682295073223052e+00) (51, 3.13551972035722243959e+01) (52, 2.12717017839482158692e+00) (53, -3.56488333392333078820e+00) (54, 1.42236080768229333771e+00) (55, 5.16039563769916886926e-01) (56, 5.55192941298316422483e-01) (57, 1.15778408084278194856e-01) (58, 1.46032868175051868537e-02) (59, 7.35367863278475031308e-01) (60, 7.98599877536999125383e-01) (61, 3.64838818229360151157e-01) (62, 6.84245551228058079829e-01) (0, 2.16760089683813390593e+01) (1, -1.52764106526561164401e+02) (2, -1.82636773143730446467e-01) (3, -2.35231418625420303670e+02) (4, 3.63306663949537367309e-01) (5, 3.24806401310890224821e-01) (6, 2.21872856890244252170e+00) (7, -4.73291914961759587754e+01) (8, 5.44643117518763659746e+01) (9, -3.29240707738310067754e+00) (10, 1.30150559449084157748e-01) (11, 3.59616459222582951494e-01) (12, 1.50000000000000000000e+03) (13, -1.18493964138611236336e+01) (14, -6.60996230323566025255e-01) (15, -2.12518471743396730744e+02) (16, 1.09552412882592792309e-01) (17, 1.47003172513222346574e+00) (18, 1.23897829255353197908e+00) (19, 9.99230708324781957685e+00) (20, 1.50000000000000000000e+03) (21, -9.37441816561783269890e+00) (22, -9.95346951812714131336e+00) (23, 1.35920753043857960307e+01) (24, 6.68530934478034133406e+00) (25, -3.69236905014658987056e+01) (26, 1.42390161334863241116e+00) (27, 3.34310125025686008526e-02) (28, -9.78298679493261431617e+01) (29, 9.67845294260129662689e-01) (30, 1.50000000000000000000e+03) (31, 6.25208438502083296839e-01) (32, 1.50000000000000000000e+03) (33, 7.35033000714736650671e-01) (34, 2.80598988411542604737e+00) (35, 5.28960315358649527107e-02) (36, 1.42753433775499161129e+01) (37, 1.36525116313705474624e+00) (38, -1.47964592812064199556e-01) (39, 7.91622299485776448336e+00) (40, -3.18509785773338158776e+01) (41, 4.88431292880655121280e+01) (42, 2.32423981790269174041e+01) (43, -7.39895993423841424885e+00) (44, 1.51705097911757041951e-01) (45, 4.54356975870566018316e-02) (46, -3.87837196487251928412e-02) (47, -5.09368441967933960335e-02) (48, -4.58051364883138045769e+00) (49, -7.10260853818868476139e+00) (50, -4.16627624517821715244e+00) (51, 5.12858479079080353813e+00) (52, -1.60272562493702878328e+02) (53, 4.81618266899999696307e+01) (54, 1.77893252335276447207e-01) (55, 2.64653970565045422447e-02) (56, 3.02288976193764113987e+00) (57, 2.41570671818166360367e+00) (58, -3.66394213829947468231e-01) (59, -4.65972277659625877533e+00) (60, 4.79606014739201391706e-01) (61, 2.19719898783763811778e+00) (62, 5.04616720535640272960e-02) (0, 6.58941136171002916910e-01) (1, 6.13847920613526443212e-01) (2, 6.67784001473564092777e-01) (3, 6.97172886263945645879e+00) (4, 7.18278281475415725232e-01) (5, 4.07830014318349642899e-01) (6, 2.17814237374791275226e-01) (7, 3.59823968793054191906e+01) (8, -2.15822809704219986671e+00) (9, 4.86245917972996044565e-01) (10, 4.06416299507092126930e-01) (11, 5.66581153233319367857e-01) (12, 1.50000000000000000000e+03) (13, -1.61728462371220005345e+00) (14, 4.84372569244285344769e-01) (15, 3.51725719757315202774e-01) (16, 5.43672063343211942055e-01) (17, 3.01745549183184955666e+01) (18, 7.19957537531093039185e-01) (19, 4.66412759607703730769e-01) (20, 1.50000000000000000000e+03) (21, 4.94337678717619022351e-01) (22, -3.67789949183989439696e-01) (23, 6.46919947005424544884e-01) (24, 4.97490544166318993113e-01) (25, 7.78243500581560554430e-01) (26, 6.54603624971401676369e-01) (27, 5.79867832841812202993e-01) (28, 1.48865952655043773944e+01) (29, 4.43900524408349039795e-01) (30, 1.50000000000000000000e+03) (31, 4.60865229699448264444e-01) (32, 1.50000000000000000000e+03) (33, 4.21890940100852651629e-01) (34, 7.93397160551225444358e-01) (35, 4.04415249493252693114e-01) (36, 1.11005643253755115207e-01) (37, 1.09935085742432869793e+00) (38, 1.81553625085076553169e+00) (39, 9.47172128662793544329e-01) (40, -4.34017976126048962704e-02) (41, 3.59640793005765790902e-01) (42, 3.76617406009278454793e-01) (43, 6.28849796861570276008e-01) (44, 5.38251729727569516726e-01) (45, 5.70761615470609107170e-01) (46, 5.55264236717029624479e-01) (47, 6.56661870926016910666e-01) (48, 3.55322438523452965864e-01) (49, -8.81881098210792302439e+00) (50, -1.51971779973191695179e-01) (51, 1.08159450858508883186e+01) (52, 7.91029501814957125561e-01) (53, 7.20345228660726633052e+00) (54, 7.10652383152359456986e-01) (55, 5.69118037678618127195e-01) (56, 6.26011333908403688753e-01) (57, 4.66351443573740531701e-01) (58, 5.36217785557513537675e-01) (59, 6.49904786275972368159e-01) (60, 5.48718027214471049113e-01) (61, 5.98154703481947547239e-01) (62, 5.67193520244778204287e-01) (0, 7.69087929122965530127e-01) (1, 6.29505909447599876216e-01) (2, 6.51885427047061094541e-01) (3, 1.34719321512646814654e+02) (4, 6.03968788833614045330e-01) (5, 5.79443560862328288508e-01) (6, 8.74429554668789410510e-02) (7, 1.47992566254274553472e+01) (8, -1.20896182641187996398e-01) (9, 6.48258172951745037516e-01) (10, 4.17334049631274350833e-01) (11, 5.44754136272882938385e-01) (12, 1.50000000000000000000e+03) (13, 1.77419324141203926803e-01) (14, 4.62444534980194887908e-01) (15, 5.53583366651739794406e-01) (16, 5.68346711869651799454e-01) (17, 5.42303667613737339082e+00) (18, 6.65038852681210546081e-01) (19, 5.91281495125428713244e-01) (20, 1.50000000000000000000e+03) (21, 5.96411858593341670520e-01) (22, -6.87891810677851656131e-01) (23, 6.69922197398180929717e-01) (24, 5.41985022774556846059e-01) (25, 1.07802508995177159790e+00) (26, 7.58833217790909619893e-01) (27, 4.87446019352030468497e-01) (28, 1.99491608948486103259e+01) (29, 5.11918438684545118456e-01) (30, 1.50000000000000000000e+03) (31, 6.61595268317320850393e-01) (32, 1.50000000000000000000e+03) (33, 6.41670705680810860017e-01) (34, 8.24863472030468058982e-01) (35, 4.44410683220711255625e-01) (36, 3.33302387281884049397e-01) (37, 2.27363634848768558783e+00) (38, 2.06234640516031930702e+00) (39, 1.08424304659281944829e+00) (40, 3.19048752782925770788e-01) (41, -7.98193122749699807139e-02) (42, 6.53898711866989001962e-01) (43, 6.30385092710103678293e-01) (44, 5.98235805663942077359e-01) (45, 5.37384203212121880355e-01) (46, 5.32638997730685681553e-01) (47, 5.40210582053944565750e-01) (48, 4.97459434185775040138e-01) (49, -1.69195241505930304982e+01) (50, -3.21970965914013640408e-01) (51, 1.12203855503558944662e+01) (52, 8.14032487510266911102e-01) (53, 3.98929197266370882957e+00) (54, 7.42260298677389185329e-01) (55, 5.43195933233376226923e-01) (56, 4.79666505409890642220e-01) (57, 4.32794181254820775617e-01) (58, 5.60714804933779342733e-01) (59, 3.66607227095158028085e-01) (60, 5.55131916490118837437e-01) (61, 6.08765719423994378090e-01) (62, 6.20409758350848883346e-01) (0, 8.40890650985874787970e-01) (1, 5.47988312398601795650e-01) (2, 6.39030936133630045326e-01) (3, 1.19232081491985342225e+00) (4, 7.92237565456928249930e-01) (5, 4.01859260008544050269e-01) (6, 2.29606322193217693428e-01) (7, 4.08631955889727738196e+00) (8, -2.65796806164544072715e+01) (9, 8.09152669256923529062e-01) (10, 1.38363349443451660870e-01) (11, 6.48665573924453453536e-01) (12, 1.50000000000000000000e+03) (13, 6.57785463481200167735e+01) (14, 2.32297758438170853790e-01) (15, 5.99096343218690985388e-01) (16, 5.80351309499501089029e-01) (17, 1.50323486898156968294e+01) (18, 7.63950994871846589263e-01) (19, -4.73727778842421720640e+00) (20, 1.50000000000000000000e+03) (21, 5.88709180743670845715e-01) (22, -3.13452836430485548558e-01) (23, 6.68396874349167058327e-01) (24, 3.01822535644747480532e-01) (25, -6.23885972516915376929e+00) (26, -1.82420948915819503000e-01) (27, 5.60802847216050226464e-01) (28, 5.01389672159798038820e+01) (29, 5.41783525642194008221e-01) (30, 1.50000000000000000000e+03) (31, 6.03512527372365381595e-01) (32, 1.50000000000000000000e+03) (33, 5.72726171678388129571e-01) (34, 1.16398749963712000444e+00) (35, 5.08851720088594139391e-01) (36, -4.05692220110499934815e-01) (37, 1.66533881969333208417e+00) (38, 2.28743578577484552028e+00) (39, 6.79414827067665205718e-01) (40, -5.50953630316988074433e-01) (41, 2.96271101112445811587e-01) (42, 4.93557765910787982211e-01) (43, 5.11850988464136569256e-01) (44, 5.83708593204427028667e-01) (45, 5.67097083702237880765e-01) (46, 5.21315147557235958331e-01) (47, 5.55911979733150429794e-01) (48, 5.08674579348660338418e-01) (49, -5.45064502905537384692e+00) (50, -1.66622165080465012288e+00) (51, 2.14607022695706177728e+01) (52, 8.74684240314551497697e-01) (53, 1.46374170005947679130e+01) (54, 1.23635373925767177994e+00) (55, 4.62781262711036145419e-01) (56, 6.26560093764162218122e-01) (57, 2.15651958325352399726e+00) (58, 6.35457886407454375366e-01) (59, 4.47910606103777475528e-01) (60, 6.84312433302997957796e-01) (61, 5.09284869542339868609e-01) (62, 6.15449152833845491983e-01) (0, 5.56833108480490612813e-02) (1, -3.94725134925022036469e-01) (2, -2.04486092579039574479e-01) (3, -8.62273230847812044431e+00) (4, 6.39394985730959430903e-02) (5, -2.40966919071781610073e-01) (6, -1.39315491509691979921e+00) (7, 1.54739235400629802086e+01) (8, -1.68340038831902383265e+01) (9, 2.85148615005559769031e+00) (10, -9.83542526903386615800e-01) (11, -1.34123118899592108644e-01) (12, 1.50000000000000000000e+03) (13, -7.19833975031760964214e+00) (14, -8.05289654045585751030e-02) (15, 3.10387190224648668035e+00) (16, -1.31108591543850044880e-01) (17, 3.08778431264760877539e+00) (18, -1.31618525092958016387e-02) (19, 1.59674611842140956597e+00) (20, 1.50000000000000000000e+03) (21, -9.84316269583644931629e-02) (22, -5.96923564979219634097e+00) (23, -1.68355684223202073380e-01) (24, -2.18061236725488338806e+00) (25, -5.01179718341572266738e-02) (26, 2.36951001173987796378e+00) (27, -5.72915802928743722600e-02) (28, 8.45023819163140998967e+00) (29, -9.31907821815600723170e-02) (30, 1.50000000000000000000e+03) (31, 1.49292165213162436599e-01) (32, 1.50000000000000000000e+03) (33, 1.73845549814716782144e-01) (34, 5.67010973356136260826e-01) (35, -2.09056633677316527908e-01) (36, 4.42001004769924410454e+00) (37, -1.37795664856496330453e-01) (38, 1.52474740235855099613e+00) (39, -1.30956025218747579286e-01) (40, -3.50500737823709229701e+01) (41, 1.53634360787190532571e-01) (42, -1.29476018979856721813e-01) (43, -1.19659966831224179318e-01) (44, -1.34365255773451708343e-01) (45, -6.90681890585308905228e-02) (46, -1.22101186232058664394e-01) (47, -5.37765224585432591309e-02) (48, -4.31968529699745182326e-02) (49, -1.37952311145952144500e+01) (50, -1.71939698540311169950e+00) (51, 1.01861099936100121255e+01) (52, 8.99421764183212624211e-01) (53, -6.05817386056991757926e+00) (54, 9.82548989837229436173e-02) (55, -1.77135356465132814963e-01) (56, 1.12492798526670975678e-01) (57, -1.97378025579161120451e-01) (58, -3.86875450603984094577e-01) (59, 1.47301384081552719924e-02) (60, -3.88728429744262804491e-02) (61, -2.76968737830854572213e-01) (62, -1.83043451368041232286e-01) (0, 5.86245799514638066263e-02) (1, -1.02606066223374714497e+00) (2, -7.51363226937388217763e-02) (3, -1.08729984688538472426e+01) (4, 1.03018857077199862959e-01) (5, -6.75746825766037756411e-02) (6, -1.63333359110759346322e+00) (7, 1.51576367827840172708e+01) (8, 7.31888629383343101154e+01) (9, 2.68477952451267043443e+00) (10, -2.24488958668106297623e+00) (11, -1.76396366533550813527e-01) (12, 1.50000000000000000000e+03) (13, -7.00415567055133614360e+00) (14, -1.93861722559785232267e-02) (15, 3.65857417575165726475e+01) (16, -1.69709787544330470421e-01) (17, 1.64854368731044420571e+00) (18, -8.20187136441693359634e-02) (19, 1.81910213759404282285e+00) (20, 1.50000000000000000000e+03) (21, -1.90110366821611004307e-01) (22, -6.03977853405101861028e+00) (23, -1.14680984233479887902e-01) (24, -2.26103309992938372730e+00) (25, 3.15485626585933431887e-01) (26, 2.32488700317629026770e+00) (27, -1.40765286441881354307e-01) (28, 8.43279493142804881245e+00) (29, -1.29482666585883005039e-01) (30, 1.50000000000000000000e+03) (31, 1.34188797452279268141e-01) (32, 1.50000000000000000000e+03) (33, 9.97207486831814676753e-02) (34, 3.70144493893376391735e-01) (35, -1.06283910880245482944e-01) (36, 1.36402302529950585352e+01) (37, -2.67733266634472666379e-01) (38, 3.47442998385421653040e+00) (39, -9.95476323016433323199e-02) (40, -4.16161356108400894982e+01) (41, 5.55352762290665658007e-01) (42, -5.09156359242076625438e-02) (43, -9.40880983141122451130e-02) (44, -1.79880295453770960856e-01) (45, -1.30081006651341812841e-01) (46, -2.36362205134628022840e-01) (47, -1.38059405921259231720e-01) (48, 4.11288722874220205594e-02) (49, -3.28935162985226625665e+01) (50, -3.74596154355706767447e+00) (51, 1.39445534043384746781e+01) (52, 8.24707378621497011473e-01) (53, -6.23733302554577573318e+00) (54, 7.24602316338044394328e-02) (55, -1.21236571399483100686e-01) (56, 7.67968615521711223115e-02) (57, -2.10693871373858976348e-01) (58, -4.68117253892848306229e-01) (59, -6.96016714236740666882e-03) (60, -7.03541286106593860561e-02) (61, -1.70056844095576031872e-01) (62, -2.16116708325333861662e-01) (0, 7.64682375558815297101e-02) (1, -3.23296379385863641431e-01) (2, -2.53618463084160639109e-01) (3, -2.58581151021043851301e+01) (4, -7.03518739786477692588e-02) (5, -2.41641156659175765364e-01) (6, -1.50234173661425440827e+00) (7, -5.49202097909501189832e-03) (8, -4.96731855452636850146e+00) (9, 4.96666256325306199049e-01) (10, -4.18871383263245855577e-01) (11, -2.70707400453154667375e-01) (12, 1.50000000000000000000e+03) (13, -9.20824758914946883692e+00) (14, -2.50128264352803331150e-01) (15, -3.41260031605204738892e-01) (16, -2.87197962979120424709e-01) (17, 1.08602745620935992044e+00) (18, -1.25709563940312657460e-01) (19, 4.53735227458976098092e-01) (20, 1.50000000000000000000e+03) (21, -1.91111047360922242655e-01) (22, -1.03601391587222169122e+00) (23, -2.07151017115961844084e-01) (24, -9.03628571332864227728e-01) (25, 2.70522968794369954304e-02) (26, 4.07684668935990934813e+00) (27, -3.92303183067971572573e-01) (28, 3.06118175450864837828e+00) (29, -1.03806850409972117877e-01) (30, 1.50000000000000000000e+03) (31, -2.75288263684079992366e-01) (32, 1.50000000000000000000e+03) (33, -1.34109408302510668687e-01) (34, 1.33905613223627684150e+00) (35, -2.63213263915425876860e-01) (36, -3.36133035085504028316e+00) (37, 2.09688874339926445423e-01) (38, 4.69205668958123300882e+00) (39, 1.34594716745128545332e-01) (40, -3.91118632217706430065e-01) (41, 6.71843061757459558692e-01) (42, -3.07001834120479877299e-01) (43, -2.84603687653572412497e-01) (44, -2.63985023469602397839e-01) (45, -3.51053806110545318919e-01) (46, -2.46812326858422304010e-01) (47, -3.43205311649864397427e-01) (48, -2.28951951089450073118e-01) (49, -3.38658800933589745341e+01) (50, -7.32693354111761729897e-01) (51, 2.37098845054896649742e+01) (52, 3.89216690275462184889e-01) (53, -9.30750588794973299223e-01) (54, -1.81309572276586783435e-01) (55, -2.24677215225187298930e-01) (56, -2.45945568798055042015e-01) (57, -3.86801835275600192077e-01) (58, -2.65736380897315216387e-01) (59, -3.11197646522828497151e-01) (60, -3.51066653407199391612e-01) (61, -1.71254038990182266833e-01) (62, -2.82574351771199772099e-01) (0, 4.54185891668590135950e-01) (1, 3.13240165773979728492e-01) (2, 9.50801395352949690887e-02) (3, 9.98908737107262290067e+00) (4, 4.41557719353027344766e-01) (5, 2.51186412421807558903e-01) (6, -1.39136559341798293765e+00) (7, 1.25506189819434528232e+01) (8, -1.18749980444669833712e-02) (9, 1.05843219562093726616e+00) (10, -1.20857538886692233993e-01) (11, 3.56889807338736375630e-01) (12, 1.50000000000000000000e+03) (13, -4.17412426179871598464e+00) (14, 2.02511750511026128452e-01) (15, -2.33130027419700569524e-01) (16, 2.94195255160994817434e-01) (17, 4.96088775450524543942e+00) (18, 1.74507312788310581242e-01) (19, 3.68223113228707543687e-01) (20, 1.50000000000000000000e+03) (21, 2.00857924739940407743e-01) (22, -2.12126785098161576570e+01) (23, 3.30878356036470200330e-01) (24, -1.18554083632055839992e+00) (25, 3.21949387981624202126e-01) (26, 1.51502868836326864965e+00) (27, 1.83024414173625249447e-01) (28, 3.24763302728511904505e+00) (29, 5.14788223318829785136e-01) (30, 1.50000000000000000000e+03) (31, 3.02722730649107873990e-01) (32, 1.50000000000000000000e+03) (33, 3.73938050512679698301e-01) (34, 8.78635338326042902857e-01) (35, 1.69125651218113903784e-01) (36, 7.57734106183418965053e-01) (37, 1.88301628878613169782e+00) (38, 3.10807441009501150830e+00) (39, 7.00465022690222816060e-01) (40, -3.34111973844918974663e+00) (41, 6.37733067755025029300e-01) (42, 2.56868691609835386735e-01) (43, 1.44970067091431065176e-01) (44, 1.58117768615723769399e-01) (45, 3.48939013256321650669e-01) (46, 2.07469009566926848587e-01) (47, 3.08302069561675662346e-01) (48, 2.99820314741178484130e-01) (49, -8.07349277675183714109e+01) (50, -1.49279314574590538101e+00) (51, 1.31711397750314702648e+01) (52, 8.80937404545985236481e-01) (53, -5.75649890230766847488e-01) (54, 4.10239863459791020972e-01) (55, 3.34727390960659287877e-01) (56, 4.14926985997849773202e-01) (57, 1.12829127232619341736e-01) (58, -6.34582072716588230232e-02) (59, 5.01412414854229715466e-01) (60, 3.69303517696852712238e-01) (61, 2.21567409427245259890e-01) (62, 2.53346267121848212067e-01) (0, 7.24246808520919382879e-01) (1, 5.37990345617738841000e-01) (2, 6.36545070719091166112e-01) (3, 8.30556614026536976780e+00) (4, 7.51417126277230673637e-01) (5, 4.38534216997306713903e-01) (6, -2.13967935621515670253e-01) (7, 9.57222053201863487537e-01) (8, 5.50693485741097221720e-01) (9, 7.28890840285358665440e-01) (10, 4.57200760448595144858e-01) (11, 6.35605726252676306309e-01) (12, 1.50000000000000000000e+03) (13, -3.25948466953899762544e+00) (14, 5.22269809115408545352e-01) (15, 1.51731604656358265437e-01) (16, 6.27945379748009124832e-01) (17, 1.23402526447842331159e+00) (18, 7.63634438644541946317e-01) (19, 6.08420918140114119765e-01) (20, 1.50000000000000000000e+03) (21, 5.94561850734025898468e-01) (22, -1.24225693243547308242e+00) (23, 6.16063649184246497903e-01) (24, 5.49048311647786446699e-01) (25, 8.36377361190482782050e-01) (26, 8.45730521758192854698e-01) (27, 4.99639843256504401214e-01) (28, 1.13488124952809066315e+01) (29, 5.78530355481612579283e-01) (30, 1.50000000000000000000e+03) (31, 7.01876235394373271248e-01) (32, 1.50000000000000000000e+03) (33, 6.00174793135104911457e-01) (34, 8.99605141327434854048e-01) (35, 5.64690812142557563291e-01) (36, 2.17306758814557909876e-01) (37, 1.23105149173227790271e+00) (38, 2.17654145450564673325e+00) (39, 5.69767049327211894116e-01) (40, -4.82285589510369816502e-01) (41, 3.92234927085434115224e-01) (42, 5.38469290269391054338e-01) (43, 5.62836038376676839334e-01) (44, 4.77778935118032710427e-01) (45, 6.47501213840920186726e-01) (46, 6.36035466097493062954e-01) (47, 4.74702157134989533027e-01) (48, 5.24813575752457017742e-01) (49, -8.41983138075292316671e+01) (50, -3.91689778597634374879e-01) (51, 1.38195238895479182162e+01) (52, 8.71114463774713687627e-01) (53, 3.23342275506414633668e+00) (54, 6.74297886932130219328e-01) (55, 6.03013339715875118507e-01) (56, 6.02987661346488179603e-01) (57, 2.04755389835263701404e-01) (58, 4.67108905727509848838e-01) (59, 6.35724655366866397976e-01) (60, 6.35755286159062960039e-01) (61, 5.82893237496068139514e-01) (62, 6.23270948948669301082e-01) (0, 6.10034482848743064842e-01) (1, 5.32532009867321520780e-01) (2, 5.31216694911732179030e-01) (3, 1.49999988019490501756e+03) (4, 7.24433680308775307388e-01) (5, 5.98325241244915373429e-01) (6, 7.37827136085195262050e-02) (7, 1.49987378089298530881e+01) (8, 1.79043050807971271254e+00) (9, 6.87576473518576203325e-01) (10, 4.98569261773604832655e-01) (11, 5.66631827795816778170e-01) (12, 1.50000000000000000000e+03) (13, -2.86680122318593522124e+00) (14, 5.13315061767632307976e-01) (15, 6.88077137608467448437e-01) (16, 5.98267627751789765611e-01) (17, 2.86255739023140387545e+00) (18, 7.70392048843204113595e-01) (19, 7.07474551456407807493e-01) (20, 1.50000000000000000000e+03) (21, 6.17952112443162726585e-01) (22, -1.23398948869867886025e+00) (23, 6.61764798048534164110e-01) (24, 5.77934240436147828035e-01) (25, 8.04807273293911329404e-01) (26, 1.91956091884604451714e+00) (27, 5.06646932448995723774e-01) (28, 1.49855016611635072366e+01) (29, 6.56457798459321395512e-01) (30, 1.50000000000000000000e+03) (31, 6.05725976951687394845e-01) (32, 1.50000000000000000000e+03) (33, 5.76314282773353281364e-01) (34, 8.80022072939077526499e-01) (35, 5.55118216361189964481e-01) (36, 1.06343183289589360285e-01) (37, 1.37894637204061143443e+00) (38, 3.19023693966912613718e+00) (39, 6.78909546623752579997e-01) (40, 4.95502429744972661130e-01) (41, 6.64848232717301756978e-01) (42, 5.42747570486805330781e-01) (43, 6.56390462387130391164e-01) (44, 5.29282865366540233865e-01) (45, 5.84757890015942027873e-01) (46, 6.24465599052732578400e-01) (47, 4.91498481478029436431e-01) (48, 6.49926316446865826038e-01) (49, -3.53342513294267774882e+01) (50, -1.13017587830631605073e+00) (51, 1.25877780255412758947e+01) (52, 8.26085200413440023937e-01) (53, 7.48264300531835431229e+01) (54, 6.40779332220167474610e-01) (55, 5.76935143891564528040e-01) (56, 6.26164643341393878373e-01) (57, 2.06533043262383225747e-01) (58, 6.51232672356025554805e-01) (59, 4.01231174546054836227e-01) (60, 6.28149173807588945273e-01) (61, 4.58453646117289670414e-01) (62, 5.71279938688045385575e-01) (0, 3.86362152104462619473e-01) (1, -3.51698899160569844469e-01) (2, -4.10718174031818650249e-01) (3, -5.17839254890330558112e+00) (4, 2.10155744266978458668e-02) (5, -4.35348584008554695401e-01) (6, -9.22376282449189788260e-01) (7, 3.95607465256443413537e-01) (8, -9.30782402082554760625e+00) (9, 1.85477201065914087952e-01) (10, -6.00810547775321168729e-01) (11, -2.93600637293031485608e-01) (12, 1.50000000000000000000e+03) (13, -5.06519070157031947588e+00) (14, -5.33143577363953791171e-01) (15, -9.09303337793207600015e-01) (16, -3.90726275134521738863e-01) (17, 2.53576213210926830754e+01) (18, -1.99619912270843746782e-01) (19, 4.51080646843942645319e+00) (20, 1.50000000000000000000e+03) (21, -4.87898771114642415547e-01) (22, -2.46426795587154723322e+00) (23, -1.07329132611480776438e-01) (24, -1.20064052667488585513e+00) (25, 2.33403515256074889361e-01) (26, 7.29477640082419664935e+00) (27, -3.31952879194326588852e-01) (28, 3.12337455354584436762e+00) (29, 3.50678266097056823281e-01) (30, 1.50000000000000000000e+03) (31, -2.61856653761660895796e-01) (32, 1.50000000000000000000e+03) (33, 3.05886391727398683493e-02) (34, 3.44934465157545622205e+00) (35, -6.36397274091560216647e-01) (36, -2.64442701350158815288e+00) (37, 4.21801007446426723391e+00) (38, 7.89197348711968693635e+00) (39, 2.15739430387479824702e+00) (40, 4.88551337763157789151e-01) (41, -2.89497266454217139220e-01) (42, -4.05538471161378644148e-01) (43, -4.34701798947798756512e-01) (44, -2.67299023266344581984e-01) (45, -2.95128109622646517263e-01) (46, -4.35332288685913115778e-01) (47, -4.99671016953033786390e-01) (48, -2.98609163886622730466e-01) (49, -7.95640220660722405910e+01) (50, -7.35728096323280511548e-01) (51, 3.86841402079175722406e+01) (52, 1.03914534760154331217e-01) (53, -1.95860969199173706734e+00) (54, -2.02022799775228578678e-01) (55, -2.82763940283530912367e-01) (56, -1.96989852686581201624e-01) (57, -4.06191892244749608309e-01) (58, -6.34727872751017496711e-01) (59, -3.49690023428768370639e-01) (60, -3.29111674783259311461e-01) (61, -4.26418947473852172347e-01) (62, -5.27751382918071443306e-01) (0, 6.29948148387192041753e+00) (1, -7.34366461424790259116e+02) (2, -1.92077277014497671548e-02) (3, -5.43387188802341469795e+01) (4, 6.12293157264986231958e-01) (5, 1.04384958487342707767e-01) (6, -5.53359690005037346827e-02) (7, 3.84390578737431383161e+02) (8, 1.67686011857064372066e+01) (9, 6.58066034902068786039e+00) (10, -3.17888954131068449116e-02) (11, 1.15014046811050610342e-01) (12, 1.50000000000000000000e+03) (13, 6.18078878373088258513e+01) (14, 1.41630310586689039942e-01) (15, -9.51561751750116172843e+02) (16, 1.43971752540565295364e-01) (17, 6.95449132523715718435e+00) (18, 5.82144434450324865793e+00) (19, 1.72596666649758780920e+01) (20, 1.50000000000000000000e+03) (21, -1.86813805467284872464e+01) (22, -6.39355163072940158031e+00) (23, 1.67434226907952456997e+01) (24, 2.02221798876401521738e+01) (25, -6.74032003888909714284e-02) (26, 1.67292487794374178378e+00) (27, 1.45644897580373383628e-01) (28, 1.04936041467089182788e+02) (29, 4.37635854594309581245e+00) (30, 1.50000000000000000000e+03) (31, 1.51249389218767182896e-01) (32, 1.50000000000000000000e+03) (33, 3.93667778246619137761e-01) (34, 1.29841627453812669124e+00) (35, 2.53540793249139827237e-02) (36, -9.52338331571033869238e-01) (37, 4.82001220283659825849e-01) (38, -8.50050392330925497220e-01) (39, 6.21654054498604935475e+00) (40, -4.23052652781622473555e+00) (41, -1.98381389975734059306e+01) (42, 4.40672741765230711053e+01) (43, -3.02403842370446129806e+00) (44, 4.85491508365097218514e-02) (45, 1.23685526630249245650e-01) (46, -8.22133361350622787755e-02) (47, -3.74242291886899350328e-02) (48, -1.68975001161945348471e+00) (49, -3.10648554974148453311e+02) (50, -3.88151723971621720466e+00) (51, 4.30779784666474725441e+01) (52, -1.28753991122531474822e+00) (53, 5.90907289540248612525e+01) (54, 2.08823059767220625682e-01) (55, 1.01261313543838299411e-01) (56, 7.58932351749925793172e-01) (57, -8.43468084756747615849e-01) (58, -5.76839870774081657501e-03) (59, 8.48807053260618227242e-01) (60, 2.68946524483187854315e+00) (61, 2.94754869393629936880e-01) (62, -2.62403004203310592779e-02) (0, 9.02597439407911039666e+00) (1, -1.75083842589641193399e+02) (2, -3.82050095228992636631e-01) (3, -5.05380796911778077174e+02) (4, 1.01332959952076473442e+00) (5, 1.37574886411532038011e-01) (6, 8.98488349509126482673e-01) (7, 1.32738582721431782829e+02) (8, -6.01308782299748330047e+01) (9, 3.45466450729920282470e+01) (10, 1.57446470996587845059e-01) (11, -1.08158319676473851922e-01) (12, 1.50000000000000000000e+03) (13, -7.90707116794996434095e+00) (14, 6.07669544165906905242e-01) (15, -4.66212196335777750988e+00) (16, 1.10098911315476086920e-02) (17, -1.01111334990756560614e+01) (18, -9.97122279837275082848e-01) (19, 2.77947575718014547874e+01) (20, 1.50000000000000000000e+03) (21, -5.96145426707154939550e+01) (22, 2.88338333754830922206e-01) (23, 2.38198860752309755640e+01) (24, 1.18579635441456527900e+01) (25, 1.88861342781162927507e-02) (26, 1.06117532980881490445e+00) (27, 8.55211427223492026695e-02) (28, 7.33956020853203341403e+01) (29, 1.51757260291687595677e-01) (30, 1.50000000000000000000e+03) (31, -1.44218318939327128092e+00) (32, 1.50000000000000000000e+03) (33, 1.00620016875122741951e+00) (34, 1.75448915012536760250e-01) (35, 1.56527198695078223478e-01) (36, 1.39787429555173190465e+01) (37, 4.91706852940604621782e-01) (38, -2.22508074110408710089e-01) (39, 1.52853591574780645068e+00) (40, 4.00843058855679714725e+01) (41, 4.80042709610719668945e+01) (42, 1.88354895192499299128e+02) (43, -2.98160597669975580004e+01) (44, 2.82950359170746013060e-01) (45, -8.15830461489489532079e-03) (46, 1.19822698421843849836e-02) (47, -1.84203268061762848173e-01) (48, 3.88042000575819017172e+01) (49, 5.96516763290025664901e+02) (50, 3.31708772350538472207e-01) (51, 1.66541628002975663492e+01) (52, 2.42130329293718880024e+01) (53, 7.59035579180975883418e+00) (54, -2.45645486324915906379e-03) (55, 1.01480891571312764610e-01) (56, -8.04666984746677527163e-01) (57, 1.61383811324742598714e+00) (58, -1.84125201885470812790e+00) (59, 8.43135139838441127758e-01) (60, -1.77669211941833660173e-01) (61, 8.92780198442689743032e-02) (62, 7.57538580143606726791e-02) (0, 5.95434240072499565422e-01) (1, 6.32441514994618425582e-01) (2, 6.24105781135542936333e-01) (3, 8.89163966967802754660e-01) (4, 6.95929823331672414710e-01) (5, 4.81192104650138785527e-01) (6, 2.59130529203747017597e-01) (7, 6.48005825340235763754e-01) (8, -9.93267087978798457470e+00) (9, 6.67175495488732672733e-01) (10, 5.65180419212980122978e-01) (11, 5.50007935357201604987e-01) (12, 1.50000000000000000000e+03) (13, -2.88887498921087493287e+00) (14, 4.32543979996009686495e-01) (15, -3.95751092476121346664e+00) (16, 6.05065260722122078008e-01) 